{
	"num_layers" : 3,
	"cost_function" : "quadratic",
	"layers" : [
		{
			"num_input_layers"  : 784,
			"num_output_layers" : 30,
			"activation" : "sigmoid",
			"weights" : [-0.000997497, -0.000667531, -0.000248268, 3.42112e-05, 0.000464034, -0.00060802, -0.000494552, -0.000620106, -0.000631458, -0.000782891, 0.000219275, 0.000494675, -0.00058903, 0.000822825, 0.000750153, 0.000704272, -0.000518906, 0.000291116, -0.000117405, -0.000292886, 0.000449873, 0.00021189, 0.000586352, 0.000257424, -0.000257546, 0.000726676, 0.000367779, 0.000216041, 0.00025895, 0.000307169, 0.000738884, -0.000236549, 0.000105689, -0.000414738, 0.000630825, -0.000408822, 0.000384855, 0.00229225, 0.00658836, 0.0187191, 0.0181062, 0.00522925, 0.0146619, 0.00597644, 0.00592722, 0.00233715, 0.00342218, 0.0017158, 0.000766629, 0.000750955, -3.71638e-05, -0.000481957, -0.00065508, -0.000812922, -0.000590747, 5.56963e-05, -0.000651112, -0.000410504, -0.000115816, -0.00119348, -0.00317931, -3.3566e-05, 0.0156411, 0.0163488, 0.220419, 0.405854, 0.171995, 0.5278, 0.393948, 0.817745, 0.515871, -0.146938, -0.097702, 0.189294, 0.0599658, -0.0791182, 0.0356191, 0.220164, 0.293488, -0.00679491, -0.198332, -0.131006, 0.000889279, 0.000531358, -0.000594348, -0.000888607, -0.0191434, -0.00285835, 0.0163962, 0.0172, 0.0248775, 0.0190013, 0.282917, 0.730715, 0.647098, 0.328637, -0.163637, 0.805186, 1.18692, 0.483926, -0.159409, 0.587904, 0.0948095, 0.115527, -0.819807, -0.539058, 0.278878, -0.0849855, -0.329169, -0.183042, 0.0116977, 0.000991089, -0.000676565, -0.000411909, -0.0676517, -0.019941, 0.00834513, 0.0736535, -0.05991, -0.14151, 0.320426, 0.394088, 0.0283852, -0.851821, -0.314693, 0.0200358, -0.192949, -0.711658, 0.129082, 0.812365, -1.8024, 0.0537978, -0.046159, 0.322072, 0.72616, 0.301695, -0.770707, -0.35093, 0.00276314, 0.026872, 0.000140355, -0.000665029, -0.00943691, -0.0144909, 0.0107082, -0.0346362, 0.11835, -0.214987, 0.191239, 0.0281794, -0.535101, -1.53345, -0.809782, -0.637181, -0.770531, -0.331418, -0.664028, 0.0792272, 0.119208, -0.271652, 0.899842, 0.378083, 0.0477586, 0.513111, 0.422307, -0.211253, 0.100159, 0.0480723, 0.000670949, 0.000308476, 0.0232198, -0.124722, -0.0916371, -0.208781, -0.0908486, 0.176971, -0.645586, -0.635838, -1.62034, -0.202214, -0.581063, -0.914437, -0.127486, 0.290185, -0.277758, -0.763503, 0.527084, -0.556658, -0.0990185, -0.38666, -0.22831, -0.0341177, -0.000552082, -0.489662, 0.0422199, 0.0361512, 0.000388587, -0.00149965, 0.0578219, -0.136847, -0.283254, -0.625373, -0.377373, 0.0549704, -1.32239, -1.52863, 0.213405, -0.0545864, -1.09675, -0.973698, 0.592678, -0.401588, -0.366238, -0.0335315, 0.623815, -0.074889, 0.00988578, 0.160174, 0.0191357, -0.176007, -0.244694, -0.761309, -0.0928797, -0.0197335, -0.00120016, -0.0395091, 0.00242792, -0.433749, -1.01654, -1.31606, -0.365085, -1.23552, -2.52499, 0.24876, -0.557457, -0.050405, -0.467502, -0.536326, -0.706149, -0.895604, 0.333608, -0.814139, -0.950244, -0.875397, -0.473256, 0.16982, -0.020697, -1.06531, -1.19488, -0.610979, -0.500447, -0.315277, 0.000541002, -0.0626794, -0.0846587, -0.488039, -0.872952, -0.955627, 0.128458, 0.116146, -0.20402, 1.11446, -0.159011, -0.224112, -0.196348, -0.0256134, -0.275699, -0.291383, -0.480901, -0.409143, 0.634338, -0.218415, 0.58954, -1.22537, 0.0377326, -0.672346, -0.682506, -1.02639, -0.573564, -0.0932151, 0.000727495, -0.0557978, -0.196828, -0.264058, -0.589097, 0.677388, 0.00305532, -0.101462, -0.987476, -0.615356, -0.283495, -0.391213, 0.0309939, -0.0218897, -1.55305, -1.50187, -1.13791, -0.713128, 0.860879, 0.148594, 0.0624795, -0.309053, -0.625293, -0.590089, 0.159947, -0.352632, -0.216512, -0.0208083, -0.00052866, -0.0806799, -0.242203, -0.415133, -0.442379, 1.41901, -0.600195, -0.425502, -0.139767, 0.445352, 0.551739, -0.787872, -0.836634, 0.0414603, -0.65794, -0.273305, -0.121897, -0.834584, -0.368161, -0.465045, -0.0772677, -0.272484, -0.600974, -0.125291, -0.510478, -0.798194, 0.0283842, -0.00699538, 0.000229974, -0.134103, -0.230955, -0.642916, -0.468414, 1.62067, 0.597365, 0.519709, 0.741473, 0.0316215, 0.0891295, -0.314043, -0.0423299, -0.893463, -0.217798, 0.111082, 0.411033, -0.555994, 0.367997, 0.161453, 0.816508, 0.327407, 0.149558, 0.547598, 0.554565, -0.210903, -0.0900997, -0.0847755, -0.00074303, -0.0574479, -0.187915, -0.332716, 0.110856, 0.678362, 1.73106, 1.03609, 0.863051, -0.0909593, 1.22612, 0.44851, -0.149922, 0.210876, -0.874678, 0.119259, -0.302855, -0.0626896, -1.08776, 0.241449, -0.432885, -0.744278, 0.0481719, 0.604114, 0.449343, -0.069381, -0.36854, -0.00577643, 0.000458301, -0.0302734, -0.175215, 0.0394611, 0.096337, 0.531258, 0.276181, 0.479067, 1.29532, 1.38277, 1.324, 0.232079, 0.79178, 0.62313, -0.644101, -0.523083, 0.557912, -0.111755, -0.0301404, 0.462306, -0.504162, 0.589906, 0.147932, -0.56783, -0.305284, 0.0459131, -0.368199, 0.000336663, -0.000564487, -0.00232864, -0.202861, 0.0514731, -0.846301, 0.436524, 0.55941, 0.554046, 0.410011, 1.39455, 0.0425121, 0.799776, -0.0962601, 1.03311, -0.840162, -0.403025, 1.95213, 0.276618, 0.317053, 0.664511, -1.10615, 0.597533, -0.461018, -0.45886, 0.00767744, 0.000635523, -0.321877, 0.0382107, 0.000739708, -4.78889e-05, -0.108881, 0.111819, -0.859291, 0.123626, 0.36726, 0.924556, 0.0874756, 1.20355, 1.14965, 2.2514, -0.318709, 0.423118, 0.660228, 0.200436, 0.305572, -0.40327, 0.144753, -0.320242, 0.0769911, 1.30832, 0.498178, -0.341701, -0.296233, -0.169157, 0.0794223, 0.0784015, 0.000324992, -0.000412005, -0.0293669, 0.0315134, -0.327569, -0.380535, -0.497845, 0.31655, 1.18579, 0.0915533, 1.55451, 0.571438, 0.728176, 0.892657, -0.196712, -0.467227, -0.00476277, -0.611458, 0.0534161, -0.335284, -1.04618, -0.0773209, 0.0600366, -0.713979, -0.526256, 0.123221, 0.0979545, 0.0112498, -0.0122408, 0.000246304, -0.0198902, 0.133246, -0.12891, 0.166567, -0.409921, 0.337792, 0.573046, 0.850444, -0.361569, -0.770311, 0.433896, -0.166395, -0.547088, 0.724124, 0.862821, 0.833445, 0.744317, -0.55998, -0.15015, -0.651807, -0.0660949, -0.294316, -0.374452, 0.39758, 0.080235, 0.0210125, 0.000457873, -0.0141577, 0.0178212, 0.230315, -0.0601141, -0.0459863, -0.478016, -0.277483, -0.279988, 0.0466232, 0.0053217, 0.649493, 1.20388, 1.21522, 0.474467, 1.368, 1.04353, -0.463951, 0.578706, 0.375977, 0.0218594, -0.08503, 0.834558, 0.201257, 0.0424888, 0.249825, 0.127892, 0.0165639, -0.000487167, -0.00152255, 0.0534188, 0.125484, 0.0912253, -0.547067, -0.95714, -0.644382, -0.884288, 0.60715, -0.2002, -0.353761, -1.32889, -0.91312, 0.176257, -0.136817, -0.533243, 0.0636154, 0.180207, -0.00716364, 0.0245726, 0.55721, 0.290842, -0.177501, -0.157866, -0.0277992, 0.0233363, -0.000946052, -0.000952316, -0.000369348, 0.0348015, 0.0112856, -0.0564144, -0.975841, -0.99957, -0.69374, -0.73206, -0.00199894, 0.209523, 0.122987, 2.07624, 0.313548, -0.327388, 0.285101, 0.898686, 1.10501, 0.539112, -0.0181452, 0.105337, 0.638802, -0.0946623, -0.357399, -0.422787, -0.0923311, -0.010671, -0.000752044, 0.000284227, -0.00073673, -0.00343749, -0.0264612, -0.131864, -0.623689, -0.852676, -0.478345, -0.851914, -0.442115, -0.868323, 0.0114082, 0.179245, 0.140938, -0.292582, -0.511739, -0.270224, -0.733391, -0.239041, -0.303245, 0.0466719, 0.363815, -0.425482, -0.107855, -0.219059, -0.104072, -0.0491222, 0.000911287, -0.000686514, 0.000401166, 0.00165694, -0.129972, -0.0284325, 0.111754, 0.141251, -0.50164, -0.197595, 0.134057, -0.784492, -0.680782, -1.26624, -1.35162, -0.309997, -0.517226, -0.430933, 0.113772, -0.000823392, 0.291307, 0.57012, 0.582001, 0.346384, 0.147588, -0.13388, -0.11338, -0.018503, -0.000252724, -0.00078515, 0.000123753, -0.000329571, -0.0970676, 0.0549524, 0.313624, 0.722609, 0.913243, -0.0795311, -0.927467, -1.21808, -1.26979, -0.0129451, -0.939278, -1.269, -1.35057, -1.43667, 0.0101753, -0.571603, 0.401866, 1.48963, 1.01228, 0.099863, 0.202315, -0.0176883, 0.00348611, 0.000322862, -0.000354839, -0.000745048, 7.88293e-05, 0.00277902, -0.0326692, 0.081772, 0.21082, 0.661735, 1.21066, 0.619141, -0.301381, 0.12737, 0.900122, -0.381462, -0.382604, -0.207385, -0.243789, 0.594505, 0.413326, -0.109262, 0.6904, 0.748113, 0.253526, -0.300802, -0.202915, -0.0602278, 0.00385741, -0.000810569, -0.00064684, -0.000328715, -0.000515732, -0.000195532, 0.000775242, 0.0549267, 0.139964, 0.488467, 0.641024, 0.610521, 0.280163, 0.411221, 0.290573, 0.534509, 0.284921, 1.19822, 0.706428, -0.794098, -0.0689219, 0.490975, -0.188644, 0.0689954, 0.24848, 0.0110466, -0.00889669, -0.000424389, 0.000433653, -0.00035313, 0.00043083, -0.000483016, -0.000542344, 0.000136814, -5.42314e-05, 6.72541e-05, 0.00029197, -5.6682e-07, 0.00561298, -0.00304919, 0.0103966, -0.000781849, 0.0623072, 0.232117, 0.104259, 0.325417, 0.369137, 0.0274694, 0.0702169, 0.311368, -0.116001, -0.00154484, 0.0623243, 0.126761, -0.0067052, -0.000180517, -0.00059386, 0.000103183, 0.000442793, 0.000127171, 0.00032609, -0.000814753, 0.00097998, -0.000188818, 0.000522629, -0.000711051, -0.000328104, 0.000475814, 0.00073809, 0.000912229, -6.19526e-06, 0.0095042, 0.0205254, 0.00031686, -0.000885192, 4.28785e-05, 0.000313517, 0.000368938, 0.000467391, -0.000602588, 0.000517075, -7.55943e-05, -0.000629078, 0.000559008, -2.68258e-05, 0.000615223, -0.000794977, 0.000819636, -0.00017893, 0.000522752, -0.00039201, -0.000897517, -0.000116448, -0.00153347, -0.00381104, 0.00727452, 0.00189316, 0.0233716, 0.0108997, 0.0420956, 0.0190864, 0.019153, 0.0291039, 0.0141028, 0.0058251, 0.0197879, -0.038721, -0.0314646, 0.00674434, 0.000723927, -0.000388817, -0.000329447, 0.000651967, -0.000604541, 0.000604114, -0.000354656, -0.000310709, 0.000171903, -0.000302163, -0.000853637, -0.000641181, 0.00940672, 0.0381393, 0.108602, 0.167324, 0.18893, 0.25414, 0.306011, 0.347278, 0.462105, 0.543892, 0.332379, 0.202912, -0.171082, -0.275895, -0.0139349, 0.0305305, 0.0239533, -0.00170767, -0.0166727, -0.013177, 0.00084991, -0.000847224, 0.000275002, 0.000142491, 0.00239066, -0.00242946, 0.0203267, 0.0225415, 0.00752779, 0.0334961, 0.199578, 0.271509, 0.0372596, 0.422546, 0.839655, 1.36807, 0.912974, 0.514414, 0.756855, 0.484893, 0.631795, 0.701535, 0.319784, -0.606882, -0.375075, -0.0270547, -0.0197273, -0.017674, -0.00221195, 0.000690237, 0.000346232, 0.000296286, 0.0115958, 0.00240502, 0.145029, 0.164662, -0.0238585, 0.00790814, 0.190503, -0.229066, 0.200463, 0.641574, 0.317519, -0.394246, 0.509567, -0.332595, 0.372142, 0.859755, 0.216148, -0.107189, -0.147085, 0.266247, 0.16896, -0.304925, -0.357384, -0.167907, 0.037712, 0.000560408, 0.000315165, -0.000296854, 0.0017958, -0.0105663, 0.230345, 0.38047, -0.0397654, 0.122314, 0.238425, -0.0204081, -0.499759, -0.233305, -0.375496, -0.618359, 0.541697, -0.732043, -0.130828, -0.184988, -0.998862, 0.289487, 0.314838, 0.406693, 0.283103, -0.133243, -0.276277, -0.224595, -0.0144215, 0.00119144, 0.000558214, 0.000125309, 0.033861, 0.00695494, 0.192416, -0.193159, -0.399197, 0.000364037, -0.30813, -0.49071, -0.459571, 0.633859, -0.0347314, 0.129971, 0.0793775, 1.27458, -1.16515, -0.474986, -0.563825, -0.283075, -0.165331, 0.225976, -0.222665, 0.243798, -0.320123, 0.014547, -0.160261, -0.0464971, 0.000723389, -0.0146665, 0.0265415, -0.0346665, 0.0891389, -0.207585, -0.154041, 0.502165, 0.502537, -0.209881, -1.2886, -0.230076, 0.860717, 0.357389, -1.31098, 0.39553, -0.055172, -0.0347841, -0.174361, -0.260445, 0.509356, 0.0250165, 0.075447, 0.0564157, 0.0912178, 0.0187512, -0.324142, -0.0216568, -0.000708566, 0.00724284, 0.0452308, -0.074995, 0.298108, 0.439185, -0.00979366, 1.00768, -0.13564, -0.146861, 0.875237, -0.143381, -0.137329, 1.66074, -0.282345, -0.0442075, -0.267737, -0.0562906, 0.204992, 0.926283, -1.03825, 0.174147, -0.817991, -0.0566564, -0.603426, -1.01043, 0.0202395, 0.035941, -0.000374505, 0.0227963, 0.0965039, 0.16453, 0.281948, 0.916154, 0.164996, -0.186632, -0.123638, 0.156967, 0.323781, -0.326088, -0.492939, 0.220129, -1.33725, 0.0366826, -0.9732, 0.32047, -0.286284, -0.150086, -0.0982857, 0.256971, -0.129977, 0.0740613, -0.629419, -0.758281, -0.131808, -0.0210529, -0.000311166, 0.0130832, 0.0550837, 0.132719, 0.813282, 0.55373, 0.363711, -0.138805, 0.931358, -0.30577, 0.590791, 0.556018, 0.610954, -1.45278, -0.36235, 0.509675, 0.400032, -0.0824051, 0.920026, 0.791171, -0.532236, 0.41133, -0.499215, -0.748719, -0.971704, -1.42314, -0.202748, -0.0119973, 0.00100722, -0.000281786, 0.0244732, 0.00688951, -0.0652449, 0.237183, -0.0331328, 0.431624, 0.0636733, 1.51726, 0.083896, -0.364714, -0.0224279, -1.69663, -0.32419, -0.228535, 0.152769, 0.146288, 0.952739, 0.537897, 0.981466, 0.268222, 0.24958, -0.336573, -0.418155, -0.617389, 0.160489, -0.0111851, -0.00010394, 0.0168509, 0.0292008, 0.0769687, -0.167193, -0.254251, -0.450726, -0.42987, 0.17013, 0.663053, -0.493547, -0.249255, -1.56274, -0.626582, 0.640929, 1.12056, 0.0119505, -0.004496, 1.06665, 1.09802, 0.46767, 0.5197, 1.47815, 1.79103, 0.955212, 0.473381, 0.0613538, -0.0158883, 0.000708485, 0.00731415, 0.039522, 0.0587034, -0.333563, 0.0601886, -0.245777, -0.830619, 0.467196, -0.527451, -1.39862, -1.18029, -0.817542, 0.48901, 0.246175, 0.609294, 1.30212, 0.919126, -0.247998, 0.244668, 0.0224555, -0.0476843, -0.0401102, 0.230066, 0.684487, 0.546061, 0.0216463, -0.0472258, 0.00015902, -0.0241968, 0.00785878, 0.226379, 0.00961306, -0.174848, 0.120777, -0.998357, 0.0609362, -1.49176, -0.759724, -0.00116238, 0.483597, 1.00491, 1.1473, -0.354678, 1.24841, 0.413807, 0.261653, 1.12677, -0.937379, -0.315886, -0.239536, -0.531153, -0.787138, 0.261198, 0.0118016, -0.0042562, 1.13185e-05, -0.0630176, 0.0717925, 0.571111, -0.142188, -0.691932, -0.200612, -0.321385, -0.360441, -0.538792, -0.648477, 0.776187, 0.18769, 0.806293, 0.206176, -0.0166999, 1.15349, 0.416176, -0.617186, 0.273208, -1.443, -0.190787, 0.556027, -0.748644, -0.971716, 0.267748, 0.179858, -0.0476149, 0.000583334, -0.0327572, -0.0872676, 0.0302024, -1.05949, -1.56813, -0.658263, -0.211687, -0.20636, 0.33171, 0.464004, 0.556449, 0.252001, -0.421601, 1.07888, 2.54362, 0.226644, -0.316484, -0.379621, -0.113282, -1.35124, -0.811256, -0.449017, -1.30642, -1.12079, 0.361021, 0.0406087, -0.0923958, -0.000952635, -0.010094, -0.107282, -0.278298, -1.30048, -1.64141, -1.91041, -0.00780783, 0.412033, -0.0729615, -0.239143, 0.178185, 1.11615, 0.464855, 1.28821, -0.317541, -0.0155822, -0.374037, -0.284701, -0.184044, -0.522884, -0.333714, -0.806355, -0.895047, -0.12136, 0.166032, 0.0638232, -0.00748682, -0.0201455, 0.000741812, -0.0129891, -0.0346465, -1.79651, -1.55585, -1.03236, -0.309234, 0.493073, -0.168812, 0.124272, -0.0835846, 1.03158, 1.52412, 0.57786, -0.839848, -0.903894, -1.16531, 0.12785, -1.05182, 0.731251, -0.536173, -0.0389603, -0.362658, 0.266218, 0.123064, 0.0613479, 0.000317666, 8.75015e-05, -0.0195445, -0.134344, 0.0282827, -1.09698, -0.888177, -0.181117, 0.258952, 0.381441, 0.647173, 0.130305, -1.09299, -0.0688244, 0.0735884, 0.67385, -1.12156, -0.19556, -0.210017, -0.265257, -0.51887, -0.141892, -0.98357, 0.937648, 0.929202, 0.540237, 0.168334, 0.0641109, -0.000495549, 0.000700064, -0.00396885, -0.0632879, 0.103138, -0.490965, -0.285727, -0.147791, 0.328749, -0.612851, -1.38645, -0.0218694, 0.0107297, -0.138674, 0.000877217, -0.35124, 0.17233, 0.0343435, -0.143066, 0.151303, 0.602924, -0.442318, 0.222289, -0.33385, 0.390941, 0.0152781, 0.137761, 0.0547436, 0.000741323, -0.00028458, -0.000145943, -0.011561, 0.125938, -0.249459, 0.297618, 0.461024, -0.441621, 0.49301, 0.717418, 0.415902, -0.743265, -0.122713, -0.456992, -0.740575, 0.355766, 0.14507, -0.0965318, 0.451265, -0.0423824, 0.306244, -0.162836, -0.575268, -0.10482, -0.146126, 0.122906, 0.00884192, 0.000934254, 4.40239e-05, 0.000898243, -0.0293182, 0.034448, -0.130292, 0.662938, 0.756335, 0.203998, 0.340709, -0.0447422, 0.248496, 0.0846198, -1.12184, -0.284406, -0.0523164, -0.99724, -0.352589, -0.650185, 0.594125, 0.309443, -0.0550461, 0.617178, 0.165131, 0.0558945, 0.339661, 0.359541, 0.0112168, 0.000974123, -0.000505966, -0.000732536, -0.023424, -0.0523214, -0.128829, -0.637459, -0.607809, -0.0311315, 0.560648, -0.135247, -0.365511, -0.494216, 0.101628, 0.0205698, -0.811667, 0.0853027, 0.636188, 0.628362, 0.0893708, -0.108577, 0.0752315, 0.47385, 0.288689, 0.321122, 0.367482, 0.345467, -0.0335438, 0.000573351, 0.000373333, 5.65508e-05, -0.0190236, -0.0502271, -0.0227041, -0.219262, -0.456018, -0.0851809, -0.0303279, -0.413849, -0.0929121, 0.170565, 0.536536, -0.273524, -1.81841, -1.80356, 0.819123, 0.437388, -0.856495, -0.62181, -0.454839, 0.130611, -0.168237, 0.125294, 0.0913247, 0.0710173, 0.00249346, 0.000229896, -0.000662404, -0.000126011, -0.000621133, -0.0150137, -0.0349199, -0.00684087, 0.201963, 0.139894, 0.0928886, 0.446781, 0.125769, -0.715214, 0.01348, 0.0425492, -0.773216, -0.3626, 0.360111, -0.219839, -0.907023, -0.571491, 0.035096, 0.063383, -0.0168351, -0.0519974, -0.0377015, 0.000149705, 0.000350784, -0.000931272, -0.000505295, -0.000176061, -0.000318339, 0.000873395, 0.00126832, 0.00200237, 0.0341034, 0.0633066, 0.182133, 0.0687206, -0.100693, -0.169778, -0.0139335, -0.708171, -0.313706, 0.130296, -0.394088, -0.478258, 0.0583429, 0.119918, -0.0806921, -0.107806, -0.0519132, -0.0155637, -0.000405701, 0.000614485, 0.000203162, -0.000955992, 0.000755547, 0.00056151, -0.00084405, 0.000887509, -0.000718824, 0.000533229, -0.00629557, -0.0467844, -0.0449673, 0.017384, 0.0860032, 0.164227, 0.0941244, 0.0781463, 0.121389, 0.271702, 0.370005, 0.10988, 0.0339507, 0.063867, 0.0082236, 0.0157348, 0.0450404, 0.00670843, 0.000399457, 2.75582e-05, 0.00069274, -0.000655568, -0.000613392, -9.84222e-05, 0.000354411, 0.000503098, -0.00044084, 0.000678884, -0.000996765, -0.0006433, 0.000110263, 0.000702445, -0.000855464, -0.000239784, -0.00315282, -0.00537244, 0.00045479, 0.000638217, 0.000804559, 0.000818293, -0.000206946, 0.000490707, 0.000388043, -0.000197851, 0.000181249, 0.000233863, -0.000534959, -0.000825129, -0.000691824, 0.000968871, 0.000182592, -0.000144993, -0.000921751, -0.000758354, 4.42136e-05, 0.000773563, 0.00166354, 0.00205151, -0.0061248, -0.00431464, -0.0096457, 0.015158, 0.0474341, 0.038606, -0.00409046, -0.0277781, 0.0496652, 0.00887408, -0.00420954, 0.105977, 0.119962, 0.0197851, 0.000343401, -5.76282e-05, -0.000869137, -0.000846614, -0.000614185, 0.000588244, 0.000926389, 5.02029e-05, -0.000243309, -0.000575594, 0.0223417, -0.00062118, 0.00269795, -0.00379103, 0.0295737, 0.11923, 0.0236441, -0.0598509, 0.066916, 0.486674, 0.397058, 0.0437972, -0.0728023, 0.442158, 0.519829, 0.38609, 0.176329, 0.0713065, 0.0223182, 0.0586474, -0.00536058, 0.00130042, 0.000722648, 0.000835139, -0.000604602, -0.000171545, -0.0009927, -0.00626976, -0.0131656, -0.0348003, -0.00834501, -0.0180285, 0.13524, 0.448385, 0.396634, 0.155992, 0.0391167, 0.982861, 1.48766, 0.00160493, -0.263993, 0.548664, 0.331354, 0.205939, 0.43356, 0.36726, -0.0454776, -0.304851, -0.313758, -0.0164447, 0.0264143, 0.000543809, -0.000284158, 6.97257e-05, -0.00546291, -0.0102168, -0.0724862, -0.330579, 0.0523944, -0.0586377, -0.312916, 0.0657702, 0.348278, 1.05625, -0.0633055, 0.436307, 0.0595045, -0.717749, -0.898939, 0.935549, 0.611552, -0.578778, -0.534748, -0.0400027, 0.376627, 0.821288, 0.194796, 0.183776, 0.0450301, -0.0146345, -0.00019187, 0.000593127, -0.00103543, -0.0718339, -0.288058, 0.10921, 0.374369, -0.473199, 0.588523, 0.638272, 0.732226, 1.2894, -1.07425, -0.176697, -0.738424, 0.367134, -0.623967, -0.367804, 0.256768, -0.988035, 1.70179, 1.09336, 1.05196, 1.20997, 0.23481, 0.256593, -0.015374, -0.0163443, 8.22474e-05, 0.000730835, 0.00240652, -0.199911, -0.401588, -0.251305, 0.319296, 0.0953954, -0.416858, -0.118914, 0.313742, 0.84991, 0.722562, 0.595082, 1.12555, -0.0929145, -1.21176, -0.463336, -0.0949811, -0.726893, 0.486189, 0.222962, 1.8241, 1.05906, 0.61516, 0.20595, 0.0403262, -0.00967752, -0.000617788, -0.0145511, -0.00880312, -0.00909142, -0.707172, -0.49675, 0.143846, -0.307293, -0.366211, -0.0788198, 0.0123496, 0.0227773, 0.187867, 0.267039, 0.205852, 0.448724, -0.139133, -0.444916, 0.366251, -0.266997, 0.211707, 2.53902, 2.27896, 0.967853, 0.499259, 0.142781, 0.0467377, -0.00254408, -0.00101004, 0.0141022, 0.0400596, -0.251043, -0.50964, 0.348322, -0.317125, -1.19479, 1.03215, 0.619383, -0.244749, -0.0300939, 1.42203, 1.29934, 0.943191, 0.298084, -1.04064, -0.024554, -1.38669, -0.748106, 1.71214, 1.71715, 1.50958, 1.33248, 0.847089, 0.354135, 0.0970143, 0.00378857, -0.00105032, 0.000279558, -0.213435, -0.601684, -0.41536, 0.145428, -0.328355, -0.76161, -0.173325, -0.531641, 0.477515, 1.30259, 0.967117, -0.49274, 0.247217, -1.65785, -1.69153, 0.0164603, 0.236374, 0.191968, 2.12517, 1.23346, 1.53039, 1.2148, 0.810108, 0.411902, 0.125959, 0.025564, 0.000163892, -0.0163255, -0.203952, -0.303765, -0.281135, -0.359646, 0.0596737, -0.00130727, 0.501078, 1.34059, 0.601152, -0.0939499, -0.475264, -0.445376, -1.47702, 0.374638, -0.215172, -1.19028, 0.294435, 0.051805, 2.02301, 1.14763, 1.21277, 1.0162, 0.869922, 0.46691, 0.156689, 0.000581886, 0.00116654, -0.0106658, -0.0602221, -0.0338797, 0.053717, -0.224644, 0.371839, 0.819376, 0.200868, -0.10571, 0.402164, 0.131791, -0.113214, 0.0540756, -1.39124, -0.798493, -0.218936, 0.503181, 0.665528, 1.11604, 1.72585, 1.00551, 0.667751, 0.442884, 0.645746, 0.500775, 0.111399, 0.0036366, 0.000857007, 0.0313026, 0.0424662, 0.00435649, 0.467567, -0.278804, -0.172804, -0.554004, -0.272394, -0.356219, 0.0900045, -0.840627, 0.83991, -1.51768, -0.793435, 0.292116, 0.663004, 1.37624, 0.506601, 1.69981, 0.41597, 1.06396, 0.913887, 0.0723109, 0.128788, 0.210421, 0.15433, 0.0417054, 0.000535446, 0.0202745, 0.0536176, -0.00945402, -0.0171397, -0.292374, -0.382381, 0.399479, 0.0095623, 0.456922, 0.120861, -0.113743, 1.10743, -0.768268, -0.2047, -0.196043, 0.752311, -0.549213, -0.661087, 1.08818, -1.4556, -0.690875, 0.830944, -0.0637941, 0.756032, 0.270864, 0.250233, 0.0517967, -0.00065307, 0.00106295, -0.0165279, 0.0326229, -0.309588, -0.0778195, 0.347268, 0.4249, 0.285087, 0.232661, -0.250438, 0.929539, -0.457659, -0.740433, 0.0384409, -0.431044, 0.35695, -1.49697, 1.27849, -0.766698, 0.0943119, 0.135625, 1.06448, 0.763769, 0.589953, 0.349371, 0.125543, 0.00645443, -0.000704804, -0.00280076, -0.041902, -0.116262, -0.216641, 0.00102989, 0.295487, 0.323096, 0.0952815, -0.867727, 0.439906, 0.644704, 0.878595, -0.710767, -0.614337, 0.51121, 0.630415, 0.7588, -0.0662306, 0.00316465, -0.196452, -0.738516, -0.705696, -0.555323, 0.984317, 0.825189, 0.237332, 0.00596685, -0.000901187, -0.0047156, -0.0567677, -0.0948047, 0.172149, -0.339073, -0.0436707, 0.440511, 0.530361, -0.669912, 0.89046, 0.874924, -0.866464, -0.4192, -1.07558, -0.412087, -0.249276, 0.267272, -1.38073, -0.586295, -0.921617, -0.584353, 0.364859, -1.27148, 0.480488, 0.711282, 0.481046, 0.014331, 0.000346477, -0.00151484, -0.179907, -0.236537, -0.199281, 0.0118447, -0.236859, -1.21417, -0.373134, -0.285848, 0.477011, 0.769434, 0.53962, 0.402888, -0.473678, -0.0542768, 0.0217974, 0.515456, -0.0615, 0.0411014, 0.893729, -0.809127, 0.0721506, 0.0819421, 0.67432, 0.835971, 0.257349, 0.0332681, 0.163329, 0.00066403, -0.277057, -0.41813, -0.608231, 0.276342, -0.0890782, 0.96573, -0.297974, 0.457951, 0.024387, 0.0805751, -0.342251, -1.69527, 0.26162, -0.547808, -0.870126, 0.815111, -0.579362, 0.0969531, -0.514977, -0.146557, 0.310501, 1.10185, 1.15211, 0.486144, -0.00324278, 0.00296241, -0.000814, -0.0510854, 0.364204, -0.134163, -0.323129, 0.0344798, 0.562973, 0.527901, 0.665864, 0.311948, 1.34848, 0.249601, 1.22639, 0.867499, 0.297008, -0.270039, -0.612035, 0.210343, 0.843008, 0.306969, -0.221934, -0.360794, 0.721586, 1.05008, 0.916125, 0.0448152, -0.071472, 0.00152675, 1.33366e-05, -0.129001, 0.173991, -0.304443, 0.409742, 0.101134, -0.229785, 0.917858, 0.182878, -1.04389, -0.139398, 0.743566, 1.57477, 0.249578, -1.44604, 0.487391, -0.722532, -1.10198, -0.856507, -0.0323401, -0.157915, -0.387588, 0.812937, 1.0222, 0.300856, 0.0287616, -0.0710924, -0.000733657, -0.000336149, 0.000167289, -0.258754, -0.414327, 0.228936, -0.0230143, -0.373717, 0.164681, -0.179865, 0.600453, 0.370467, -0.0167009, 0.826722, -1.32251, -0.565771, -0.297372, -1.23584, -0.344097, -0.954425, -0.374305, -0.0590701, 0.61691, 0.161652, 0.503739, 0.255475, 0.0505512, 0.00320281, -0.000180281, -0.000937927, 0.000926113, -0.0587053, -0.314678, -0.293694, -0.541673, -0.548238, 0.475942, 0.0877009, 0.674844, 0.440623, -0.802041, 1.32178, 1.69847, 0.442948, -0.893485, 0.0771261, -0.0200641, -0.944585, -0.713386, -0.082351, -0.252761, -0.077062, 0.59226, 0.237599, 0.012098, -0.00123119, -0.000537725, 0.000566942, -0.000122349, 0.0686049, 0.0306721, -0.0782672, -0.134113, -0.429014, -0.225396, 1.29204, -0.0799813, -0.152058, 1.08466, 0.430012, 0.054374, 0.826457, -0.375409, -0.27155, -0.299188, -0.691276, -0.0800275, -0.156936, -0.0893168, 0.981231, 0.819373, 0.0117563, -0.00207068, 0.000938036, 0.0003455, -0.000813227, 8.51772e-05, 0.0588287, 0.0487821, -0.0756463, -0.245229, -0.683521, -0.980087, -0.547392, -0.481069, 0.0250817, 0.0749829, -0.358342, -0.0104082, -0.27917, 0.347472, 0.433696, -0.177659, -0.221968, 0.494373, 0.567832, -0.0838592, 0.491417, 0.347457, 0.0330578, -0.0136912, -0.00465547, 0.000645253, -0.000702078, -0.000719962, 0.00609043, 0.0383441, 0.0356651, -0.16787, -0.814937, -0.843782, -1.14639, -0.641232, 0.125974, 0.313668, -0.581596, -0.718847, 0.437277, -0.719762, 0.363029, 0.941897, -0.166738, -0.444463, 0.0449448, 0.289133, -0.0599354, -0.0828099, -0.00235311, -0.00109964, -0.00144141, 0.000810419, 0.00011594, -0.000123447, -0.000395856, -0.000813392, 0.000787946, 0.0101514, 0.024979, 0.015391, 0.105701, 0.2803, 0.235219, 0.151588, 1.04831, 0.103894, 0.508776, 0.191935, 0.491763, 1.04733, 1.08885, 0.566786, 0.219293, 0.271808, 0.152817, 0.0292052, 0.00155669, -0.000709527, -2.82296e-05, -0.000919797, 0.000697439, -0.000114109, -9.96429e-05, 0.000501938, -0.000186872, -0.000325815, 0.0167373, 0.0966873, 0.0891464, 0.0133179, 0.0546177, 0.0542873, 0.17735, -0.012117, 0.0780956, 0.189166, 0.156438, 0.118115, 0.376142, 0.114361, -0.0670187, 0.0114165, 0.0392989, -0.00141116, 0.000939756, 0.000756401, -0.000439314, 0.000240272, 0.000617481, -0.000295755, -0.00088757, -0.000308878, 0.000137486, -0.000204688, -0.000877987, 0.000990356, 0.000810175, 0.000488632, 0.000751274, 0.000570727, -0.00046827, -5.85977e-05, 0.000623472, 0.000321607, -0.000787164, -8.90835e-05, 0.000671438, 0.000472762, 0.000231422, -0.000300394, 0.000178869, -0.000470016, 0.000276467, 0.000131626, -0.000714286, 0.000511643, 0.000836787, -0.000556749, -0.000166662, -0.000603687, 0.000582131, -0.000835704, 0.000894487, -1.11379e-05, 0.000829942, 0.00390817, 0.00933402, 0.00271994, 0.00261302, -0.00782933, -0.0891847, -0.0233423, -0.0771586, -0.0258117, 0.000817033, 0.000631337, 0.0010178, -0.000202857, 0.0025619, 0.00378745, 3.81481e-06, -0.000434736, -0.00060094, 0.00049266, 0.000418806, 0.000622242, 0.00026418, -0.000694574, 0.0710258, 0.0185524, 0.023177, 0.016525, 0.020514, 0.115218, 0.216246, 0.170612, 0.105575, -0.378037, -0.339042, -0.0411068, -0.0171621, 0.0470668, 0.540823, 0.0780369, 0.0561802, 0.0147878, 0.00663632, 0.010379, 0.00358683, 0.000686065, 0.000140416, 0.00061211, -0.000335734, -0.000712394, -0.0753087, -0.0176785, 0.0128123, 0.147517, 0.130512, 0.164325, 0.167721, -0.530334, -0.0783441, -0.354274, -0.330117, -0.0883148, 0.26398, -0.0181389, -0.42282, 0.523613, 1.25469, 0.137547, 0.71165, 0.716613, 0.434794, 0.178109, 0.108756, 0.0788254, 0.14381, -0.000687674, -0.000922666, 0.000112405, -0.259027, -0.0469712, 0.0697007, 0.646892, 0.25745, 0.539945, 0.141913, -0.55175, 0.00237583, 1.25892, -1.06508, -0.255344, 0.857006, -0.402562, -0.158499, 0.50566, 0.564757, 0.125221, 0.0591249, 0.241812, 0.409662, -0.0642928, 0.489737, 0.747405, 0.121469, 0.0855126, -0.000970397, 0.00023191, -0.0365292, -0.0118194, 0.062661, 0.567357, 0.0108301, -0.380827, 0.680678, 0.371767, -0.252987, 0.0745872, 1.12438, -0.144239, 0.134594, -0.644803, -0.252919, 0.480616, 0.143944, -0.588531, 0.765258, -0.858205, 0.575627, 0.067547, 0.381827, 0.762827, 0.313002, 0.124108, -0.000325907, -0.000623905, 0.0290693, 0.108356, 0.315269, 0.592193, 0.275884, 0.72965, 1.08202, 1.03385, -0.90189, -0.647434, -0.366991, 0.620344, 0.204477, 1.33208, -0.330283, -0.298194, -0.0722979, 1.22297, -0.138645, -0.272615, -0.174177, -0.505808, 0.550235, 0.490014, 0.0358427, 0.0578827, -0.000890805, 0.00136595, 0.0255896, 0.11533, 0.00738927, 0.37127, 1.03388, 0.214289, 0.347236, 0.326187, 0.0794844, 0.557955, -0.0732193, 0.245797, -1.36682, -0.640824, -0.239338, 0.536432, 1.67894, -1.11478, -0.534289, 0.244473, -0.413939, -0.00391793, 0.817075, 0.432225, -0.23169, 0.0558814, -0.000199437, 0.00234795, -0.00118706, 0.0708206, -0.0859858, 0.450553, 0.21299, 0.0126054, 0.558689, 0.905607, 0.384898, 0.22321, 0.227247, 0.220255, 0.298508, 0.672969, 0.826571, -0.254024, 0.0620552, -0.497427, 1.43274, 0.00579873, 0.0164982, 1.02621, 1.08614, 0.315541, 0.0565838, 0.0277306, -0.000789247, 0.00979583, 0.00336524, 0.102746, -0.0144474, 0.224618, -0.27526, -0.690658, 0.137968, 1.29173, -1.26781, -0.634189, 0.912425, 0.343756, 0.725445, -0.204254, -0.48745, 1.13018, 0.802701, 0.625983, 0.439905, -0.184303, 0.335325, 0.729594, 0.583291, 0.367691, -0.102232, -0.0734162, 0.000777253, 0.00126654, 0.00941474, 0.337975, 0.264786, -0.2424, -0.0861504, -0.238056, -0.22411, 0.860233, -1.05919, -0.67107, -0.556876, -0.470515, -0.37585, -1.14761, 0.519257, 0.143616, 0.411832, -0.504325, 0.786966, 0.136147, 0.399136, 0.239403, 0.561785, 0.364957, 0.129091, -0.0263043, -0.000973618, 0.00914803, 0.019679, 0.301779, 0.0815222, -0.732896, -0.647956, 0.411937, 0.240286, 0.0789583, 0.528816, 0.0615663, 0.425525, -0.928859, -1.20723, -0.257811, -0.711718, -0.475366, 0.818374, 0.00228716, 0.131106, -0.528009, 0.965252, 0.503669, 0.291938, 0.339775, 0.254261, -0.0874748, 0.000960692, 0.0123895, 0.0196498, 0.229453, -0.127823, -0.493585, -0.121575, 0.379534, 0.16205, -0.023691, 0.213371, -0.0993182, 0.1342, 0.216211, -0.357122, -0.246222, -1.15582, -0.967265, 0.269073, 0.786607, 0.139909, 0.0114553, 0.666464, -0.459359, -0.42372, -0.316461, 0.0818878, -0.06633, -0.000191696, 0.0012776, 0.00610598, -0.0760967, -0.21697, -0.543107, 0.549427, 0.602131, -0.306164, 1.64702, 0.698725, 0.528681, 1.16106, -0.204186, -0.927105, -0.854636, -0.456572, -0.142615, -0.209372, 1.59566, 0.300392, -0.730491, 0.651899, 0.0466431, -0.140127, 0.109066, -0.188487, 0.0212191, 0.000935885, -0.000472612, -0.0125172, -0.199355, -0.00625681, 0.0588851, 0.907647, 1.19936, -0.541385, 0.277218, 0.272864, 1.10874, 0.039044, -0.374278, -0.38238, -0.0681608, -0.3226, -0.583255, -0.0422907, -0.192138, 0.627076, 0.0580775, 0.242102, -0.629243, -0.381597, 0.0308014, -0.0494997, -0.00387837, -0.000136978, -6.67615e-06, -0.0721217, -0.0304126, 0.00315836, 0.184734, 0.668426, 1.10759, -0.479361, 0.0459074, 0.35739, 0.196155, -0.549045, 0.169872, 0.0649765, 0.411468, -1.42702, -0.0169815, 1.60484, 1.27816, 1.75943, 1.06819, 1.20392, 0.515952, 0.123875, 0.14804, -0.0973319, -0.0604721, 0.000837265, 0.000101876, -0.0462599, 0.00845281, -0.00256903, 0.536523, 0.729548, 0.343504, 0.533681, -0.554086, 0.049036, 0.144011, 0.321755, -0.271674, -0.243396, -0.0412426, -0.318991, 1.47232, 1.46684, 1.79093, 1.55365, 1.51925, 1.36653, 0.565693, 0.0433499, -0.378606, -0.298272, -0.0986709, -0.000571825, -0.000588421, 0.00187776, 0.0049615, 0.0823681, 0.899076, 1.28372, 0.897851, 0.710186, 0.371614, -0.336709, -0.506993, -0.809222, -1.66173, -0.455251, 0.103158, 0.74951, 1.94904, 2.08233, 1.65438, 0.627449, 1.56124, 0.924717, 0.384833, 0.158366, -0.340045, -0.0779064, -0.0125185, 0.00147518, -0.000243548, 0.00432406, -0.0295602, 0.184145, 0.710863, 0.477163, 0.133911, 0.0639122, -0.72901, 0.869809, 0.53926, -0.356614, 0.169509, 0.708651, 0.967996, 1.66983, 0.830699, 0.247112, 0.0911493, -0.380056, -0.248389, -0.408096, -0.118865, 0.218035, -0.0746328, 0.014649, -0.0607136, 0.000223684, 0.00178467, -0.00396506, -0.145702, -0.0611701, 0.438225, 0.113573, -0.0741817, -0.130411, -0.526828, -0.626137, -0.179569, 0.109922, 0.359137, 0.888023, -0.073817, 0.42609, 0.302782, -0.204094, 0.167735, -0.78892, -1.04153, -0.819756, -0.268799, 0.0162833, -0.110766, 0.0209029, -0.0207536, -0.000267067, -0.000344721, 0.00153372, -0.170559, -0.42524, 0.681039, 0.13507, 0.264124, 0.381729, -0.579341, -0.366104, -0.305349, -0.918117, 0.104286, -0.742215, -0.619335, -1.12418, -0.183233, -0.423731, -0.90494, -0.0543798, -0.153239, -0.522444, -0.829983, -0.458094, -0.101422, -0.0219167, 0.000232535, 0.000462536, 0.000267738, 0.0177202, -0.216298, -0.158821, -0.519251, -0.170709, 0.560979, -0.335289, 0.0672812, -0.019492, 0.619361, -0.63276, 1.76761, 0.270779, -0.309797, -0.0186495, 0.333106, -1.23987, -0.0937841, 0.519268, 0.0695983, -0.917549, -1.31499, -0.587067, -0.183842, -0.00970577, 0.000462671, -0.000393311, -8.51842e-05, 0.00288379, -0.104367, 0.42573, -0.735328, -0.363758, 0.399152, -0.685218, -0.83625, 1.2489, -0.366122, 0.884284, 0.693706, -1.05857, -0.106782, 0.229563, -0.435613, -1.704, -0.815, -1.00505, -0.327786, 0.213209, 0.150964, -0.169413, -0.1275, -0.0195545, -0.000171103, 0.000694998, -0.000351054, 0.000555526, 0.431775, 0.334342, -0.642902, -0.148747, 0.293778, 0.546928, -0.366121, -0.148902, 0.25624, -0.7177, -0.918951, 1.02761, 0.226521, -0.300371, -0.914517, -0.101992, -0.859832, -0.320735, -0.0980118, -0.144128, 0.0695633, -0.166971, -0.204723, -0.128005, -0.000164342, 3.88501e-05, -3.36619e-05, 0.000609196, 0.366456, 0.257749, 0.200326, 1.00656, 0.754462, -0.0418757, 0.473535, 0.6656, 0.239772, 0.695428, 0.503036, -0.464139, 0.0131863, 0.12312, -0.680034, -0.133275, 0.440505, -0.0920647, -0.416127, -0.461539, -0.203255, -0.0657045, -0.095241, 0.00338157, -0.000833003, -8.00501e-05, -0.000646046, -0.000633521, 0.0248445, 0.109227, 0.121058, 0.122337, 0.767545, 0.851172, 0.458623, 1.85638, 0.944399, 1.17818, 1.67817, 1.72051, 2.15718, 1.78148, 1.46895, 1.10213, 0.851558, 0.236697, 0.187002, -0.0442508, -0.0601727, -0.00198277, 0.0113155, 0.0121111, 0.000915281, -0.000925657, -0.000610584, -0.000962951, 0.000885779, 0.00253961, 0.0956543, 0.236449, 0.312531, 0.17155, 0.047245, -0.333103, 0.0800977, 1.06757, 0.665016, 0.538244, 0.219485, 0.252354, 0.144318, 0.0101202, 0.0443224, 0.0591999, 0.038715, 0.0316072, 0.000891764, -6.73368e-05, -0.000319058, -9.65911e-05, 5.76495e-05, -3.50658e-05, 0.000109531, -0.000407575, 0.000585314, -0.000307606, 0.000871057, 0.00102354, 0.00117952, 0.000310947, -0.000638323, -0.0090379, 0.000169155, 0.00089201, 0.00800395, 0.0121798, -0.0336711, -0.0513178, -0.0360035, -0.0821458, 0.0157221, 0.00550849, 0.00198005, 0.00124013, -0.000547985, -0.00076867, 8.26746e-05, 6.54012e-05, -0.000816889, 0.000170019, -0.000885922, -0.000982421, -0.000662038, 0.000364483, 1.80059e-06, 0.000612476, -8.51161e-05, -0.000514267, -0.000690237, 0.000307718, 0.000105625, -0.00031315, -0.000471503, 0.000289098, 0.000378895, 0.000805292, 0.000842586, 0.000184423, 0.000478866, 0.000309793, 0.000685293, 0.000138401, -0.000498703, -0.000536668, 0.000418806, -0.000903073, -0.000698233, 1.10782e-05, 0.000357036, 0.00087225, -0.000907529, 0.00040834, -0.00078058, 0.000623048, 0.000198224, -0.00171234, -0.000966308, 0.00169667, -0.0208015, -0.0305206, -0.00763909, 0.0228017, 0.0415745, 0.00820666, 0.00217948, -0.000871761, 0.0353994, 0.0243533, 0.000261054, -0.000208046, 0.000472242, 0.000927366, -0.000232276, 0.000913572, -2.66427e-05, -0.000604907, 3.44554e-05, 0.000115207, -0.000683784, 0.00046814, -0.000107992, 0.0119104, 0.00840633, -0.0178436, -0.00459183, 0.00671783, -0.0399626, 0.0792856, 0.0829862, 0.303486, 0.571901, 0.139599, 0.0755677, -0.0545784, -0.0270687, -0.0608915, -0.0564535, -0.0253753, -0.00252017, -0.00303521, 0.000997873, 0.000879452, -0.000582507, 0.000521348, -0.00020426, 0.0260298, 0.00550515, -0.0094638, -0.00241251, 0.0122878, -0.125346, -0.0691283, -0.0676534, 0.0161852, 0.271428, 0.0647413, 0.146745, -0.155097, 0.168624, -0.240896, 0.165222, 0.710037, 0.494015, 0.139204, 0.0354297, 0.345294, 0.0164642, -0.119776, -0.0229673, -0.00393664, -0.000528977, -0.00077105, -0.000329493, 0.0885875, 0.0195584, -0.00136934, -0.104784, -0.0972791, -0.510727, -0.425892, 0.231583, -0.0775289, -0.378013, -0.629303, -0.727006, 0.0705905, -0.312528, -0.194088, 0.0973906, 0.605675, -0.112401, 0.121864, 0.102227, 0.256162, 0.230591, 0.2036, 0.0640462, -0.0838786, -0.07444, 4.91348e-06, 0.000513596, 0.0112358, 0.0147455, 0.021737, 0.356756, -0.0360257, -0.761506, 0.0298795, -0.186251, -0.629534, 0.124278, 0.0110557, -0.0731908, -0.194158, 0.123744, 0.776146, 0.293946, -0.027877, -0.0989976, 0.00721481, -0.350677, -0.599164, -0.522565, 0.0307229, -0.222954, -0.26414, -0.0926867, 0.000241615, -0.000300444, -0.0299345, -0.11967, 0.0384985, 0.711706, 0.927331, 0.707106, 1.14107, 1.19783, -0.695723, 0.409172, 0.753006, -0.34727, 0.966471, -0.0145353, -0.335585, 0.430326, 0.238999, -0.160767, -0.789362, -0.420338, -0.420564, -0.265489, -0.181668, -0.18808, 0.00145014, 0.00220955, -0.000255602, -0.00443285, -0.0179466, -0.137254, 0.413359, 0.369598, 0.133326, -0.487626, -0.668741, 1.28592, -1.07943, -0.882535, -1.16263, 0.0115377, 1.19511, -1.76302, 0.850292, -0.905873, 0.161666, 0.714751, 0.356928, 0.703072, 0.984243, 0.150057, -0.422681, 0.183321, 0.0382939, -0.00603591, 0.00737089, 0.0152992, -0.0593482, -0.251155, 0.472468, 0.439031, 0.325018, 0.407687, -0.164403, 0.726848, 0.286445, 0.687289, -0.175584, 0.989302, -0.234608, 0.256246, -0.51966, -0.445676, 0.152438, 0.317753, -0.271133, 0.242503, 0.201022, 0.688531, 0.508239, 0.80605, 0.320944, 0.0703353, -0.000223129, 0.012179, 0.0956008, 0.00818619, 0.444623, 0.898031, 0.882749, 0.169203, 0.216773, 1.03409, 1.12532, -0.540889, -0.458697, 0.724121, 0.405562, 1.16077, 1.01441, 0.466175, 0.664612, -0.27346, -0.706434, 0.589547, 0.904025, 0.928156, 0.434231, 0.92855, 0.208808, 0.0144626, 0.000969467, 0.00466649, 0.185068, 0.0309082, 0.605473, 0.430827, 0.975093, 0.435903, -0.66458, -1.25481, 1.54909, 0.0639325, 0.769576, 2.43697, 1.17978, 2.3215, 1.47565, 0.720263, 1.76769, 1.61758, 0.00731301, 0.92739, 0.396309, 0.207091, 0.21002, 0.757888, 0.360739, 0.00371837, 0.00106541, 0.0223998, 0.16886, -0.0258231, 0.737155, 0.147801, 0.0621749, 0.248783, -0.554485, -0.0446091, -0.210582, -0.586332, -1.01516, 0.0240027, 0.266586, 0.733084, 0.070387, -1.59017, -0.483917, 1.13626, -0.472847, -0.159199, 0.450514, 0.0082343, -0.020459, 0.336528, 0.420098, 0.0528589, 0.00110016, 0.0378866, 0.077046, -0.261346, 0.547787, 0.160577, -0.496508, 0.403468, 1.04824, -0.161618, -0.955028, -0.814588, -1.29212, -1.69721, 0.0632144, 0.763947, -0.685604, -0.332061, -0.677893, -1.89428, -0.538892, -1.32299, -0.908612, -1.0287, -0.506639, -0.0338749, 0.357595, 0.0678372, 3.00294e-05, 0.00633202, 0.083405, -0.308756, -0.485486, 0.304912, -0.120187, -0.0489961, -0.177225, -1.20348, -0.133711, -0.923851, -1.42187, -1.80434, -0.370931, -1.54071, -0.410309, 0.40732, -0.853053, -2.02063, -1.13572, -1.04124, -1.34117, -1.49388, -0.548101, -0.282319, 0.0689839, 0.00211104, -0.000181148, 0.0023818, 0.0842527, -0.227434, -0.133705, 0.0906383, -0.466734, -0.503122, 0.16917, -0.718893, -0.0411959, -0.701345, -0.614579, -1.63863, -0.120881, -0.266595, -0.0663489, 0.00267057, 0.116177, 1.01635, -0.171484, -0.846891, -0.640969, -1.15036, -1.11352, -0.206793, 0.00752712, -0.000264799, -0.000330023, -0.00274445, 0.072943, -0.175025, 0.180876, -0.526067, -0.231955, -0.418175, 0.133011, -0.582933, -0.916067, -0.781691, 0.348851, -0.275287, -1.09749, -1.03791, 0.0747173, -0.923916, 2.00158, 0.78497, 0.881601, 0.488882, -0.278775, -0.203055, -0.580532, -0.308892, -0.0831686, -0.00147292, -0.000695323, -0.00703356, 0.0170271, -0.259946, -0.109665, -1.47166, -0.170674, -0.421048, -1.06202, 0.259741, -1.00669, -1.54982, -0.374926, -0.189405, 0.0517495, -0.295373, 0.95169, -0.727152, -0.26572, -0.222416, 0.146926, 0.680493, 0.0245565, 0.365341, -0.11453, -0.0942089, 0.125672, -0.00267144, 0.000112339, -0.00120011, -0.0204778, -0.386164, -0.887363, -1.19178, -0.325262, 0.014605, -0.919869, -0.556014, -0.0895273, 0.423627, -0.581628, -1.0863, 0.186765, 2.07284, 0.689294, -1.07934, 0.18086, -1.28329, -0.0675333, -0.197702, 0.619744, 0.563682, -0.176729, 0.511933, 0.109852, 0.00459673, 0.00792907, -0.000443246, 0.0490629, -0.210176, -0.557522, -1.0497, -1.02351, -0.400816, -0.841177, -0.440283, -0.541492, 0.92519, 0.325463, -0.0445567, 0.179124, -0.585568, -0.953906, -1.21214, 0.204629, -0.854887, -0.061483, -0.0445361, -0.0429071, -0.0618688, 0.055291, 0.159087, 0.0546123, 0.0323337, 0.000174139, 0.0220781, 0.244741, -0.0208296, -0.192823, -0.313523, 0.11478, 0.303713, -0.0682492, 0.269191, -0.284285, -0.175996, 0.578814, 0.465755, 0.0649567, -0.101306, -0.0768728, -0.382404, -0.559319, -0.936825, -0.113287, -0.559381, -0.985243, 0.0969868, 0.045077, -0.0661939, 0.0339636, 0.0115209, -0.000256691, -0.00151552, -0.10487, 0.0983054, -0.0348018, -0.00131334, -1.33961, 0.283344, 0.492265, 0.0425355, -0.681279, -0.602619, 2.23774, -0.348817, 0.0858303, -0.324713, 0.878224, -1.12814, -0.536872, -0.161822, -1.10556, -1.0074, -0.514167, -0.0322713, 0.187339, -0.0502294, 0.0338103, 0.000418504, 0.000727897, 0.000809423, 0.200695, -0.289885, -0.508705, 0.0264461, -0.37002, -0.389437, 0.070804, 0.995438, 0.544842, 0.384979, 0.210123, 0.405674, 0.572673, -0.114632, -0.507122, 0.171251, -0.371151, -0.344407, -0.407468, -0.174729, -1.06733, -0.310291, 0.194255, -0.0365485, -0.0149386, 0.000237397, -0.000116705, 0.000688957, 0.346134, -0.060024, -0.587497, 0.36221, -0.00944367, 0.229608, -0.27099, 0.803571, 0.220569, 0.946496, -0.544111, -0.262094, 0.932599, 0.60439, 0.820237, -0.0301949, -0.657823, 0.229358, -0.0760195, -0.783672, -0.778632, -0.490773, 0.158811, -0.0844346, 0.0124999, 0.00064927, 0.000699576, 0.000841121, -0.0674627, -0.235644, -0.0397347, 0.213343, 0.586769, 0.373826, -0.808344, -0.436153, -0.659902, -0.338512, -0.543592, -0.287042, -0.832237, -0.310203, -0.396025, 0.233963, 0.119694, -0.0699256, -0.526677, -0.482084, -0.809432, -0.599071, -0.0818905, -0.0627577, 0.0773856, -0.000727775, 0.000127537, -0.000922666, -0.0390348, -0.103086, -0.265882, 0.460203, 0.996476, 0.20369, -0.652855, -0.944592, -1.32346, 0.272755, -0.116074, 0.738491, 0.475935, 1.03328, -0.899771, 0.39601, -0.20684, 0.0431927, 0.220414, -0.107575, -0.58898, -0.551813, -0.0879321, -0.0478784, 0.00196651, 0.000468795, 0.000160863, -0.000744621, -0.00669686, 0.00367864, -0.0539843, -0.111313, 0.135528, 0.522599, 0.677279, 0.79293, -0.165242, 0.079922, 0.401952, -0.72048, -1.13606, 0.381651, -1.33349, 0.320752, 0.748473, 0.09377, 0.0164504, 0.0934609, 0.081311, 0.040786, 0.0763566, -0.0002986, -0.000701492, -0.000374065, -0.000557176, 0.000181494, 0.000550035, -0.000888342, -0.0881493, -0.324638, -0.399737, 0.0892547, 0.585441, 0.968129, 0.644576, 0.543003, -0.684328, 0.485812, 0.0398374, 0.191805, 0.135449, -0.0010606, -0.386829, 0.511767, 0.154058, -0.0946437, 0.114024, -0.00269897, -0.000300759, 3.52285e-05, 0.000746696, 0.000725883, -0.000313456, -0.000465499, -0.00025248, -0.000180334, -0.000237338, 0.00107044, -0.0318586, -0.182279, -0.162005, 0.0344481, 0.336436, 0.413857, 0.0697493, 0.453794, 0.221061, -0.222559, 0.112333, -0.022191, -0.303827, 0.101911, -0.0409751, -0.0438052, 0.0667478, 0.046492, -0.000639576, 0.000689566, -0.000830378, -0.000834223, -4.02539e-05, 0.000215369, 0.00083758, 0.000314615, 0.000511704, 0.000780328, 0.000705252, 0.000996033, -0.00062212, -0.000346171, -0.000355754, -0.000285806, -0.0140214, -0.030694, -0.000204779, 0.000605389, -0.00011655, 0.000328349, -0.000600818, -0.000721366, 8.79849e-05, 0.00088464, 0.00063213, 0.0004644, -0.000590808, 0.000556932, -0.000307718, -8.71914e-05, -2.12104e-05, -0.000667104, -0.000864498, 0.000542344, -0.000947083, -0.000234254, 0.0228969, 0.0455712, -0.0331903, 0.056523, 0.236809, 0.111125, 0.214306, 0.0192628, 0.0077721, 0.0309961, 0.156198, 0.18949, 0.118743, -0.00101703, 0.00726642, 0.0312715, 0.0416763, 0.010801, 0.000618519, 0.000286538, 0.000186987, 0.000655568, 0.000725761, -0.000865352, -3.47228e-05, 0.00894589, 0.00883268, 0.00308712, 0.0148103, 0.057154, -0.0997784, -0.123498, -0.037627, -0.165699, -0.175524, 0.0434904, 0.194412, 0.154073, 0.529937, 0.448753, -0.144953, -0.139663, 0.0230631, 0.0464564, 0.0653156, 0.0339847, 0.00122273, -0.00194412, 0.000383526, -0.000232765, 0.000297952, -0.000694937, -0.000475834, 0.029248, -0.0146027, -0.0144089, -0.0478952, 0.0681096, -0.143175, -0.590828, -0.335623, -0.591212, 0.435529, 1.03165, 0.60195, 0.145622, 0.132099, 0.699287, 0.712248, -0.223172, 0.660184, 0.374889, 0.137289, 0.0393501, -0.0261842, -0.0500839, -0.0986859, 0.000245338, -0.000876766, -0.000344722, 0.00146252, 0.0091872, -0.0219564, -0.0205888, -0.0153512, -0.244458, 0.256465, 0.472481, 0.41235, -0.119257, -1.07524, -0.132462, 0.410889, -0.210207, 0.100497, 0.518235, 0.82977, -0.226595, 0.25706, 0.28836, 0.389177, -0.431329, -0.376193, -0.10582, 0.0118608, 0.00535935, 0.000936277, 0.000702445, -0.000334209, 0.0617106, 0.173167, 0.0919235, -0.235843, -0.651601, -0.530012, -0.314388, -0.49688, -0.0859884, -0.37979, 0.505271, 0.357099, 0.613153, 0.700347, 0.42224, 0.883313, 0.355876, 0.499565, 0.305469, 0.813904, -0.017352, -0.801747, -0.402699, 0.0477224, 0.00694242, 5.09659e-06, 0.00075224, -0.0148975, 0.186763, -0.028653, -0.761561, -1.26056, -0.267148, 0.0927378, -1.52974, -0.316232, 1.19653, 0.712485, -0.570845, 0.372537, 2.13738, 1.9085, -0.259066, 0.512893, -0.585874, -0.186362, 0.24368, 0.261719, -0.0928942, -0.0647212, -0.635785, -0.0364873, -0.00669557, 0.000605944, -0.00134518, -0.204056, -0.155824, -0.272336, -0.157084, -0.108711, -0.389568, -0.659277, 0.241742, 0.210587, -0.0350495, -0.109365, 0.598355, 0.857577, 1.09937, 0.622921, 0.448533, -0.316566, 0.118841, -0.507517, -0.231626, -1.32862, 0.280743, 0.258009, 0.238391, -0.162654, 0.00708395, -0.00329757, 0.0135535, -0.1522, -0.222537, -0.321775, -0.352604, 0.812102, -0.566601, 0.27796, -0.718732, -0.101432, 0.110657, -0.567436, 0.879614, 1.26347, 2.24264, 0.630436, -1.2028, 0.234685, 0.126007, 0.137462, -0.419264, -0.863806, 0.841674, 1.43234, 0.813486, 0.218494, 0.0114033, 8.31987e-05, -0.00191717, -0.0497515, 0.15122, -0.332019, -0.11397, -0.0231758, 0.364999, -0.568091, -0.186012, -0.500658, 0.422185, -0.559873, 0.139026, 2.03319, 1.12586, -0.240034, -0.537033, 0.519752, 0.477458, -0.403772, -0.20029, 0.270122, -0.246488, 0.62735, -0.202362, 0.318803, 0.109267, 0.000422351, -0.0131696, -0.0278453, 0.414239, -0.234611, -0.144523, -0.326881, -0.283431, 0.106515, 0.00227492, -0.23697, -0.536173, -1.01981, 0.481789, 1.36463, -1.49061, -0.785601, -1.43049, -1.16034, -0.0099408, -0.855387, -0.602077, 0.0494122, -0.329422, -0.839948, -0.546024, 0.211483, 0.139032, -0.000690723, -0.0252412, -0.00919024, 0.140021, 0.146041, 0.251484, 0.172814, 0.925896, 0.543304, -0.529289, -0.352738, -0.529065, -0.410122, 1.71288, -0.259322, 0.223074, -0.188509, -0.461753, -0.90533, -0.378697, -0.89321, -0.798065, -0.30972, -0.242966, 0.31329, 0.0625074, 0.373232, 0.112161, -0.000622541, 0.0302145, 0.165155, -0.212086, 0.400702, 0.753158, 0.128908, -0.50171, 0.153821, -0.138667, 0.307951, 0.640041, 1.00794, 1.50355, 0.180447, -0.376397, -0.206899, -1.07373, 0.530797, -0.568077, 0.0180934, -0.28564, -0.19333, 0.941423, -0.14082, -0.101803, 0.137832, 0.0756584, 0.000866094, 0.0274776, 0.0873427, -0.357224, 0.00527519, -0.559378, 0.0315975, 0.243452, -0.291102, 0.606873, -0.522477, 0.788955, 0.908675, 0.0788262, 0.0612574, 0.117541, 1.1463, 0.449312, -0.038181, 0.455686, 0.0107922, -0.309991, -0.006573, 0.726976, -0.310942, -0.197382, -0.0166315, -0.0419223, 0.000327227, 0.0187495, -0.00912918, -0.341285, -0.177943, -0.569407, 0.804544, 0.0428548, 0.532173, 0.929388, 0.419308, -0.381965, 0.37725, -0.375897, 1.20812, -0.821814, -0.242891, -0.769497, -0.0834257, -0.79483, -0.166809, -0.491394, -1.52396, -0.125403, -0.146288, -0.543834, -0.0169347, -0.0017209, -0.000248857, 0.0292859, -0.0136372, -0.210295, 0.820589, 0.402765, 0.0758342, 0.713376, -0.316849, 0.4368, 0.956074, -0.245887, -0.118616, -0.310682, -0.272864, -0.325447, 0.80617, -0.158845, -0.775923, -0.216437, 0.513105, 0.0395564, -0.237655, -0.150373, 0.345965, -0.0611539, -0.0736487, -0.0024914, 0.00106208, 0.0137073, 0.028309, 0.192602, 0.96073, 0.671917, 0.144289, 0.659901, 0.43017, 0.723302, -1.06169, 0.0493125, 0.324672, -0.977121, -0.00212389, 0.696652, -0.565956, 0.129238, 1.00847, -0.18479, 0.611253, -0.0103692, 0.531359, 0.431718, 1.03411, -0.0210682, -0.0295389, -0.0013246, 0.000673269, 0.00467535, 0.0406951, 0.455101, 0.484847, 0.183271, 0.0579847, 1.08093, 0.0836923, 0.489499, 0.0555973, -0.286397, -0.0223814, 0.24899, -0.0213945, 0.24399, -0.162118, -0.247122, -0.10427, -0.0232462, 0.0634243, 0.888217, 0.0533021, 0.163405, 0.535391, 0.177406, -0.0235209, 0.01783, 0.0463073, -0.000239757, 0.0308121, -0.0963415, 0.0834682, 1.01469, -0.440934, -0.267188, 0.462186, 0.0830917, -0.219987, 0.389578, 0.0159903, 0.249597, -0.206112, 0.0757238, -0.0110268, -0.291049, -0.195013, 0.058761, 0.342428, 0.657514, 0.324125, 0.268591, 0.380932, 0.139101, -0.00079444, -0.0030731, 2.95387e-05, 0.0162137, 0.0168187, 0.0416382, 0.0433623, 0.863239, 0.827647, 0.954907, 0.133073, -1.10767, -0.0226072, -1.96198, 0.090746, -0.0841505, 0.479985, 0.436137, 1.48447, 0.148754, 0.294372, 0.830758, -0.193816, -0.353888, -0.138587, -0.0190671, 0.0369839, 0.17619, -0.12009, -0.00114865, 0.000762078, -0.000175611, -0.00379823, -0.314517, 0.137396, -0.0710947, 0.736249, 0.755155, -0.578523, -0.527385, 0.313819, -0.178333, -0.63083, 0.0146665, -0.826752, -0.0452021, -0.0682166, 0.633119, 1.00289, 0.0918561, 0.645969, 0.426874, 0.0863893, -0.173904, -0.548682, 0.00666854, -0.0826073, -0.000506242, -0.000178428, 0.000539278, 0.217547, 0.00282889, 0.429474, 0.715079, 1.02435, 0.966486, -1.27935, -0.64031, 0.556185, -0.0819042, -0.0991183, -0.582149, -0.166656, -0.309871, -0.282056, -0.790146, -0.385792, 0.773797, 0.484408, 0.306764, -0.00847543, -1.01179, -0.689373, -0.249279, -0.0073925, -0.00011874, 0.000896613, -0.000425097, 0.100957, 0.127905, 0.762892, 0.536981, 0.603757, 1.09636, 0.0936992, -1.06001, 0.0692613, -1.05177, -1.28717, -0.546745, 1.17728, 0.404719, -0.500922, 0.484361, -0.108646, -0.599275, -0.444955, -0.966617, -0.587994, -0.0319005, -0.243811, -0.115763, 0.00349697, 0.000972866, -0.00076635, 0.000812006, 0.00716773, 0.0993443, 0.211504, 0.100414, -0.0951807, -0.318218, 0.851809, -0.26012, 0.614175, 0.440098, 0.180015, -0.586939, -0.454996, 0.497892, -1.511, 0.697716, 1.14941, 0.0227687, 0.247322, -0.365444, 0.0610024, -0.013222, -0.0300634, -0.0800815, 0.000249587, -0.000740349, -0.000640187, 0.000514695, 0.0249627, 0.0742233, 0.251083, 0.38206, 0.577208, 1.55622, 2.03112, 0.450134, 0.382927, 0.60597, 0.40081, -0.374978, -0.155221, 0.86673, -0.651493, 0.012374, 0.140722, -0.263073, -0.0115137, -0.254812, -0.340085, -0.0575588, -0.15339, -0.290095, -0.0371586, 0.00044969, -0.000731071, -0.000815546, 0.00174186, -0.0111557, 0.0491042, 0.197426, 0.350362, 0.794176, 0.576729, -0.0860349, 0.619662, 0.450072, 0.676822, -0.901882, -0.99162, -0.340669, -0.637091, -0.319947, -0.815138, -0.0872543, 0.544982, 0.22281, 0.200538, 0.19477, -0.00329785, -0.0316684, -0.0381552, 0.000374187, 0.00047618, -0.000215064, -0.00066332, -0.000469932, 0.02395, 0.247221, 0.381841, 0.252235, 0.452324, 0.747761, 0.470805, 0.56233, 0.880811, 0.572011, 1.95906, -0.345021, -0.0853747, -0.178962, 0.155168, -0.0982927, 0.0387295, 0.371385, 0.229979, 0.0988989, 0.000179278, -0.000945761, 0.000250587, 0.000344829, 0.000537889, -8.73135e-05, -0.000432539, -0.000130833, -0.000697309, -0.000246487, 0.0179774, 0.102318, 0.0951223, -0.0109572, -0.0276431, -0.0273388, 0.0249575, -0.384329, -0.0965624, 0.0995589, -0.0118857, -0.00798379, -0.015637, -0.12414, -0.101948, -0.0489276, -0.0941851, -0.0183849, 0.000737724, 0.000739738, -0.000831111, 0.000677419, -0.000299417, 0.000566637, -0.000448225, -1.62053e-05, 0.000443831, -0.000945067, -0.000578845, -0.000804987, 0.000209449, -0.000841304, -0.000790399, 0.000911435, 0.0380805, 0.0792802, -0.00296952, -4.33863e-05, -0.000839778, -0.000698477, 0.000898923, -0.000599658, -0.0008034, 0.00024662, 0.0003455, 0.00057622, 0.000942076, 0.000728446, -0.000962889, 0.000423261, -0.000100558, -4.91348e-06, -0.000670278, 0.00052208, 0.000467831, -0.000737122, 0.00025774, -0.000867892, 0.00202493, 0.0165458, 0.0341805, -0.040782, 0.111546, 0.0448035, 0.0554284, 0.124087, 0.0172951, 0.0330589, 0.135437, 0.168223, 0.0187403, 0.0517015, 0.043987, 0.00390719, -0.000107089, 3.01828e-05, 0.000477584, 0.000118076, -0.000905393, 0.000658437, 0.000672795, -0.000784425, 0.0039065, 0.00241641, 0.0026795, 0.0113082, -0.00333562, 0.0167824, -0.0228861, -0.103765, -0.410746, -0.573805, 0.604053, 1.21979, 0.272129, -0.0972893, 0.281211, 0.253011, 0.0695125, 0.10587, 0.110725, 0.0396901, 0.000266631, -0.00324325, -0.0003867, -0.000104221, 0.000908017, -0.000395428, 0.00140917, -0.0037797, 0.00510544, -0.00999658, -0.00507587, -0.0457014, 0.0791346, 0.0217717, -0.0250424, -0.395135, -0.662532, 0.187307, 0.586145, 0.989123, -0.0315255, -0.449399, 0.133038, 0.0767067, 0.495591, 0.728643, 0.290696, -0.180649, -0.13836, 0.0181103, 0.0112681, -0.000759331, 0.000220191, -0.000198353, 0.00309507, -0.00148913, -0.00298425, -0.119298, 0.174738, 0.170058, 0.0122098, 0.459273, -1.12302, -0.288705, -0.330462, 0.104014, -0.0623733, 0.553825, -0.405551, 0.274619, 0.149254, -0.509324, -0.0697987, 1.63763, -0.0990029, -0.0144336, -0.0685365, 0.215501, 0.096639, -0.00456313, 0.00024131, 0.000150426, 0.000102787, -0.0825813, -0.398364, -0.406214, -0.576498, -0.570455, -0.662769, -0.674047, -0.957465, -0.292755, 0.0785595, -1.40935, -0.527393, 0.657363, -0.516367, -0.605598, -0.332493, -0.140785, 0.648591, 0.82507, -0.293806, 0.0793089, 0.563512, 0.243813, -0.0007779, 0.00889673, 0.000831111, 0.000708752, -0.062569, -0.214415, -0.575309, -0.426273, -0.631438, -1.23749, -0.387067, 0.424986, -0.234837, -0.0892004, 0.813206, 0.903977, -0.236295, 0.730016, -0.149172, -0.283676, 0.0775544, 0.21858, 0.701115, -0.843452, 0.224622, 0.414719, 0.918139, 0.365674, 0.114952, 0.0443024, 7.02066e-05, -0.0118799, -0.178125, -0.311444, -0.797216, -0.500672, -0.482732, -0.602955, 0.0279432, -0.423661, 0.130056, -0.98721, 0.3936, -1.15609, -0.552016, 0.609714, -0.920527, 0.178381, 0.0874975, 0.152031, -0.393216, -0.243164, -0.340398, 0.107504, 0.339643, -0.0826671, 0.0720446, 0.0230237, -0.00166788, 0.00540805, -0.0678407, -0.319574, -0.430503, -0.444955, -0.260033, 0.556881, 0.116566, 0.363022, -0.685994, 0.563426, 0.391123, 0.0867733, 0.471842, -0.255792, -0.872727, 1.13521, -0.450105, 0.492745, 0.191258, 0.684909, 0.612815, 0.449377, 0.339765, 0.0960874, -0.153948, -2.56081e-05, 7.66944e-05, 0.00443778, -0.0288666, -0.224825, 0.613207, -0.593107, 0.240886, 0.113389, 0.820378, 0.160186, -0.745768, 0.597632, -0.0127457, -0.174701, 0.655771, 0.716046, -0.896093, -0.269989, -0.293077, -0.797328, 0.0731775, -0.0945766, -0.234958, -0.631843, -0.0772637, 0.0929253, -0.228656, 0.00254801, -0.000254594, 0.0015252, 0.0684925, -0.087895, 0.233446, -0.187948, -0.453398, -0.326117, 0.365442, -0.348174, -0.34511, 0.442682, 0.430427, 0.524842, -1.31261, -0.760521, -1.07463, -1.46671, -2.27972, -1.84275, -1.59284, -2.46411, -2.03803, -2.14792, -1.0194, 0.0297607, -0.109419, -0.00229045, -1.10032e-05, 0.00107664, 0.115994, -0.0524089, 0.094415, 0.799213, -0.188503, -0.503099, -0.156876, 0.854497, 0.715694, 0.141875, -0.395612, 0.12487, 0.268906, -0.081562, 0.1396, 0.598409, -0.757391, 0.0593466, -0.206649, -1.52512, -1.10828, -1.47564, -1.2424, -0.0608429, -0.131847, 0.129714, 0.000552882, -0.000197531, 0.0370287, -0.161172, 0.507353, 0.923836, 0.453049, 0.829212, 0.853147, 0.0158775, -0.847683, 0.113848, 0.780463, -0.171656, -0.545264, 2.19915, -1.28263, 0.416682, 1.2093, -1.21716, 0.13012, -0.839696, -0.191039, -1.03274, -0.824979, -0.399048, -0.192025, 0.148393, 0.000523519, 0.00250418, 0.012666, -0.0216615, 0.529518, 0.670437, 0.255849, -0.899013, -0.338469, 0.606271, 0.680014, -0.0355969, 0.191358, -1.14124, -0.795791, 0.281134, 0.0221706, 0.601776, -0.30408, -0.263994, 1.15417, 1.06802, 0.233082, -1.28811, -0.76624, -0.548753, -0.43975, -0.128286, 0.000305603, -0.0611604, -0.0355164, 0.403593, 0.439623, 0.0957899, 0.279427, -0.806609, 0.128191, 0.283788, 1.57202, -1.66479, -0.688098, -0.596012, 0.851923, 0.0782836, -0.826146, 0.824445, 0.397811, -0.0748603, 0.805528, 0.366753, -0.0204074, -0.101689, -0.888752, -0.156441, -0.208891, -0.0107611, 0.000175353, -0.148959, -0.135716, 0.379466, -0.353426, -0.154395, 0.617156, 0.14437, -0.0266856, -0.482188, 0.0825339, -0.139885, 0.539538, -0.0471346, -0.707646, 0.258008, 0.498612, 0.311232, -0.0568565, 1.58447, 0.579451, 0.331436, -0.0944342, -0.703535, -0.25245, -0.375837, -0.837254, -0.0165309, -0.000821849, -0.0736787, -0.254383, -0.0942025, -0.314797, -0.468443, 0.038355, 0.0165207, 0.381469, -0.342782, -0.138939, 0.328263, -0.183746, -1.12184, 0.307257, 0.565002, 0.0425352, -0.573052, 0.397284, 0.575653, -0.37392, 0.149552, 0.113543, -0.445029, 0.410968, -0.391376, -1.05703, -0.0679958, 0.000946532, -0.0244615, -0.28, -0.303888, -0.398612, -0.143551, 0.84105, -0.293926, -0.138455, 0.0239405, -0.254373, -0.68242, 0.458396, -0.593554, 1.08945, 0.238279, 0.220499, 0.378338, 0.720226, 0.0129811, -0.432932, -0.102345, -0.427806, -0.693984, -0.0549858, -0.480518, -0.459414, -0.317874, -0.00289961, 0.000957114, -0.0423681, -0.313439, 0.350223, 0.643905, 0.055238, 0.560852, -0.300031, 0.00684911, 0.066609, -0.619422, -1.06123, -0.714743, 0.949366, 1.08017, 0.305893, 1.10499, 0.142571, -0.588738, 0.429179, 0.541021, -0.641802, -0.868139, -0.41062, -0.410026, -0.125704, -0.0335376, -8.99093e-05, 0.00335979, 0.447248, 0.572224, 1.31738, -0.207908, 0.357019, 0.81368, -0.329615, 0.163979, -0.168533, -0.0280212, -0.68117, 0.00577218, 1.53474, 0.512231, 0.333532, 0.000176337, -0.984748, 2.14386, 0.149099, -0.605115, -0.285319, -0.73797, -0.267538, -0.075039, -0.194119, 0.00755751, -0.00011655, -0.00159619, 0.165125, 0.506135, 0.560601, -0.542019, 0.0059937, -0.723983, -1.20766, 0.0665499, -1.16839, -0.272656, -2.24703, -0.28451, 1.16273, 0.245409, 0.927455, 0.721906, 0.422391, 0.184394, 0.25283, 0.39065, -0.112544, -0.656155, 0.18219, 0.0426908, -0.0602962, 0.000790486, -0.000886948, 5.57423e-05, 0.011988, 0.0502281, -0.231175, 0.131425, 0.180977, -0.0138484, 1.01825, -0.315302, -0.334539, -0.543532, -0.328818, 0.123818, 0.481813, 0.300976, 1.102, -0.297204, 1.14625, -0.49327, 1.52345, 0.227664, -0.474202, -0.615041, -0.231073, 0.00550031, -0.00628866, 0.000840513, -0.00062047, 0.000179379, -0.139955, -0.295567, -0.209268, -0.609592, -0.063577, -0.431208, -0.452873, -0.54957, -1.25272, -0.353581, 0.147579, -0.0992808, 0.181176, 0.536842, 0.327386, -0.242868, -0.0108241, 0.0436895, 0.234691, -0.0308686, 0.0856705, 0.343346, -0.0882788, 0.00497378, 0.0163398, -0.000930465, -0.000154088, 6.11896e-05, -0.120155, -0.0336918, -0.264223, -0.167784, 0.518648, 0.157539, 0.0180939, -0.203306, -0.0812431, -1.04829, 0.937073, -0.255281, -0.440036, 0.930301, 0.792464, 0.286246, -0.634739, 0.256827, 1.92882, 0.774121, 0.24282, -0.510469, -0.119438, 0.0613596, 0.0102627, -0.000649709, -0.000130284, -0.00021128, -0.0901224, -0.13795, -0.317052, -0.495756, -0.0514961, 0.0897529, 0.0917986, -0.117013, 0.0907859, 0.171526, -0.64239, 0.674331, -0.764608, 0.367095, 0.107887, 1.10977, 0.5999, -0.0600782, -0.334114, -0.428119, 0.166149, 0.0356641, -0.100083, -0.0456452, -0.00428271, 0.000386761, 0.000998169, -0.000511704, -0.00632832, -0.0469645, -0.154391, -0.204027, -0.236836, -0.397147, -0.634504, -0.087369, -0.459775, 0.0325242, 0.666936, 1.00878, 1.28823, 1.36045, 0.604972, -0.199979, 0.738591, -0.349178, -0.180779, 0.184674, 0.2541, 0.206565, 0.0279836, 0.0103397, -0.00850659, 0.00062035, 0.000349712, 0.000120701, -0.000281716, 0.000892417, 0.000909151, 0.00973262, 0.0575341, 0.271804, 0.542551, 1.04435, 0.619575, 0.539091, -0.191281, 0.415639, 0.347424, 0.278026, 0.350927, 0.4305, 0.16292, -0.00919376, 0.0974599, 0.177875, 0.0902666, 0.00703666, -0.0016218, 0.000772736, 0.00079284, 0.000342692, -0.000830927, 0.000997559, 0.000313639, 0.000844539, -0.000377773, 0.00122248, 0.0013302, -0.00279633, 0.00729794, 0.0253796, 0.0570811, 0.112502, 0.146768, 0.0563454, 0.0316435, 0.024844, 0.0528589, 0.0256116, 0.0314013, -0.00217088, 0.00577942, 0.0180103, 0.0388155, 0.00827224, -1.67547e-05, -0.00090698, 0.000734245, -0.000916868, 0.000791925, 0.000605213, -0.000454207, -0.000872921, -4.94095e-05, 0.000989257, -0.000768792, 0.000250343, 0.000397015, -0.000846797, 1.01016e-05, 0.000261696, 0.000131983, 0.00073361, 0.000189764, 0.00042047, 0.000564196, 0.000272683, 0.000752007, -0.000454817, 9.07315e-05, 0.000994568, -0.000312845, -0.000658132, -0.000436506, 0.000701102, 0.000956847, 0.000997497, 0.00077868, 1.52898e-05, -0.000577441, 0.000762078, 0.000106682, 0.00086526, 0.001624, 0.000968817, -0.00421906, -0.0135282, -0.0202799, -0.0149759, -0.0488869, -0.0312563, -0.118461, -0.255109, -0.0823669, -0.0431487, -0.00393052, -0.00589988, -0.00449724, -0.00152083, -0.000688056, -0.000493097, 0.000825983, -0.000136937, -0.000411237, -0.000442427, 0.000486435, 0.000108798, -0.000628585, -0.00728202, -0.00209463, -0.000301625, 0.042557, -0.00259294, -0.214765, -0.341784, 0.0197076, 0.0777293, -0.262307, -0.374426, -0.345076, -0.155345, -0.0877029, 0.241713, 0.314826, 0.0775512, 0.0385653, 0.0688848, 0.0515223, 0.0515611, 0.322214, 0.211777, 0.000981811, 0.000550035, -0.000692068, -0.000562853, -0.000689458, -0.0615119, -0.0752872, -0.0159804, -0.0377548, -0.0910204, -0.325496, 0.0887522, 0.400126, 0.100097, 0.917137, 0.580971, 0.531035, -0.149754, 0.365819, 0.722269, 0.527305, 0.784658, 0.950671, 0.435163, -0.465855, -0.440754, 0.260867, 0.453937, 0.065056, 9.21354e-05, 0.000108798, 4.39422e-05, 0.00110331, 0.00431889, -0.0538315, -0.0415142, 0.222239, -0.0243139, -0.566198, -0.0623112, 0.631212, 1.17811, 0.312323, -0.0102734, 0.712364, -0.524382, -1.17776, -0.994819, -0.368682, -0.788983, -1.13346, 0.322805, 0.0893974, 0.29203, 0.636376, 0.545365, 0.0463559, -0.00139499, 1.64495e-05, -0.000585925, 0.000115964, 0.0289609, 0.0157295, 0.504071, 0.495716, -0.148007, 0.136368, 0.192897, 0.258247, -0.190405, -0.331632, 1.00356, -0.0926196, 0.585782, 0.541369, -0.252395, 0.0137143, -0.391547, -0.0971739, 0.303276, 0.0604557, -0.459291, -0.25248, 0.211741, -0.0316162, -0.00640199, -0.000540513, 0.000775649, -0.0089101, -0.0116437, -0.0707633, 0.875666, 1.46168, 0.70568, 0.763032, 1.07914, 1.53342, -0.611624, -0.17058, 0.0713422, 0.0277031, 0.362162, 0.526868, -0.599687, 0.596782, 0.0643299, 0.0735998, 0.230891, -0.815973, -1.08578, -0.347461, -0.336965, -0.141629, 0.00137491, -0.00054374, 0.00113947, 0.0423298, 0.00619584, 0.216632, 0.804988, 1.24194, 0.831271, 0.531657, 0.407616, 1.52836, 1.42664, 1.61765, 0.752005, 0.654373, -0.187477, 0.480477, 1.19286, 0.058491, 0.808645, 0.382392, 0.125713, -0.0344455, -0.528929, -0.687536, -0.0367094, -0.0236785, -0.0203115, 0.00543896, 0.00480464, 0.057119, -0.101161, 0.133685, 0.111475, 0.162053, 0.361274, -0.234809, -0.100716, 0.205202, 0.287959, 0.345909, 0.735988, 1.41703, 1.46671, -0.174789, 0.256403, 0.336887, 1.10941, 0.287727, 0.0159469, 0.26558, -0.199571, -1.01594, -0.188491, -0.044814, -0.0455835, -0.000173738, 0.00682369, 0.0232325, -0.0371636, 0.677904, 0.234793, -0.444589, -0.646294, -0.424847, -0.0475868, -0.0494814, 0.218546, 0.842265, 1.85015, 2.25353, 0.492718, 0.751988, -0.0479412, 1.15646, 0.182541, -0.340563, 0.0711305, -0.354444, -0.161744, -0.0198512, 0.126261, -0.0872175, -0.000127104, 0.000142176, 0.00600406, 0.0681302, 0.156056, 0.272582, 0.608794, 0.592784, 0.117583, 0.262288, 0.942707, 0.267394, 1.47081, -0.127239, -0.484592, 0.26248, 1.1879, 0.66961, 0.439123, -0.911776, -1.29412, -0.530657, -0.0342978, -0.445865, -0.451738, -0.152954, 0.396626, 0.17448, 0.00167445, -0.000391715, 0.0161541, 0.0246401, 0.116114, -0.162556, -0.623673, 0.641015, -1.10862, -0.605619, 0.260683, -1.17446, -0.848453, -1.0646, -1.8594, -2.08549, 0.0118989, -0.669566, 0.566693, 0.226959, -0.0970056, 0.2916, -0.0345686, -0.0437764, -0.832148, -1.067, 0.289645, 0.206776, 0.00588122, -0.000270786, 0.0536297, 0.0355037, -0.221051, -0.036784, -0.545292, 0.760016, -0.353704, -0.355936, -1.22502, -1.09833, -1.54243, -0.770715, -1.19281, -1.57096, -0.677221, 0.366299, -0.00997144, 0.521371, -0.0707838, 0.421184, -0.198821, 0.152389, -0.141563, -0.854307, -0.106946, 0.0506279, 0.0093635, 0.000802536, 0.0047374, 0.0692143, -0.282045, -0.249077, -1.59874, -0.645178, -1.64948, -1.57182, -1.49615, -0.10154, -0.261179, -1.63111, -0.573253, -0.573575, -2.35355, -0.594284, -0.246509, 0.473495, -0.127435, -0.90844, -0.302991, 0.586125, -0.0961692, -0.0658136, -0.0451709, 0.37805, 0.0367569, 0.00110913, -0.000666169, 0.0714633, -0.313613, -0.309924, -1.57172, -2.93461, -0.347683, -0.492815, -1.14722, -0.820661, -1.49769, -0.939055, -0.893353, 0.144149, -0.646565, -0.898933, -1.07088, 0.58192, 0.40711, -0.820696, -0.235391, -0.597175, 0.125192, 0.317137, 0.542041, 0.672884, -8.80982e-05, 0.000367051, 0.000487539, 0.154631, -0.379963, -0.0857165, -1.08956, -1.52635, -0.266212, -0.16319, -0.385551, 0.340903, -0.192838, -0.127989, -0.0592322, -0.149429, -0.573516, -1.12848, -0.198897, -1.19172, -0.413467, 0.350728, -1.08595, 0.125584, 0.643268, 0.624895, 0.136644, 0.491203, 0.0670497, 0.000541496, -0.000755157, 0.0963803, -0.459939, -0.222954, -0.772, 0.484194, 0.19664, -0.105627, -0.607319, -0.409797, -0.699879, -0.862282, 0.441834, -0.296771, -0.196716, -0.954727, -0.971223, -1.04123, 0.884697, -0.0418233, 0.871365, 1.3161, 0.188636, 0.291534, 0.0588069, 0.2397, 0.144383, -0.000129002, -0.000484242, 0.0191978, -0.372345, -0.136927, -0.33856, 0.636588, -0.854933, 0.516316, -0.0991341, 0.761155, -0.618033, -0.0748237, -1.36201, -1.17017, -1.52487, -1.46893, 0.145784, 0.1382, 0.903274, 0.718554, -0.478996, 0.0217287, -1.44867, -0.112103, 0.418908, 0.121422, 0.0437269, -0.000469557, -0.000313608, 0.00166197, 0.0622316, 0.405334, -0.0761017, 0.010307, 0.0305755, 0.236715, -0.621118, 0.113882, -0.0229617, 0.630779, -0.633884, 0.760799, 0.0404585, 0.382526, 1.33904, 0.21598, 0.968889, -0.382267, 0.162224, 0.922679, -0.473051, 0.25166, 0.450092, 0.0251492, 0.0132116, -0.000488327, 0.00045997, -0.0122034, 0.292879, 0.819899, 0.408759, -0.289613, -0.432671, -0.0344416, 0.411747, -0.356832, -0.498509, 0.747379, 0.248103, -0.65893, -0.136536, 0.622994, -0.182165, 0.067732, -0.606273, 1.54692, 0.757486, 0.715479, -0.531507, -0.168604, 0.669023, 0.160454, 0.0054001, -0.000995117, 0.00282684, -0.000396894, 0.162559, 0.563994, 0.619477, 0.61853, 1.28907, 0.375984, 0.621687, -0.701887, -0.378267, 0.313646, 0.0627372, 0.578522, 0.779289, -0.0820066, -0.372104, 0.376519, 0.255933, -0.178683, -0.433323, 0.187018, 0.182067, 0.305163, 0.457817, 0.0626445, 0.000593869, 4.94964e-05, 0.000150594, 0.0116347, 0.248222, -0.180282, 0.360315, 0.164227, 0.417429, 0.171017, 1.09273, 0.476249, 0.646219, -0.285183, 0.951092, -0.292351, 0.124864, 0.217702, 0.438057, -0.0269381, -0.0253803, -0.462572, -0.0352873, 0.474991, 0.702025, 0.849033, 0.105517, 0.0124031, -0.000953841, -0.000610372, -0.00081509, -0.0030746, 0.222198, -0.0371645, 0.328912, 0.348041, -0.631826, 0.217566, 0.807049, -0.767803, -0.833303, 1.14466, -0.53914, -0.15813, 0.604116, 0.768139, -0.182356, -0.844761, 1.51154, -0.842916, 0.239719, 0.880076, 0.431231, 0.210509, -0.0991073, -0.041512, 0.000573665, 0.000790033, 0.000416669, 0.00394068, 0.0297372, 0.227425, 0.487083, 1.17406, 0.340692, -1.37343, -0.166802, 0.92202, 0.856759, -0.888952, -0.070935, -0.391916, -0.0469846, 0.0744297, -0.851948, 0.242163, 0.176429, -1.23925, 0.251977, 0.178754, -0.195099, 0.15359, -0.0856826, -0.00595246, -0.00091345, 0.000613208, 0.000516282, 0.00294121, 0.0269441, 0.45049, 0.367465, 0.635395, -0.177813, -0.0184209, 0.0450941, -0.735214, 0.582395, -0.549838, 0.436156, 0.39654, 0.0103629, 0.265586, 1.1042, -0.413838, -1.11592, -0.969304, 0.204456, 0.0948718, -0.211345, 0.355352, 0.304827, 0.141545, -0.000678152, 1.2421e-05, 0.000329875, -0.000346887, 0.00210653, 0.197974, 0.312609, 0.538588, 0.901218, 1.33584, 1.14384, 0.0418566, 0.339177, 0.659842, 0.894921, -0.882106, -0.923192, -0.549691, 0.169558, -0.379176, -1.1578, -1.20416, -0.945942, -0.659872, -0.220705, 0.00635598, 0.125882, 0.150221, 1.38859e-05, 0.000640065, -0.000579577, -0.000804987, 0.000287309, -0.00224857, 0.0201637, 0.198851, 0.257317, 0.0685089, -0.10892, -0.552226, -0.337188, -0.446509, 0.496203, 0.994113, 0.955272, 0.615679, 0.0638894, 0.125268, 0.380595, -0.26067, -0.412189, -0.167002, -0.061216, -0.000395833, -0.000776179, -0.000461287, -0.000392132, -0.00098059, -0.000451399, -0.00072747, 0.000401349, 0.00213947, 0.00467121, 0.00440291, 0.00366928, 0.00543823, 0.00473255, 0.0488789, 0.0854849, 0.062319, 0.0257106, -0.211479, -0.0729566, 0.0278823, 0.0171781, -0.0478113, -0.0136277, -0.12572, -0.0840197, -0.00191608, 0.00212618, -0.000898129, -0.000827143, -0.000148228, 8.63979e-05, 0.00064568, 3.97656e-05, 0.000175817, 0.000399518, -0.00075396, 0.000145177, 0.000106418, -0.000811213, 0.000169225, 0.000281961, -0.000545824, -0.00064684, 5.81597e-05, -0.00054855, 3.05181e-05, -0.00071533, -0.000656423, 0.000139073, -0.00021659, 0.000360881, -0.000900754, -0.000893063, -0.000979553, 0.000427778, -0.000954222, -0.000413984, 0.000295267, 0.000551012, 0.000880795, 0.000605457, -0.000766167, -0.00099646, 0.000828425, -0.000384783, 0.000700668, -0.000779417, -0.00894345, -0.00219705, -0.0106652, -0.207456, -0.414476, -0.172115, -0.00186848, -0.00384958, 0.0090418, 6.09487e-05, -0.000688287, -0.017237, -0.010399, -0.000798059, -8.05477e-06, -0.000102215, -0.000641469, -0.000718558, 0.000359661, -0.000305643, -0.000927915, -0.000792718, -0.000980602, 0.000965409, -0.000611811, 0.000406925, 0.0179918, 0.0109802, 0.00495113, 0.0235755, 0.0601075, 0.0561288, 0.101958, 0.230808, 0.355143, 0.396186, 0.388512, 0.184546, 0.149752, 0.062287, -0.133516, -0.224034, -0.189234, -0.0257512, -0.000336641, -0.000763689, -0.000149754, 0.000748161, 0.000268227, -0.000895199, -0.000445935, 0.0254831, 0.031146, 0.0301448, 0.0676311, 0.231748, 0.190628, 0.220534, 0.787537, 1.06014, 0.451037, 0.471495, -0.018647, 0.0256234, -0.356301, 0.0606595, 0.644721, 0.60257, 0.670162, 0.660045, 0.224861, 0.0415174, -0.0583456, -0.0119074, 0.00239112, -0.000350627, -0.000651051, -0.000652661, -0.000953968, -0.000415427, 0.0210655, 0.0632425, 0.126272, 0.28468, 0.305885, 0.616187, 1.19928, 0.329911, 0.639942, -0.0886734, 0.193314, 0.33411, -0.165368, -1.57785, -0.663104, -1.28298, -0.129356, 0.306327, -0.25364, 0.00629046, 0.207521, 0.172774, 0.0661962, -2.57655e-05, 0.000658254, 0.000846065, 0.000786072, 8.65562e-05, -0.00614726, 0.11656, 0.44399, 0.126708, -0.272989, 0.226622, -0.112553, -0.287632, 0.187956, 0.231175, -0.294527, 0.366121, 0.054593, -0.0786224, -0.299324, -0.868303, 0.300817, 0.387045, -0.226271, -0.280687, -0.0127584, 0.72837, 0.0515356, 0.0198727, 0.00088702, -0.000310603, -0.121944, -0.179073, -0.142601, 0.202384, 0.736933, 0.164661, 0.52371, 1.29725, 0.884919, 0.303398, -0.715611, 0.152084, -0.0993691, 0.0215402, 0.365329, -0.810243, 0.425327, 0.605549, 0.0328927, -0.843557, -0.511536, 0.0675068, -0.0626102, 0.846974, 0.220091, 0.0950018, -0.000796841, -0.0169242, -0.181527, -0.362824, -0.195714, 0.133579, -0.156518, -0.694271, 0.181024, -0.33275, -0.341189, 0.00925871, 0.808272, -0.196851, -0.0720564, 0.50328, 0.322266, 0.355704, -0.996989, -0.546905, 0.130236, 0.481078, 0.146012, 0.0086709, 0.123447, 0.540426, 0.359512, 0.00992688, -0.00815282, -0.0397963, -0.176126, -0.422096, 0.115312, -0.739417, 0.30651, 0.244758, -0.0995659, 0.139702, -0.14432, -0.42906, -0.139542, 0.778967, -0.839733, -0.768044, -0.637278, -0.863572, -0.789148, 0.905372, -0.343753, 0.923352, 0.0473207, -0.0965618, 0.922902, 0.289406, 0.208294, 0.0180552, 0.00060786, -0.0308407, -0.0674839, -0.415347, -0.911858, -0.899555, -0.661896, -0.290436, -0.488521, -1.10033, -0.00951234, 0.126872, 0.529131, -0.714658, -0.363356, 0.0645079, -0.313245, -0.196897, -0.994552, -0.553547, -0.166382, -0.549985, -0.447854, -0.462751, 0.155785, 0.300219, 0.192727, 0.00535199, -0.000786135, -0.0458645, -0.157875, -0.513945, -1.09519, -0.0899936, 0.960091, 0.00871941, 0.126814, 0.231237, 0.0465305, -1.69926, 0.437789, 0.235952, 0.00664216, 0.341496, -0.786771, -0.623971, 0.638077, 0.160385, -0.925491, -0.353218, -1.21861, -0.809344, 0.170282, 0.559436, 0.363585, 0.00320671, -0.00103293, -0.08385, -0.218916, -0.159189, 0.413064, 0.439634, -0.216663, -1.49939, 0.932934, -0.563196, -0.128445, -0.984496, 0.379424, 1.10838, 1.11275, -0.558418, 0.913115, 0.0776711, 0.173458, 0.0692909, -1.14279, 0.0632592, 0.855565, -0.110456, -0.047761, 0.250677, 0.0999517, 0.00183151, -0.000640551, -0.100126, -0.103558, 0.142402, -0.0528393, 0.418024, -0.513255, -0.211264, 0.523825, -0.243597, 0.207402, 0.311068, -0.513446, 0.679676, 1.30139, 0.579849, -0.414552, 0.524744, -0.377434, 0.676184, 0.682487, 1.0108, 0.851597, -0.633249, -1.0123, -0.123645, 0.0494148, 0.000904244, -2.24187e-05, -0.0242004, -0.101133, 0.0687507, -0.23715, 0.713851, -0.258369, 0.294769, -1.18069, -0.186304, -0.0201246, -0.194822, 0.263387, 0.797357, 1.13173, 0.992814, 0.151597, 0.0184666, 0.215134, 0.379759, 0.494066, -0.212573, 0.352132, -0.653698, -0.280759, -0.273701, 0.0134204, 0.00262345, -0.000595762, -0.00454015, -0.19789, 0.212647, -0.250375, -0.233225, -0.66931, 0.0332394, -0.0400754, -0.112704, -0.574029, -0.649947, 0.0865316, 2.42716, 1.27363, 0.0920761, 0.158249, -0.170539, 1.0807, 0.656059, -0.904889, -0.230103, -0.0266419, -0.800668, -0.692207, -0.362145, 0.00269969, -0.000832081, -8.20274e-05, -0.00168443, -0.321484, 0.191031, -0.555426, -0.760458, 0.882518, -1.18419, 0.688766, -0.130601, -1.21615, 0.287572, 1.37915, 2.52876, 0.59453, 0.521962, -0.0311365, -0.502825, 0.855107, 0.172715, -0.315811, 0.99535, -0.9504, -1.31315, -0.599102, -0.413979, 0.00241553, -0.00121997, -0.000890077, -0.00119853, -0.162787, 0.143021, 0.00555705, 0.0389083, -0.0571271, -1.30323, 0.100577, 0.12946, -0.129153, 1.28848, 3.11627, 2.04852, -0.471575, -0.238581, -0.436373, -0.818396, -0.459243, 0.318092, 0.153669, -0.932277, -0.234784, 0.296627, 0.388326, -0.0940227, 0.235032, -0.00166511, 2.81686e-05, 0.000604592, -0.0679107, 0.231408, -0.529228, -0.306733, 0.455091, -0.358462, 0.373661, -0.446032, 0.527818, 0.928764, 1.14347, 0.578873, -0.21655, -0.178642, 0.207075, -0.384206, 0.463775, 0.365118, -0.234756, 0.114865, 0.70049, 0.491457, 0.0565471, -0.0463162, 0.136675, -0.000183796, -0.00960493, -0.000851406, -0.19212, -0.0428729, -0.285037, -0.0379208, 0.337477, -0.331332, -0.0724408, -1.14103, 0.10901, 2.21349, 1.02391, 0.327199, -0.983677, 0.593899, -0.2346, -0.655346, -0.38263, 0.614218, -0.274635, -0.315934, 0.128773, 0.470251, -0.218312, -0.113404, 0.00408707, 0.00154108, -0.000884519, -0.0723088, -0.0154503, 0.222499, -0.253266, 0.133273, -0.107687, -0.319864, -0.414207, -0.0971581, 0.529475, 0.823436, 0.18592, 0.70328, -0.479257, 0.253316, 0.764316, -0.37231, 0.539508, 0.142921, -0.81139, 0.0700238, 0.0776354, 0.0770125, -0.275321, 0.000965572, 0.00383584, 0.00107473, 0.000127964, -0.00052986, 0.00585486, 0.226638, 0.184429, 0.136647, 0.0344716, -0.802704, 0.0702348, -0.313645, -0.994186, 0.0756542, 0.00734867, 0.150001, -0.270984, 0.7107, 0.408887, 0.647422, 0.585027, 0.571463, 0.407376, 0.343112, 0.275727, 0.617637, 0.0614022, -0.00571142, -0.000217208, 0.000411099, -0.00063375, 0.000414689, 0.0606001, -0.0454417, 0.247818, -0.458199, -0.34887, -0.417963, 0.597147, 0.993146, -0.954309, -1.34148, 0.105079, 0.0353452, 0.542853, 0.559624, -0.128543, -0.08314, -0.0381499, 0.102062, -0.368143, -0.551978, -0.0597495, 0.216609, -0.253154, -0.022149, -0.0395296, -2.30722e-05, -0.000865697, 0.000116472, 0.0778227, 0.153224, 0.157064, -0.791493, -0.454664, 0.201399, 1.00711, -0.0820484, 0.0849552, 0.42244, -0.0979557, -0.572721, 0.00164373, -0.740751, 0.193918, -1.18167, 0.385114, -0.333459, 0.688779, 0.0574834, 0.488576, 0.370885, 0.143082, -0.0198307, -0.00480093, 0.000808724, 0.000340922, -0.000725272, 0.00625049, 0.072413, 0.0802663, 0.0155409, -0.379389, 0.298083, -0.258207, 0.403768, 0.824767, -0.313146, -0.311683, 0.118027, 1.02768, -0.133277, 0.338072, -0.369912, 0.460425, 0.818397, 1.61503, 0.788915, 0.48286, 0.259373, 0.0919462, -0.0163896, -0.000695543, 0.000352153, -0.000117038, -0.000237953, -0.00869131, -0.00695056, -0.14432, -0.322305, -0.583611, 0.0239466, -0.114872, -0.636085, 0.179425, -0.334953, -0.286103, -0.108307, 0.36963, -0.433062, 0.968467, 0.655407, -0.270042, 0.577923, 1.36712, 1.02546, 0.666314, 0.165126, -0.140213, 0.00357775, 0.000554078, 0.000120151, -0.000723075, -0.000533067, 0.00226863, -0.00108634, 0.133676, -0.200908, -0.534007, -0.391819, -0.530419, -0.199878, 0.674844, -0.50035, -0.401844, 0.50151, -0.0130768, -0.957038, 0.295507, 0.663782, -0.227806, -0.174973, 0.321223, -0.0152089, 0.285472, -0.0164226, -0.0829305, -0.000542421, 0.000777269, -0.000376263, 0.000542955, 0.000364544, -0.000640004, 0.000212172, 0.013686, 0.0708629, 0.149691, 0.28365, 0.115576, 0.676255, 1.09135, 0.206966, 0.132362, 0.267356, 0.210939, 0.178108, -0.474952, -0.218093, -0.180817, -0.604591, 0.0240356, 0.0739219, -0.0593651, -0.0051914, 0.00109097, 0.000256889, 0.000580798, -0.000433699, -0.000663259, 8.72524e-05, 0.000357402, -0.000281045, -0.00039587, -0.000365394, -0.00111825, 0.000615844, -0.00642489, -0.00787936, -0.0185619, 0.0733651, 0.157926, -0.0237333, -0.0776393, 0.128951, -0.188683, -0.167292, -0.174303, -0.0394775, 0.0942989, -0.00749699, -0.0415063, -0.00580807, -0.000781915, 0.000559618, 0.000549669, 0.000289102, 0.00049321, -0.0003961, 0.000382366, 9.61333e-06, -0.000264382, -0.000898984, -0.000971496, -0.000124546, -0.000297403, 0.000640004, -0.000419416, -0.000251503, -0.00685467, -0.0121509, 0.00518934, 0.000557332, 0.00094879, -0.000155919, 0.000974914, 0.00082226, 0.000949156, 0.000125706, -0.000465377, -3.81176e-05, 0.000538438, 0.000728751, -0.000892697, 0.000283303, -0.000634144, -0.000129856, 0.000182226, -0.000102756, 0.000735056, -0.000248024, 0.00254599, 0.0013194, -0.0243795, -0.00976162, -0.00250362, -0.044186, -0.107365, -0.0498544, -0.0339717, -0.00814376, 0.121823, 0.0293369, -0.0204568, -0.00918195, -0.0057937, -0.00669556, -0.000153989, -4.2315e-05, -3.61644e-05, 0.00094995, 0.000572253, -0.00089172, -0.000738334, 1.91351e-05, -0.000781196, -0.000184561, 0.000872638, 3.74455e-05, -0.001701, -0.00722443, -0.0563308, -0.0797994, -0.270412, -0.380864, -0.553276, -0.288345, 0.103944, 0.0070163, 0.115564, 0.0496468, -0.422066, -0.358815, -0.0919926, -0.0783492, -0.0291908, -0.0149736, -0.000526214, 0.000254418, 0.000880612, 0.000830256, -0.000644704, -0.000469466, 0.00960177, 0.00215886, -0.0192002, 0.0767135, 0.0714329, 0.13083, -0.141852, -0.21552, -0.725467, -0.013747, 0.941329, 0.774812, 0.884288, 0.327023, 0.363429, 0.247287, 0.266256, 0.401238, 0.841451, -0.21613, 0.0381086, -0.125718, -0.163825, -0.0186828, -0.000217498, 0.000770745, 0.000577563, -0.000225886, 0.0329653, 0.014262, 0.0645268, 0.369838, 0.208217, -0.152187, 0.814903, 0.173779, 0.0332407, 0.349852, 0.635003, -0.215454, 0.424989, 0.169027, -0.650316, 0.511991, 1.38006, 0.0444335, -0.0349161, -0.919161, -0.300902, -0.587898, -0.433639, -0.0309587, 0.0150995, -0.00111199, 0.000716971, -0.000256142, 0.00553441, 0.0825596, 0.709293, 1.3552, 0.78114, 0.324843, 0.716149, 0.724044, 0.780695, -0.0159114, 0.0639976, 0.0794319, -0.555028, 0.571979, -0.733425, -0.601067, -0.509845, -0.317802, -1.18273, -0.734601, -0.266019, -0.317391, -0.098749, -0.12573, -0.013453, -0.00192515, -0.000228858, 0.000212701, -0.0550992, 0.210237, 0.614337, 1.0882, 0.931021, 0.282861, 0.298671, -0.221215, 0.256749, 0.70588, -0.164685, 1.00792, 0.325933, 0.103618, 1.22502, 0.197162, 0.161475, -0.484488, 0.133763, 0.0860322, -1.11926, -0.450801, -0.408133, -0.0175039, -0.0144168, -0.00630752, -0.000451491, 0.0421547, -0.0190833, 0.247719, 0.95416, 0.116616, -0.21582, -0.514463, -0.24799, -0.12547, -0.419379, 0.386701, 1.08136, 0.497952, -0.716666, -0.371854, -0.0108012, 0.276042, 0.0493579, -1.13205, 0.629407, 0.777517, -1.11786, -1.73583, -1.29571, -0.643347, -0.15564, -0.0101884, -0.00265622, 0.00223808, 0.00618616, 0.492895, 1.38051, 0.975423, -0.944268, -0.279738, 0.259518, -0.173498, 0.436633, -0.424037, -0.0734671, 0.60218, 0.514041, 0.420579, -0.791596, -0.145815, 0.758342, 0.0113082, 0.139562, -0.197781, -0.652473, -2.3329, -2.1172, -0.938096, -0.0496542, -0.00658996, 0.000909006, 0.0117163, 0.112787, 0.725769, 1.66703, 1.31893, 0.0639953, 0.351817, 0.220168, -1.05669, -0.810033, -1.23968, 0.855498, 1.03362, 2.14192, 1.17627, -0.92672, 0.826071, 0.395159, -0.0316681, 0.78346, 0.141385, 0.344799, -2.57441, -1.96183, -0.808608, -0.0785763, 0.0317084, -0.000913779, 0.0208669, 0.152692, 0.494538, 0.258325, 0.0256975, 0.252938, -1.31271, -0.698471, -2.27467, -1.16806, -1.69123, -1.45491, 0.267755, 2.10658, 0.4431, 0.849586, 0.131547, 0.184193, 0.578981, 0.827144, 0.263073, -0.926885, -1.76643, -1.30788, -0.57255, -0.215063, 0.00801294, 0.00015725, 0.0153384, 0.135286, 0.466285, 0.0852443, -0.992789, -0.911748, -1.48839, -1.15903, -0.74393, 0.343993, 0.899528, -0.981528, -1.84336, 0.959347, 0.916555, 0.678277, 0.196935, 1.89275, 0.297555, 1.51476, -0.359256, -1.58889, -1.74027, -1.19424, -0.69442, -0.352375, 0.0452755, -0.000279468, 0.0101576, 0.15059, 0.47616, 0.211984, -0.70018, -0.512288, -0.696193, -0.170755, 0.904737, 0.310595, -0.0446266, -0.927024, -1.34064, 2.15263, 0.0617547, 1.06046, 0.540286, 0.454764, 0.559917, -0.515394, -0.579188, -0.858693, -1.27516, -0.384475, 0.244402, 0.081155, 0.0726132, -6.51891e-05, 0.0055552, 0.0809601, 0.579515, 0.72693, -0.257488, 0.220992, 0.53754, -0.0582853, -0.0305093, -0.320961, -0.750631, -0.949249, -1.05616, 0.734302, 0.966301, 0.61405, 0.680218, -0.306501, -0.367519, -0.585707, -0.0770746, -0.827748, -1.21395, -0.532362, 0.00137067, 0.0494369, 0.00122199, -0.00146918, 0.0155374, 0.023293, 0.570518, 0.299706, -0.68501, 0.0807757, -0.30504, -0.326059, -0.548412, -1.36614, -0.428117, -0.383934, 0.572358, 0.641621, 1.2657, -0.389509, 0.64008, 1.17292, -0.478709, -0.292744, 0.579581, -0.493439, -0.12439, -0.476332, -0.0439665, 0.0733346, 0.00108573, -0.000385428, 0.0277594, -0.00203281, 0.139611, 0.159828, -0.371023, -0.329155, -0.762259, -0.637841, -0.938762, -0.121927, -0.727057, -0.945638, 1.10012, -0.267414, -0.417666, 1.32098, 1.16252, -0.0928165, -0.768935, -0.251933, -0.232701, -0.723153, 0.101682, 0.122127, -0.0318762, -0.112694, 0.0140142, 0.00110356, 0.012592, 0.0950771, 0.148028, 0.735865, 0.432039, -0.91534, 0.507311, 0.194395, -0.396119, -0.445422, -0.688833, -0.772642, 0.332598, 1.09269, -0.0750294, 1.19049, -0.527128, -0.501916, 0.161486, -0.666102, 0.021552, -0.0301943, 0.16929, -0.0700786, 0.0113435, 0.0556802, 0.0291486, -0.000724784, 0.00420377, 0.0797746, 0.438104, 0.521258, 0.032917, -0.342578, -0.265134, -0.134451, -1.00242, -0.180342, -0.410426, 0.777544, 0.622656, 0.151568, -0.666873, -0.593153, -0.301481, -0.323138, 0.228107, -0.580254, 0.327271, -0.305462, 0.322746, -0.105925, 0.238317, 0.184801, 0.0134249, 0.0217139, -0.000248518, 0.00431642, 0.52629, 0.219811, 0.279641, -0.517047, -0.361592, -0.208077, 0.52273, 0.297872, 1.17394, -0.548414, -0.66842, 0.311863, 0.348092, -0.704839, -0.127047, 0.260835, -0.151951, -0.141061, -0.0528154, 0.131851, -0.21424, 0.16578, 0.425118, 0.2765, 0.0228565, 0.000952837, 0.000171577, -0.331044, 0.544761, -0.465345, -0.344741, -0.373904, -0.0513969, 0.218165, -0.277079, -0.617699, 0.258603, -0.366578, -1.31119, 0.107251, 0.271678, 0.339791, 0.770143, 0.105002, 1.25541, 0.143986, 0.33125, -0.465659, -0.315664, 0.765831, 0.536839, 0.286833, 0.014948, 0.000463424, -0.00628206, -0.0205267, 0.798198, -0.124345, -0.691507, 0.033685, -0.0232507, 0.425839, -0.157521, -0.653257, -0.452718, 0.388918, -1.14711, 0.683161, -1.1205, 0.543092, 0.534431, -0.204666, 0.640738, 0.843808, 0.504265, -0.600032, 0.303224, 0.818496, 0.500575, 0.145597, 0.000878835, 2.69081e-05, 0.00126367, 0.0769828, 0.672475, -0.162344, -0.316243, 0.825478, -0.0304865, 0.968774, -0.907708, -0.0341313, -0.943287, 0.367469, -1.27362, -0.781129, 0.298679, 0.240373, -0.124283, 0.0755411, 1.34962, 0.183685, 0.358782, -0.516304, 0.18776, 0.750365, 0.345962, 0.0170396, -0.000813911, 0.000795129, -0.000629584, 0.0226877, 0.350461, 0.697429, 0.873058, 0.677825, 0.0312344, -0.225147, -0.770402, -0.641299, 0.425046, -0.392573, 0.128975, 0.0292676, -1.92413, 0.290144, 0.278726, 0.493589, 0.179798, 0.723585, -0.37312, -0.151024, 0.22844, 0.161906, 0.104976, 0.0271082, 0.000542419, -0.00063805, -0.00077337, 0.0035638, 0.178047, 0.640168, 1.1177, -0.630209, -0.161258, -0.584275, 1.17608, -0.479784, 0.487721, 0.246119, -0.537729, -0.288182, 0.0141266, -1.50489, 0.406852, -0.476604, 0.386694, 0.0821333, -0.100664, 0.374678, 0.0674934, 0.0190854, 0.0189353, 0.161261, 0.000635548, -0.000384564, -0.000491928, 0.0047964, 0.0132158, 0.329601, 0.825657, 1.04698, 0.0586445, -0.374853, -0.506731, -0.056903, 0.587377, -0.61351, -0.849028, -0.225732, -0.0975995, -0.304223, -0.169352, 0.0646136, 0.632585, 0.474192, 0.630495, 0.755478, 0.250141, -0.00711394, -0.00963887, -0.0159466, 0.00038609, 0.000822016, -0.000692312, -1.27862e-05, -0.0279363, 0.0944303, 0.364219, 0.17428, 0.262428, 0.746293, 0.173892, -0.176363, 0.265938, 0.666821, 0.198692, -0.00967285, -0.26896, -0.006259, -0.835811, -0.211501, 0.456718, 0.759711, 0.395458, 0.357822, 0.131999, -0.00342129, -0.00882426, -0.019274, -0.000137242, -8.02637e-06, 0.000708304, 0.000699881, -0.000609338, 0.00694919, 0.0630297, 0.135321, 0.187211, 0.258583, 0.22029, 0.192331, -0.0695955, 0.263281, 0.40347, 0.657311, 0.385557, 0.156916, 0.272765, 0.177429, 0.154284, 0.233223, 0.154832, 0.23235, 0.0860447, -3.84259e-05, -0.0006219, -0.000577441, 0.000838374, 0.00047795, 7.03452e-05, -0.000442854, 0.000492233, -0.000548318, 0.000629517, 0.0117585, 0.0601764, 0.0627718, 0.022291, 0.0028769, 0.00100814, 0.00843533, 0.0235491, 0.18193, 0.20266, 0.16544, 0.0676302, 0.062766, 0.0488883, 0.0091781, 0.0160161, 0.0109317, 0.00219746, -0.000661061, -0.000616932, 0.000830805, -0.000578356, -0.000651784, 0.000751946, 0.000675222, -0.000705008, 0.000669362, 6.26545e-05, -0.000772454, 0.000863033, -1.10782e-05, 9.01822e-05, 0.000839961, -0.000736747, -0.0292671, -0.065208, -9.37919e-05, 0.000460328, 0.000551744, 0.000886044, -0.000629383, -0.000264321, -7.19321e-05, 0.000727103, -0.000316874, -0.000837031, -0.000696341, 0.000289834, 0.000828303, 0.000242409, -0.000496078, -0.000990967, -0.000763298, -0.000147252, 0.000593842, 0.000630178, -0.000456616, -0.000128531, -0.0401341, -0.00885305, 0.000136687, -0.00108642, -0.0504112, -0.0699, -0.0221692, -0.00941475, -0.00104104, -0.000319417, -0.0112803, -0.0183498, -0.00566295, -0.00201305, -0.000460188, 0.000497398, -5.58184e-05, -0.000850764, 0.000842647, 0.000822504, -0.000835261, 0.000893368, -0.000918955, 0.000876357, 0.000272669, -0.000540936, 0.000865711, -0.0031151, -0.0380283, 0.0156961, 0.0518117, -0.0164213, -0.102204, -0.261157, -0.108638, -0.0149321, -0.126779, -0.110222, -0.195504, -0.0376384, -0.00929383, -0.0229029, -0.015205, -0.00261662, 0.000215628, -0.000224246, 0.000209387, 7.73644e-05, -0.000154332, 0.000192602, -0.0553714, -0.0140918, -0.000830916, -0.0175436, -0.00788632, -0.0185458, -0.0171712, 0.0170613, 0.0948139, -0.0427109, -0.553073, -0.681047, -0.673813, 0.869809, -0.275485, -0.853327, -0.225529, -0.312802, -0.309556, -0.119728, 0.170515, 0.0254876, -0.00306374, 0.000351848, -0.000975897, 0.000643422, 4.33058e-05, -0.000693747, -0.191768, -0.0501922, -0.0819754, -0.27208, 0.0189275, 0.0408771, 0.0759295, 0.498453, 0.977383, 0.979031, 0.105673, 0.792876, 0.105654, -0.281257, 0.450085, 0.0129444, 0.216849, 0.172141, 1.03713, 0.402259, 0.354489, 0.22571, 0.041844, 0.00458279, 0.00859537, 0.00237663, -6.88803e-05, -0.000117283, -0.0300629, -0.0385863, -0.317547, -0.0216794, -0.189699, -0.222023, 0.0386782, 0.100729, -0.29536, 0.00822271, 0.492697, 0.137037, -0.675927, 0.207564, -0.210352, -0.497044, -1.069, -1.15841, -0.224026, 0.808664, 0.136501, -0.370949, -0.235141, -0.00269978, 0.0337676, 0.00159121, -0.000694876, 0.000685601, -0.0151523, -0.182115, -0.173039, 0.422018, -0.0359208, 0.20642, 0.327819, -0.0257848, 0.71865, -1.11382, 1.08721, -0.385734, -0.961238, 0.953339, -0.0314268, -0.226521, -0.570645, 0.72537, -0.238069, 0.744816, 0.111163, -0.309199, -0.0563704, 0.112259, -0.000864657, -0.00216663, 0.000778337, 0.00702397, -0.000204923, 0.260983, 0.391593, 0.332955, -0.281154, 0.866879, -0.182921, -0.882517, 1.00475, -0.348877, 1.15724, -0.42388, -1.29789, 0.916465, 0.224408, -0.303863, 0.782268, 0.524762, -0.215202, -0.308551, -0.128084, -0.289894, 0.132436, 0.0850732, -0.0185561, 0.00184427, 0.000230222, 0.145516, 0.0602726, -0.12173, -0.157085, -0.00115186, 0.761643, 0.229537, 0.737374, 1.00197, -0.233866, -0.443639, 0.66939, -0.799927, 0.210886, -0.884078, -0.294473, -0.169765, -0.485049, 0.163248, 1.30507, 0.800372, 0.205063, 0.353983, 0.0397095, -0.374226, 0.0183289, -2.77394e-06, 0.0006652, 0.199724, 0.0118414, -0.372391, 0.152595, 0.24889, 0.479043, -1.11413, 0.442094, 0.281301, 0.153613, 0.848685, 0.604284, -0.162123, -0.170647, 0.425487, -0.585002, 0.223842, 0.629107, -0.032296, -0.829157, 0.272134, -0.0714137, 0.409685, -0.127034, -0.0434863, 0.121341, -0.00745473, 0.000522542, 0.201838, 0.209924, -0.175127, 0.354829, 0.728688, -0.659553, -0.819574, -1.70967, -0.00228578, 0.0812153, 0.391565, -1.79953, -0.242818, -1.23882, -0.458955, 0.602515, -0.303899, 0.267166, -0.197349, 0.824343, -0.487045, 0.730654, -0.15857, 0.137904, -0.518942, -0.163996, -0.000301867, 0.00103578, 0.139745, 0.276324, -0.33354, 0.368697, 0.651786, 0.470795, -0.170905, -1.19789, 0.32213, 0.25239, 0.864047, -0.345777, -0.289865, -0.308495, 0.405389, 0.79333, 0.0655397, 0.712449, 0.168386, 1.33986, -0.254821, 0.369111, -0.426634, -0.545331, -0.69359, -0.338775, -0.0575496, -0.000283088, 0.0698199, 0.21617, 0.126927, 0.363994, 0.982789, 0.950532, 0.516337, 1.30681, 0.029293, -0.0792441, 0.97641, -0.470015, -0.980189, -0.152297, 0.622548, -0.371748, 0.403168, -0.473787, 0.245252, -0.069073, 0.188537, 0.188723, -0.265039, -0.228367, -0.0302734, 0.00132374, 0.00731548, -0.000197036, 0.0183398, 0.073817, 0.547263, -0.120057, 0.67697, -0.26481, -0.448362, 0.611521, 0.304339, 0.0851931, 0.302941, -1.30583, -2.07125, -1.69799, -0.0533389, -1.28577, -0.466299, -0.70094, -0.999975, -0.200402, -0.559623, 0.662003, 0.506345, 0.144208, 0.165839, 0.130634, 0.0503019, 0.000476507, 0.00252984, 0.0268019, 0.0934152, -0.405992, 0.502425, -0.0595754, -0.0709164, 0.182785, -0.910465, -0.416425, -1.17693, -0.0866175, 0.1222, -0.619786, -0.597434, -0.264143, 0.622714, -0.732941, -0.182175, 0.650268, -0.547009, 0.626871, 1.00895, 0.497877, 0.232015, 0.0243294, 0.00565162, -0.000668773, -0.0117781, 0.0525345, -0.104484, -0.574934, 0.185139, 0.712942, -0.106487, -0.562944, -0.0731337, -0.539867, -0.123842, -0.783587, 0.215978, -0.349131, 0.0327376, -0.13394, 0.293725, -0.451103, 0.578868, 0.0209389, -0.537593, 1.45914, 0.723136, 0.438386, 0.118891, 0.0314496, 5.34708e-05, 0.000642504, -0.00611361, -0.0249025, 0.0446987, 0.180221, 0.530511, 1.2471, 0.360381, 0.0986417, 0.23484, -0.573969, -1.28497, -0.865806, 0.172542, -0.203672, 0.129594, -0.152051, 0.0692909, -0.465652, 1.33176, 1.23174, -0.156481, 0.446197, -0.291632, 0.228416, 0.368774, 0.234498, 0.00282602, -0.00015421, -0.00226641, -0.00351941, 0.0282794, 0.700233, 1.04497, 1.23125, 1.54096, 1.30367, 1.27094, -1.49988, -0.025943, -0.862197, 0.361389, -0.0229759, 0.0296671, 0.301068, 1.18896, 0.808859, 0.145052, 0.545109, -0.1874, 0.754346, -0.00626961, 0.507638, 0.492824, -0.00968858, 0.00496349, -0.00165518, 0.000458243, -0.0018705, 0.0381946, 0.708128, 1.5055, 2.2966, 2.52968, 3.39469, 3.12737, 1.37651, 0.556708, 1.50411, 1.05346, -0.58514, 0.771891, -0.54378, 0.19266, 0.0043211, 0.414154, 0.306394, 0.223431, 0.299656, -0.387468, 0.583241, 0.211753, -0.154257, -0.0850379, 0.000746199, 0.025054, -0.00572938, -0.0735862, 0.264296, 1.82443, 2.03188, 1.45509, 3.704, 4.67186, 3.62601, 2.9899, 1.98944, 1.54522, 1.03882, 0.295979, -0.482413, 0.281229, -0.218437, -0.380291, -0.163785, 0.29337, -0.332143, -0.285436, 0.05088, -0.0104473, -0.101879, -0.0363017, -0.000157628, 0.000691279, -0.0148525, -0.11721, -0.025694, 1.56887, 1.37472, 0.320105, 1.68657, 2.05452, 1.50305, 0.358875, 1.02544, 0.363911, 0.592025, 0.189243, -0.878224, -0.21135, -0.375509, -0.00049023, -0.0518292, 0.699671, -0.227634, -0.497909, -0.523204, -0.224817, -0.125762, 7.70718e-05, -0.000293497, 0.00109972, -0.0336144, -0.17205, -0.636888, 0.0553916, 0.672518, -0.727851, -1.26425, -1.52893, -0.837059, -0.303574, -0.110708, -0.863182, -0.170883, -0.00186275, 0.518976, 0.393629, -0.308869, -0.408773, -0.855927, -0.00896285, 0.273853, 0.0627329, -0.0973764, -0.133962, 0.00173608, 0.00082786, -0.00105333, -0.00101757, -0.0360646, -0.238281, -0.516699, -0.66281, -0.674119, -0.147456, -0.766857, -0.645522, -0.466208, -1.11405, -0.240118, -0.460561, 0.25207, 1.99732, 0.709768, 0.0803417, -0.393211, 0.101013, -0.79297, 0.176922, 0.446257, 0.00650697, 0.0525618, -0.0586722, -0.0368001, -0.000633609, -0.000192297, -0.000107395, -0.0410402, -0.139801, -0.492814, -1.49153, -0.42249, -0.00343056, -0.298745, 0.13263, -0.340153, 0.342298, 0.108695, 0.276032, 0.290791, -0.599842, -0.485677, -0.207044, 0.997443, -0.211434, -0.723195, 0.357474, 0.643632, -0.278081, -0.0249555, -0.0495069, -0.248189, 3.61034e-05, 0.000666494, -0.000486068, -0.0387861, -0.105097, -0.529696, -1.15284, -1.67849, -1.77798, -0.727598, -0.183412, -1.04767, -0.763266, -0.608205, 0.974817, 0.164182, -0.550046, 0.40599, 0.864081, 0.0431368, 0.890746, 0.2717, 0.296997, 0.418645, -0.211926, 0.0166548, -0.0288623, 0.00135194, 0.000190954, 0.000389019, 0.000317423, -0.00326912, -0.000487408, -0.289335, -0.457176, -0.229903, 0.123753, -0.95352, -0.777138, -0.174828, -0.00520402, -1.3756, -0.531453, 0.0853169, 0.631556, 0.190096, 0.299076, 0.910147, -0.526337, -0.547405, -0.0878601, -0.0131226, 0.0317334, 0.0257085, -0.0218915, 0.00255794, -0.000381329, 0.000733085, 3.09763e-05, -0.0006845, -0.00096894, -0.0379799, -0.264101, -0.324851, 0.100069, 0.335221, 0.0510338, -0.917159, 0.0728395, -0.0283868, 0.876112, -0.212835, -0.54411, -0.881752, -0.838064, -0.537182, -0.0659925, 0.109754, 0.0261611, 0.0847228, -0.0106767, 0.000674421, 0.000161178, 0.000570299, -0.000647267, 0.000680471, -0.000200232, 0.000578356, 0.00092291, -0.000196404, -0.000246276, -0.0215974, -0.108007, -0.108406, -0.0276668, 0.0382257, -0.0543496, -0.0795225, 0.0851489, -0.0242224, -0.244476, 0.0183336, -0.0299442, -0.160735, 0.244563, 0.212283, 0.143047, 0.0900266, -0.000715691, -8.93887e-05, -0.000625172, 0.000284402, -0.000331828, 0.000717887, 0.000453352, 0.000452986, 0.000899167, -0.000929807, -0.000611866, -9.09757e-05, -0.000903134, -0.000839228, -0.000103488, 0.000102329, 0.000486557, 0.000503823, -0.00104985, -0.00204052, 0.000492021, 0.000740776, 8.11487e-05, 0.000791437, 3.53099e-05, 0.00093994, -0.000226478, -0.000535813, 0.000613086, -0.000906064, 0.000493698, 0.000274941, 0.000892209, -0.000593982, -0.000321024, 0.000236549, 0.000603076, -0.000385461, -0.000926967, -0.00358719, -0.00782873, 0.0380968, 0.022562, 0.110077, 0.0442013, 0.0492521, 0.0455862, 0.0957865, 0.0544881, -0.0600975, 0.0344599, 0.139653, 0.150204, 0.0263058, 0.0211159, 0.0222811, -0.00311299, 0.00039848, -0.000989624, 0.000856868, 0.000525803, 0.00010538, 0.000446211, -0.00055637, -0.00122021, -0.0125954, 0.000888176, -0.000885007, -0.00279233, 0.00564235, -0.0584853, 0.048895, -0.0730666, -0.0628791, -0.0367444, 0.305986, 0.39106, 0.13105, -0.296, 0.124086, 0.101527, 0.0435039, 0.116214, 0.0902923, 0.015486, -0.137618, -0.0964483, -1.79144e-05, 0.00028843, -0.000846187, 0.000711905, 0.000712702, -0.00361323, -0.00286514, 0.0254077, 0.0242256, 0.0033949, -0.075751, -0.364768, -0.0975786, -0.265735, -0.0378886, 0.507359, 0.253375, 1.07493, 0.948901, 0.24642, -0.348812, -0.0146877, -0.105443, -0.412702, -0.274812, 0.0819244, -0.14079, -0.307963, -0.0284575, 0.000466597, -0.000805475, -0.000153413, 0.000727671, 0.00739374, 0.0388048, 0.0849895, 0.151554, 0.190365, 0.621636, 0.0909633, 0.775416, 0.77674, 0.888727, 1.65742, 0.713337, 0.15969, 0.903743, 1.68845, 0.801767, 0.116962, 0.245389, 0.239799, 0.234721, 0.423747, -0.13359, -0.28317, -0.0527809, 0.00554296, -0.00091052, 0.000729972, 0.0018173, 0.0231537, 0.30804, 0.74174, 0.559415, 0.18669, 0.34796, 0.907717, 0.679805, 0.662502, -0.203149, 0.169845, 0.540228, 0.487763, 0.988944, -0.0513283, -0.156966, 0.93824, -0.436109, 0.160066, -0.501607, 0.204103, 0.0286994, -0.458409, -0.0313949, 0.000624783, 8.38343e-05, 8.61543e-05, -0.0401582, 0.159121, 0.193338, -0.210667, 0.380871, 0.205089, -0.416666, -0.630768, 0.001208, 0.0571035, -1.00378, -0.595951, 0.225551, -0.842927, 0.0025593, 0.324763, -0.697857, -0.0513664, -0.168394, -1.10573, -0.0617332, -0.606625, -0.700399, -0.708943, -0.214598, -0.020403, 0.00021673, -0.00304344, -0.225527, -0.100475, -0.150104, -0.0651202, -0.240384, -0.140617, 0.19751, 0.640177, 0.0830762, 0.285173, -0.638513, -0.515247, -0.179724, -0.23167, -1.9545, -0.353218, -0.497128, 0.157072, -0.117536, -0.0792856, 0.138854, 0.386348, -0.262912, -0.960334, -0.300167, -0.0163954, 0.00239231, 0.000324045, -0.129942, -0.293993, -0.0128179, -0.487222, -0.623936, -0.73023, -0.112097, -0.824675, -0.967742, -1.11056, -0.367922, -1.32623, -0.428378, 0.346871, -1.24369, 0.111369, -0.340417, -0.346672, -0.304756, -0.569425, -1.37414, 0.195539, 0.642541, 0.24367, -0.110198, -0.02543, 0.000298237, 0.00163769, -0.0797618, -0.0370592, -0.830373, -0.33995, -0.180347, -0.502808, 0.551603, -0.209636, 0.437377, 0.112376, -0.564387, -1.49445, -1.33623, 0.175866, -0.218321, -1.18387, -1.48687, -0.873463, -0.107473, 0.858547, -0.407817, 0.0308333, 0.0430681, 0.450897, 0.207667, -0.01039, -0.000459019, 0.00621774, -0.0352956, 0.0989509, -0.895908, -0.749134, -0.527683, -1.03991, -0.281835, -1.21813, -0.425858, -0.970582, 0.0356125, -0.755179, -1.70242, -0.573526, 0.983492, 1.05392, 1.21737, 0.513793, 0.19828, 0.847097, 0.588504, 0.702324, 0.391287, -0.0349735, -0.0891267, -0.0381166, -0.00150095, -0.00125779, 0.071064, 0.368391, -0.386797, -0.521088, 0.0438079, 0.179151, -0.299493, -0.467312, 0.249099, 0.314724, 0.887318, 0.906169, 1.33935, 1.49193, 2.59173, 0.641829, 1.4798, 0.388484, 0.940905, 0.726977, 0.0870748, 0.0795023, -0.262279, -0.563789, -0.277756, -0.0192705, -0.000100917, -0.0162363, 0.0615262, 0.592999, 0.000886413, -0.0955201, 0.718734, 0.547113, 0.780997, 1.28163, 1.03973, 1.67005, 2.52735, 1.1769, 1.11976, -0.321345, -0.101823, -0.0163786, 0.388701, 0.21977, 0.258382, -0.436241, -0.320886, 1.01873, -0.208304, -0.378814, -0.116083, -0.0724383, -0.000340976, 0.000959005, 0.0012443, 0.389893, 1.02708, 0.169081, 0.538326, 1.33052, 1.30713, 1.22875, 0.881798, 0.220994, 1.44994, -0.872525, 0.382532, -1.03423, -0.269544, 0.491977, 0.209033, -0.250288, 0.134521, 0.00319811, 0.735534, 1.45259, 0.0643554, -0.267742, -0.660683, -0.270978, 1.43915e-05, -0.0139372, -0.0316957, 0.109508, 0.738192, 1.27612, 0.669002, 0.485711, 0.705853, 0.247379, -0.132462, 0.252261, 0.186731, -1.21211, 0.925384, -0.314429, -0.592291, 0.088466, -0.53455, -0.295521, 0.248589, 0.297397, 0.610412, 0.526386, 0.0288272, -0.202664, -0.666169, -0.0296538, -0.00068581, -0.0339342, -0.0523608, -0.161414, -0.359716, 0.323391, 0.705199, 0.746809, -0.59283, 0.305942, 0.0529216, -0.397874, -0.0746051, 0.203797, 0.41018, -0.289478, 