{
	"num_layers" : 3,
	"cost_function" : "cross-entropy",
	"layers" : [
		{
			"num_input_layers"  : 784,
			"num_output_layers" : 30,
			"activation" : "relu",
			"weights" : [0.000222999, 0.00014481, -0.000617298, -8.78018e-05, -0.000719474, 0.000257363, 0.000709586, 0.000335551, -0.000399884, -0.00098822, -0.000970641, -0.0003773, -0.00090582, -0.000555345, -0.00041551, -0.000692984, -0.000604663, -0.000212867, -0.00038554, -0.00057506, 0.000223182, -0.000605274, -0.000651723, 7.09555e-05, -0.000998291, -7.31529e-05, 0.000246742, 0.000201819, -0.000273476, -0.000223487, 0.00049443, -0.000308267, -0.00091821, -0.000249855, -0.000257912, 0.000636769, -0.000192236, -2.83822e-06, -0.000901425, -9.04263e-05, -0.000682363, 0.000189611, 0.000373394, 0.00121127, 0.00202655, 0.00117729, 0.000568468, 0.000890378, 0.000160863, 0.000541124, -0.000379376, 0.000718925, 0.000740898, 0.000775079, -0.000606311, 0.00097589, 0.000582568, 0.000213721, -7.93176e-05, 0.000487167, -0.000527573, 0.000588061, 0.000895993, 0.000433576, -0.000176611, 0.000479843, 0.0010425, -0.00157701, -0.0134431, -0.0151109, -0.0125687, 0.00308757, -0.215934, -0.556372, -0.284157, -0.0706335, -0.0147615, 0.00011362, -0.000121189, 0.000664663, -0.000427168, -0.000301309, 0.000612842, 0.00024247, -0.0009588, 0.00076165, -8.70693e-05, -0.000648, -0.00033964, 0.000262612, -0.000115635, 0.0321473, 0.0106936, 0.0116576, 0.0654542, 0.153237, 0.0533584, -0.158187, -0.396278, -1.00125, -1.43773, -3.15408, -2.95037, -1.10568, -1.87602, -1.14797, 0.549991, 0.173638, -0.201443, -0.019391, -0.0348601, 0.000626087, 0.000908567, -0.000431501, -0.000319071, -0.000383404, -0.000956827, 0.00461903, -0.0783511, -0.351684, -0.478658, -0.496452, -0.516691, -0.481195, -0.520648, -0.993032, -1.53389, -2.42329, -2.91335, -4.84716, -6.06347, -0.551825, 1.8304, -1.99564, -0.458705, 0.201486, -2.07156, -0.652992, -0.276006, -0.271239, 0.000116855, -0.000866573, 0.000337931, 0.09801, 0.0324303, 0.16604, -0.0966304, -0.224108, -0.926075, -0.841743, -0.910093, -1.09572, -2.14566, -2.69524, -4.93875, -5.62022, -6.34705, -5.29808, -2.08629, 2.26764, 2.15661, 2.68326, 0.507554, -0.852524, -0.269521, -1.18078, -0.928267, -0.401396, 0.000544908, -0.000935789, -0.000903867, 0.288451, 0.0943727, -0.0565849, -0.263565, -0.276262, -0.0430881, -0.917898, -1.62049, -1.91861, -2.34715, -3.38167, -6.89991, -7.44802, -3.85035, -2.60197, 1.16852, 2.43944, 0.778353, -3.21635, -3.01612, -1.20363, -0.663101, -0.507922, -0.048433, -0.0310783, -0.000911802, 8.50551e-05, 0.000711969, -0.0059388, -0.00947202, -0.129058, -0.690081, 0.267615, -0.267689, -1.17726, -2.33762, -3.51972, -3.04995, -5.40366, -8.68865, -5.44174, -2.45969, -2.88783, -2.06982, 1.61142, 0.541065, -1.74737, -0.98659, 0.17614, -2.51956, -0.785465, -0.0400205, -0.015364, -2.02338e-05, -0.000705741, 0.000181128, -0.00651407, -0.0132149, -0.370956, -1.06473, -0.876552, -1.05498, -0.756251, -1.32949, -4.06202, -4.02381, -5.90838, -7.42533, -1.25397, -0.595133, -0.54736, -0.0874778, 2.14251, 0.851418, -3.24106, -0.843895, -0.98681, -3.74212, -0.888494, 0.0708096, 0.0760153, 0.000359783, -0.000653421, 0.000684378, -0.00220484, -0.0114177, -0.239711, -0.826279, -0.632617, -1.21765, -1.36017, -2.09923, -3.78199, -4.33341, -7.05936, -6.27938, -0.00154812, 0.762602, 0.246676, -0.587576, -1.25353, -2.79648, -1.43257, -0.0485698, -2.52996, -2.83682, -0.910083, 0.0235658, 0.00114735, -0.000903806, 0.000824248, 0.000782525, -0.00216512, -0.00857498, -0.480382, -1.2494, -0.851071, -1.14167, -2.89068, -3.73719, -4.5395, -6.02112, -8.00028, -3.6471, 0.375516, 2.54904, 1.9633, 0.170856, -3.406, -1.45827, -1.78894, -3.36046, -2.83864, -2.01425, -1.01594, -0.508315, -0.00049321, 0.000855281, 6.5378e-05, 0.000861832, -0.00308265, 0.0785075, -0.682878, -1.09327, -1.25328, -2.65334, -3.77592, -5.43274, -5.32984, -6.40419, -2.28935, -0.501519, 3.67178, 1.28385, 0.702109, 2.03299, -2.74637, -1.09503, -1.67905, -1.65747, -0.921467, -0.851129, -0.221946, -0.377307, -0.0015946, -0.000578478, 0.000521775, 0.000829157, -0.125489, -0.226148, -1.57762, -0.997781, -1.77146, -3.12946, -3.32938, -4.4252, -6.12451, -5.169, 0.170526, 3.9294, 1.70144, 0.113101, 3.43572, 0.222189, -1.99089, -3.84855, -1.02198, -0.537147, -0.407996, -0.288758, -0.0826533, -0.0058001, -0.00328808, 0.000268227, -0.00020365, -0.000942381, 0.125752, -0.532393, -1.42556, -1.9124, -2.04488, -2.42222, -3.68862, -5.03045, -4.86427, -4.21285, 1.91577, 3.17766, 0.0835342, 2.0993, 3.59255, 0.664656, -3.05178, -4.57081, -1.05954, -0.323633, -0.278111, -0.12336, -0.0116667, -0.000138289, 9.71404e-05, 0.000377728, -0.000352763, 0.0549714, 0.702691, -0.886968, -1.32672, -1.77107, -1.69271, -1.81097, -3.18597, -1.41884, -1.81958, -1.54892, 1.43113, 0.0944961, 1.06852, 0.0491355, -1.78937, -5.91581, -6.54956, -3.87842, -1.53931, -0.159573, -0.346396, -0.0947107, -0.00292332, -9.75932e-05, -0.000101901, -0.000688406, 1.15665e-05, 0.316992, -0.00304357, -0.095284, -1.15787, -1.84331, -1.35211, -0.247873, -0.334545, 0.31481, 0.550133, -0.254355, 0.119407, -0.892923, -0.278992, -2.32383, -6.78917, -6.37138, -3.68801, -1.75103, -1.68119, -0.307385, -0.413984, -0.0980479, -0.014373, -0.00895934, 0.000213355, -0.000468856, 0.000263161, 0.208556, -0.000292032, -0.229288, -0.859221, -0.601616, -0.820417, 0.360096, 1.29678, -2.63086, -0.558239, -0.558303, 0.390936, -0.623113, 1.86473, -2.43073, -5.54807, -3.57394, -1.37953, -1.66971, -2.1706, -1.01619, -0.725525, -0.123328, -0.0158244, -0.00355271, -0.000861568, -3.2197e-05, -0.000279641, 0.000294229, -0.233093, -0.31779, -0.59366, -0.691615, -0.492637, -0.436816, -1.35822, 0.833411, 1.50096, 2.70033, 0.053317, 1.40588, -0.803992, -5.17063, -4.27603, -2.43927, -0.644379, -0.550324, -0.355075, -0.349341, -0.786339, -0.5166, -0.0930911, -0.053697, 9.99481e-05, 0.000843013, -0.000595874, -0.000646129, -0.321304, -0.321664, -1.83836, -2.83751, -2.53442, -1.2243, -1.72999, 0.325341, 1.84367, -1.50984, -1.63097, -2.5014, -4.73705, -6.08005, -3.13936, -2.17291, -0.721926, -0.643534, -0.294303, -0.286985, -0.239134, -0.323361, -0.0957403, 0.000350322, -0.000511216, -0.000261147, -0.000954649, -0.000903041, -0.380181, -0.952538, -3.1096, -4.60871, -2.81322, -5.64033, -3.65739, -2.89937, -1.29601, -0.941942, -2.73476, -5.07709, -4.02243, -2.58699, -1.46394, -2.02273, -0.991268, -0.859249, -0.348249, -0.254632, -0.087995, -0.0154075, -0.029844, 0.000791986, -0.000457381, 0.000918638, -0.000656789, -0.00949025, -0.524508, -1.02804, -2.04736, -0.670087, -1.76588, -3.16944, -3.185, -1.84157, -1.08301, -4.77013, -5.15571, -3.35247, -2.21766, -0.16264, -1.49691, -2.47316, -1.61685, -1.01871, -0.46053, -0.103907, -0.00414617, 0.0123949, -0.00879414, 0.000742729, 0.000478927, -0.00010361, -0.000527573, 0.000543401, -1.03108, -1.12057, -0.618779, -0.175073, -2.43196, -0.976281, -2.51845, 0.691312, -3.79765, -4.96626, -3.15254, -2.1918, -0.333163, -0.276813, -0.212771, -2.39545, -2.32485, -1.10273, -0.449267, -0.100918, 0.011036, 0.0227553, -0.00418079, 0.00298812, -0.000122227, -0.000741874, -0.0001583, -0.00050986, -0.763076, -0.655756, 0.649598, 0.795663, -3.70836, -0.828153, 1.22646, -3.0832, -0.848304, 0.285809, 0.131287, -2.18208, -0.771507, -0.641565, -0.846736, -2.09783, -1.85436, -0.40504, -0.131243, 0.0167418, 0.04119, 0.00632133, 0.00102008, 5.3621e-05, -0.000685476, -0.000268593, 0.000100803, -0.000219581, -0.00292308, -1.137, -1.03407, -1.40848, 0.217381, 0.484921, 3.17248, 2.01593, -0.127236, 1.20948, -1.02572, -0.409724, -0.0877691, -0.874821, -0.54199, -1.10615, -1.10788, -0.146993, 0.0192535, 0.0353647, 0.0166707, 0.00214104, 0.0021178, 0.00086737, 0.000242775, 0.000506149, 0.000399152, 0.000805597, 0.00388591, -2.4291, -2.35274, -2.74404, -1.15192, -2.3842, 5.05393, 2.57128, 2.16935, 1.08916, 0.778117, -0.465759, -0.0280079, -0.314216, 0.0412746, -0.109884, -1.09986, -0.21316, -0.00475324, -0.0121223, -0.00874817, 0.000941282, -9.10367e-05, -0.000760918, -0.000873043, 0.000804559, -0.000107089, -0.000734733, 0.00052324, -2.77342, -2.30079, -2.01534, -1.43443, -1.99518, -0.917613, -1.35091, -0.635053, -0.386026, -1.0353, -1.40835, -0.0275103, -0.060995, -0.0722767, -0.0522633, -0.00309252, -0.000390823, -0.000150384, 0.000884457, -0.197033, -0.0392517, 0.000545885, -0.000338298, -0.000174413, 0.000701773, 0.000503403, 0.000364971, -0.00178398, -0.0121007, -0.450765, -0.769498, -0.163708, -0.13663, -0.200351, -0.98924, -0.836029, -0.0627882, -0.20518, -0.409, -0.124872, -0.0021351, -0.019799, -0.0178373, 0.000134983, -0.000927915, 0.00138836, 0.000915294, 0.00163906, -0.000272927, 0.00076867, 0.000337382, -0.000776543, -0.000804071, -7.55333e-05, 0.000260292, 0.000946043, -0.000966491, -0.000409772, 0.000917356, 0.000741935, -7.12607e-05, 0.000430647, -0.0836206, -0.00972754, -0.00017832, -0.000414106, -0.000901181, -0.000454451, -0.000729057, -0.000397931, 0.000519761, -0.000184973, 7.05893e-05, 0.000610157, -0.000298196, -0.000959349, -0.000882504, -0.000243873, 0.000121494, 0.000115146, -0.000215125, -0.000277322, -0.000644215, -0.000456221, 0.00046617, -0.000679617, 0.000657582, 0.000953063, 0.000887997, 0.000415754, -0.000747063, -0.000778741, -0.000874923, -6.89163e-05, 0.00101004, 0.000247516, -0.000688223, -0.000205176, 0.000394574, -0.000356182, 0.000616749, 0.000803095, -0.00085577, 0.000140049, 0.00031492, -0.000570421, -0.000108493, -0.000899289, -0.000775628, -0.000637562, 0.000512131, 0.000395734, -0.000652944, 0.000299661, -0.000266213, 0.0161303, 0.599253, 0.472905, 0.259907, 0.0456833, -1.25266, -1.1189, -1.15601, -0.541014, 0.950202, -0.369751, -0.000123897, -0.379584, -0.346601, -0.0317526, -0.000691458, 3.48827e-05, -0.000702017, -0.000239784, -9.65911e-05, 0.000833064, -0.000261635, -0.000979431, 0.000165502, -0.000275246, -0.000478378, 0.000671612, -0.000552727, 0.243109, 1.01476, 2.20398, 2.43747, 1.66638, -0.681114, 0.994071, -2.39397, -7.94177, -5.62962, -6.3362, -7.0242, -10.3727, -3.28588, -2.74619, -4.75042, -1.69363, 0.0451441, 0.211842, -0.000782403, -0.000934629, 0.000334391, -2.32856e-05, 0.00071208, -2.39773e-05, -0.000118155, 0.1246, 1.28012, 3.71327, 4.48572, 7.30936, 7.694, 8.49341, 0.146297, -0.709658, -6.08355, -10.1767, -8.59601, -8.34405, -12.8299, -12.5735, -7.79157, -8.08291, -5.15133, -1.79919, 0.0785987, 0.202826, -0.000761711, -5.34074e-06, 0.0006021, 0.0002313, 0.000919967, 6.67378e-05, -0.968461, 1.45321, 2.42556, 5.28952, 3.19806, 8.48479, 9.07019, 8.83667, 14.3769, 8.78329, 3.94205, -7.45812, -5.00665, 2.02764, -0.217015, -4.2768, -1.99687, -7.48798, -6.45404, -5.26127, -2.64139, 0.00367152, -0.291161, -0.290793, -0.00099762, -1.75481e-05, 0.0013733, -0.234304, -0.793636, 3.01051, 6.16882, 3.33779, -6.4479, -1.20754, -4.12981, -2.83359, 8.86097, 9.32772, -9.08298, -13.533, -2.3784, 7.14673, 2.839, 1.25995, 2.58938, -4.37629, -6.32481, -7.41442, -4.79493, -1.14662, -0.977274, -0.429521, -0.000593066, -0.000647755, -0.09345, -0.751333, -1.0832, 2.98685, 5.8321, 2.58853, -9.74912, -9.02358, -3.32855, -0.542474, -2.4127, -3.50491, 0.872325, -6.80672, -5.20477, -3.11586, 0.19098, -4.52284, -3.93946, -2.21224, -6.42552, -6.29169, -3.69346, -0.659276, 0.0243667, -0.000420209, -0.000113559, 0.000363445, -0.0497929, -1.11209, -2.34918, -3.82858, 1.78723, 0.0977202, 1.36703, 0.905965, 3.44858, 5.59881, -3.67821, 8.74615, 2.83202, -0.110314, -4.43106, -13.2754, -16.3312, -4.1282, -4.04359, 0.361788, -1.33658, -4.62611, -3.07225, -1.07392, 0.0119809, 0.000255531, -0.00024955, -0.000834101, -0.66828, -5.0696, -5.46593, -2.58704, -2.79345, -6.66669, -6.86572, -6.01452, -0.0368768, -0.2703, -2.99774, -0.0643065, 6.09975, 3.21576, 2.55941, -1.83038, -10.2118, -4.06472, -3.70651, -2.3761, -3.70367, -3.27702, -3.65513, -1.86017, -0.000473083, 0.000681021, 0.000835994, -0.000971678, -3.95966, -5.39805, -3.6627, -3.4427, -9.06323, -12.3648, -11.2544, -2.81591, -1.69334, 0.842314, -4.85152, -5.23143, -2.84206, -3.78972, 3.15679, -4.32443, -4.0315, -5.83342, 0.590288, -0.549776, -6.76847, -3.75789, -3.47428, -1.27911, -0.0591045, -5.86261e-05, -0.000953429, 0.00028897, -0.0975139, -0.997189, -3.25855, -4.32397, -12.5939, -18.323, -9.97602, -4.89215, -9.38071, -9.49486, -14.4554, -16.0926, -11.0902, -14.3683, -2.86188, -7.55009, -7.67457, -3.50956, 1.26905, -1.36557, -5.41921, -3.23622, -1.68854, -0.341584, 0.0838067, -0.000333171, 0.000141758, -0.000513474, -0.0153111, -0.555604, -3.36878, -6.19093, -17.8107, -19.5691, -14.0495, -17.2371, -17.639, -17.6509, -18.8291, -21.2633, -14.695, -16.6856, -1.6005, -6.53386, -13.3176, -3.45223, -3.64207, -0.704024, -3.52542, -1.50119, -0.274315, -0.0055781, -0.0223721, -0.000615467, -0.000224403, -0.00057268, -3.33567e-05, -0.520105, -4.71491, -9.32265, -19.8319, -19.8689, -18.2306, -21.0282, -21.0464, -18.399, -19.1475, -20.7722, -10.9155, -15.8769, -3.413, -6.41537, -9.66313, -7.40077, -6.06404, 1.29968, -3.53321, -3.30852, 0.464373, 1.90182, 0.0700553, 0.000119724, -0.000213904, -0.000753166, 0.00156901, -0.345261, -5.3659, -10.5717, -18.9875, -19.4947, -20.4403, -19.1963, -20.5469, -16.0667, -20.1971, -14.8863, -13.2547, -9.11472, -5.95258, -6.17277, -4.21085, -5.19978, -3.62373, 4.18119, -2.06148, 0.991892, 1.15904, 2.86459, 0.144496, 0.000247597, 0.000734123, 0.0203399, 0.0130803, 0.11966, -5.69925, -11.7987, -14.0715, -15.1142, -10.4501, -9.09054, -8.81055, -1.81652, -5.55279, -8.29028, -7.85664, -8.65959, -4.26211, -0.0388527, -5.17654, -8.55274, -8.57499, -6.32148, -8.3962, -3.93977, -1.35445, 0.0319858, 0.271449, -0.000405377, 0.000692618, 0.044945, 0.0230812, -0.0735542, -5.89759, -11.5465, -7.46403, -3.13888, 7.43455, 7.8178, 9.63324, 11.437, 3.712, -3.92219, -5.38727, -6.1032, 4.74108, -2.82196, -2.90377, -1.10942, -9.76476, -7.47151, -4.03457, 1.283, -2.49709, -0.643281, 0.667657, 0.00326372, 0.000285318, 0.0217967, -0.102541, -3.79089, -6.22171, -2.88749, 1.57799, 0.162983, 6.3279, 13.393, 17.043, 11.0585, -0.973613, -1.35841, 2.53356, -1.69695, 3.91405, -2.27714, -9.14621, -4.18979, -13.5778, -8.71128, -3.54034, 4.25747, 0.673227, 1.75523, 0.801032, 0.00467497, -2.37129e-05, 0.00640828, -0.46374, -3.62652, -3.19926, 1.16114, 6.4008, -0.443253, -2.23265, -1.86817, 4.31582, 4.08277, -0.829602, 8.00326, 3.63378, -3.31426, 0.766701, -9.74079, -12.6041, -3.84302, -6.90305, -4.44146, -1.49378, 7.26637, -0.875352, 7.50198, 1.57204, 0.118732, -0.0003914, 0.000474837, -0.92407, -1.32399, -0.284713, 0.356831, 10.7131, 13.192, 4.33275, 3.46526, 1.25256, 0.305693, 4.20112, 5.28704, 3.43061, -3.08815, 5.50621, -7.24859, 1.28408, 4.80351, 4.55989, 2.60374, -1.50428, 1.28909, 7.19657, 8.55538, 1.28386, 0.0410026, 0.00019364, 0.000795465, -0.372718, -2.06653, 1.88661, 3.08184, 2.94288, 0.750149, 3.92671, 7.69489, 0.580421, 2.7543, -4.24359, -6.85612, 3.50194, 5.92217, -5.29015, -7.40325, 1.43358, -0.652326, -6.96461, -3.53302, -5.10698, 2.98632, 8.53862, 5.14886, 1.38767, -0.000521739, -5.00198e-05, 0.000927464, 0.332222, -0.313409, 5.66418, 6.43188, 2.21855, 7.26579, 11.4078, 11.0267, -1.22119, -4.27067, -3.14096, -8.6631, -3.75276, -7.92787, -5.49291, -10.0237, -6.67296, -6.03979, -7.48343, -8.92272, -2.21261, 4.60764, 4.40769, -0.193189, 0.972738, -0.000458907, 0.000592639, 0.00756313, 0.192846, 1.36125, 5.98033, 6.64632, 1.00211, -1.2394, 5.83258, 7.81075, 3.73273, 1.03261, -4.63395, -5.4644, -5.74741, -7.23213, -9.36052, -7.13125, -1.95473, 4.54555, 8.76425, 14.0076, 10.1619, 6.26951, 4.36737, -1.23751, 0.110916, -0.000686087, -0.000128208, -0.000626392, 0.339573, -0.277103, 0.739911, 1.48855, -1.54577, -4.13691, -2.45477, -0.032312, 5.9416, 5.43877, 0.516814, -2.44151, -6.36774, -11.6461, -8.68382, -7.06249, 1.09682, 1.83064, 3.96986, 5.80439, 4.03396, -0.799906, -0.123888, -3.36271, -1.54256, -0.000142979, 0.000362346, -0.000185766, 0.00314925, -2.69027, -3.59251, -1.67794, -3.1209, -3.54107, -3.91041, -3.13562, -3.30309, -2.25977, -2.99588, -2.91027, -2.61262, -5.80428, -7.7728, -8.58215, -2.74268, -5.90846, -5.70448, -1.50885, -1.636, -4.96445, -2.90455, -4.1083, -0.910629, -0.000119907, 0.00050267, -0.000380963, -0.000180639, -2.89172, -3.12535, -4.31386, -4.7396, -6.93059, -10.08, -9.16235, -5.88144, -4.65452, -4.16998, -4.3652, -3.6502, -8.01036, -9.98513, -7.04953, -9.41783, -12.2882, -10.8722, -2.08798, -2.08916, -1.82171, 0.268599, 0.244285, 0.113035, 0.000309793, -0.000116428, 1.44353e-05, 0.000164037, 0.00325461, -0.103226, -1.10303, -1.64469, -1.11364, -2.99593, -4.17324, -1.70534, -1.60689, -1.20273, -2.26747, -1.79854, -0.556933, -0.464682, -3.69159, -6.64412, -7.32699, -2.26658, -0.3611, -0.140936, -0.00285726, 0.00935771, 0.10065, 0.119231, -0.000858638, 0.000787713, -0.000817988, 0.000217078, -0.00501939, -0.0307164, -0.0149937, 0.000787054, 0.0015985, 0.000656403, -0.000169571, -0.0160797, -0.0316782, -0.0308967, -0.0540163, -0.000275869, -0.047649, -0.0306252, -0.00323608, -0.08486, -0.093378, 0.000795709, -0.000216224, -0.000472823, 3.50047e-05, -0.000268777, 0.000803461, -0.00018479, 0.00054033, -2.16376e-05, -0.00076458, 0.000644032, -0.000593493, 0.000427168, -0.000908261, 0.000824641, 0.00053441, -0.000184484, -0.000754143, -0.000440901, -0.000864559, -0.000592562, -0.00184715, -0.000853805, -0.000181921, -0.000256508, 0.000265297, 0.000342631, 0.000923215, -0.000915586, -0.000915952, -3.90942e-05, -0.000889645, -0.000485275, -0.000720634, 6.8453e-05, 0.000193762, -0.000467574, -0.00069689, 0.000634388, 0.000965941, 0.00066924, 8.27052e-06, 0.00024955, -0.000369976, -0.000745537, -0.000798761, 0.000415815, 0.000616077, -0.000327189, -0.000991455, -0.000264931, 0.000770745, 0.000288675, 0.000807733, -0.000714652, -3.06711e-05, 0.000750847, 0.000594836, -0.000450056, -0.000892026, 0.000547105, -0.000398602, 0.000597522, -0.000654408, 0.00080932, 0.000161962, -0.00048851, 0.000596301, -0.000632496, 0.000830866, -0.0473359, -0.138854, -4.86629, -1.46777, -2.92082, -2.56281, -0.973116, -0.5351, -0.230487, -6.15075, -6.81817, 0.000796062, 8.52382e-05, -0.000995544, -0.166322, -2.21738, -4.22352, -2.24699, 0.000941588, -0.000133457, 0.000523545, -0.000756523, 0.000716239, 0.00091113, -0.000174474, -0.000528794, 0.000249672, 0.000447615, -0.0112122, -0.506443, -5.46547, -4.6655, -5.88529, -4.14886, -4.09504, -7.13149, -4.67692, -5.02059, -9.22312, -6.6178, -0.914738, -1.13343, -0.683974, -0.708108, -4.81472, -2.87228, -0.000339824, -0.000766961, -0.000763665, 0.000958068, 0.000957579, 0.000126011, -0.000957274, -0.000348308, -0.000860225, 0.000610462, -0.00833063, -0.690966, -12.6972, -18.9271, -12.871, -8.29955, -11.6726, -21.5493, -13.3692, -6.81108, -12.0791, -12.6701, -9.32006, -7.36425, -6.11259, -4.91754, -1.83953, 2.38099, 1.13124, -0.000232078, -0.000375103, -0.000312601, -0.000259194, 0.0004691, -0.000246132, 0.000188269, 0.0785518, 0.925647, 0.937174, 3.26278, -11.7578, -16.9914, -10.132, -4.48477, -11.4688, -9.99014, -9.76753, -8.42082, -13.5583, -14.7964, -10.2196, -2.62243, 2.08625, 5.3844, 7.54134, 10.1046, 1.59352, 0.171685, 0.0080614, -0.000177526, 0.000909421, 0.000260292, 0.000181616, 0.0782045, 0.381886, 2.61966, 5.18672, 7.36645, -6.10152, -17.1932, -2.00119, -16.2174, -12.7933, -13.792, -26.1473, -24.9961, -8.1668, 2.59482, 4.04317, 7.97156, 1.05142, 2.58365, 4.98956, 14.9971, 5.41662, 2.1152, -0.380951, -0.000607898, 0.000325541, 0.000297403, -6.14948e-05, 0.16197, -0.284947, 1.16068, 7.42134, 1.90573, 3.76382, 8.59402, -17.3362, -18.8485, -16.0205, -5.08849, -26.2509, -44.9278, -29.3733, 0.0682772, 2.24283, 2.15619, 2.88069, -1.9967, 9.60499, 17.2999, 2.07047, -0.0105714, 0.187717, -0.000241796, -0.000496872, -7.37632e-05, -0.000965026, 0.566601, -5.28922, 0.18967, 0.466623, -3.06545, 6.37351, -2.01799, -2.11742, -13.3585, -4.25901, -6.60946, -30.1878, -53.5636, -34.9798, -3.71075, 1.8975, -1.03664, 11.6583, 13.3642, 25.4508, 14.1112, -2.82711, -0.0523716, -0.644749, -0.0348573, 0.000490524, 0.000361003, 0.358456, 0.550204, 1.02534, 7.17841, -5.56562, -3.13298, -10.3659, 14.7462, -9.1888, 4.40636, 13.6417, -8.52569, -31.9135, -52.3355, -11.2698, 17.2131, 0.356948, -16.1701, 6.30895, 8.24199, 17.976, -1.8585, -10.0096, 0.81487, -1.01623, -0.630533, 3.08237e-06, -0.00220024, -0.429912, -1.19391, -0.402695, 1.18894, -10.6045, -2.994, 9.04902, 2.0309, -8.79988, -12.1221, 0.464143, -10.3426, -41.0285, -49.0527, 7.77156, 15.1062, -7.96183, -8.9233, 9.04835, -3.62522, 4.59359, -5.53865, -7.67887, 0.634164, -0.964509, -0.00722583, 0.000806574, 0.000351462, -5.70963, -3.48189, -11.5139, -5.17364, -19.3371, -17.5366, -18.2397, -4.43172, 9.02453, -1.0899, 5.11832, -15.2069, -43.9344, -36.7303, 13.1596, 13.9102, -1.96147, 11.113, -4.70044, -1.93008, -4.08051, -18.8625, -2.62984, -0.03166, -0.232696, -0.000967772, 0.000349223, 0.00294306, -2.97662, -3.75399, -18.2145, -3.69336, -10.5151, -2.36673, 6.24546, 5.40954, 10.631, 6.38714, 11.9294, -26.5429, -41.8302, -19.5276, 11.2847, 15.8501, -9.34715, 4.0983, -10.0048, -1.13818, -6.8587, -10.0018, -12.1204, -0.619517, -0.470121, -0.235212, 0.000645314, 0.0356999, 0.710753, -7.48097, -19.3602, -5.55018, -1.65194, 6.33029, 10.0823, 6.7873, 23.0006, 12.519, -4.97656, -23.8583, -34.2366, -10.3637, 1.6437, 9.98705, -4.10575, -1.98044, -12.8293, -8.40423, -2.18191, -6.1805, -9.36637, -2.63674, -2.02706, -0.878256, -0.0005927, 0.0697993, 0.195123, -3.99997, -13.65, -2.69136, 6.36084, 8.57786, 8.78086, 3.26377, 30.8907, 9.95085, -4.38216, -17.7602, -16.6238, -1.88002, 2.27359, 10.0122, 16.5977, 2.76173, -4.23257, 1.92836, -2.09212, -6.09582, -6.58273, -2.79437, -2.15449, -0.000741569, 0.000429243, 0.0325441, 0.084093, 1.93484, 5.3662, 9.158, 9.64178, 9.13598, 9.37609, 5.9503, 19.1565, 2.93972, 6.47874, -4.22983, 3.33854, -2.01251, 3.32374, 25.1228, 17.0821, 21.5817, 7.9237, 9.68733, 4.64461, -5.39402, -4.59796, -7.38604, -2.48614, 0.000475448, -0.00078106, 0.00095462, 0.106883, 0.837483, 8.06176, 11.9372, 11.3008, -0.810347, 3.44517, 9.2514, 11.9544, -3.06725, 4.93025, 2.19147, 10.564, 7.00665, -1.94696, 14.5741, -5.4643, 5.78009, -4.30298, 6.4415, 2.88047, -8.23192, -15.5649, -14.3822, -0.333834, -0.000779473, -0.000118503, -0.000175207, -0.402558, -7.09222, -13.8447, -4.27224, 2.39136, 8.47049, 12.8771, -6.04745, 0.683528, -1.83869, 0.34451, 10.4944, 5.67921, 11.8916, 15.2464, -0.575112, 5.74407, 10.0576, -11.0698, -4.63397, -12.2468, -15.718, -17.5068, -16.7607, -9.73268, 0.000430586, -0.000748589, 0.000746086, -0.169904, -13.2244, -17.8185, -10.798, -0.110192, 18.1816, 11.1085, -4.60578, -4.72484, -9.70835, -14.9432, 9.43671, 6.40929, 1.41782, 4.00104, -6.05081, 19.3632, 5.59028, -14.822, -4.54158, -12.3894, -10.0763, -3.48174, -0.275089, -0.251274, -0.000476058, 0.000276101, -0.000403119, -1.37021, -13.945, -19.9351, -14.7193, 0.42631, 1.9269, -0.964549, -4.00478, -16.2643, -21.7428, -5.65317, 8.84818, 7.58942, -16.6497, -10.4789, -8.21966, -1.60228, -8.26343, -8.60821, -2.41391, -10.8467, -6.82499, -2.48476, -0.733822, -0.037637, -0.000903867, 0.000648, 0.000784722, -2.68067, -7.48221, -12.9498, -21.9776, -13.8273, -18.7295, -22.7623, -18.6912, -26.7419, -22.6425, -22.1135, -11.8107, -2.36447, -6.60391, -20.2617, -6.56666, -15.4952, -11.1747, -10.5071, -5.9923, -9.06091, -7.07427, -2.16505, -1.70421, 0.000258769, 0.000865047, 0.000687857, -7.10776e-05, -0.0391255, -4.1079, -10.278, -15.6713, -17.6746, -18.0599, -14.8606, -14.1153, -20.7476, -12.5287, -3.73812, 1.44194, -4.59686, 0.0115425, -11.7842, -2.00953, -3.745, -3.25579, -9.60723, -13.2512, -5.31739, -3.52704, -2.12585, -2.33838, -0.000739921, 0.000865902, 0.000477401, -0.000568468, -0.000706534, -4.08421, -4.8365, -8.00185, -12.163, -13.791, -5.29259, -7.85671, -3.37258, 1.63726, -1.36747, 0.797469, 1.86113, 16.7572, -4.6983, -1.47653, -1.6465, 2.70171, 9.90758, -4.41716, 0.723898, 1.14608, -0.932404, -2.21708, 0.00315578, -0.000102878, 0.000242164, -0.000702689, -0.000932554, -4.32441, -3.95457, -2.96756, -6.37411, -7.40341, -3.47615, -12.6417, -7.83394, -6.32178, 5.33031, 1.27807, -8.12846, 2.3514, -2.08622, -14.8475, -9.38378, -1.91244, 10.687, 4.57419, -0.0857735, -0.176501, -3.08286, -0.89604, 0.00498548, -0.000784661, -1.5595e-05, -0.00079577, -0.000190954, -0.211954, -0.189188, -0.465023, 1.41269, 2.4606, -3.63049, -6.26368, -7.24484, -8.44356, 1.92442, -5.52071, -2.91494, 4.67168, 19.9948, -2.95533, 1.88218, -5.08757, -1.52588, 4.94114, -5.41174, -2.67951, -3.57221, 0.0163157, 0.00385538, -0.000519333, 0.000365581, -0.00017655, -0.000265175, -0.00293457, -0.0700145, -0.228371, 1.51894, -0.504804, -9.29072, -7.39599, -8.17261, -13.6308, -11.7617, -3.20183, 6.81427, 0.39624, 10.302, 0.106287, -12.4821, -12.8614, -5.70325, -5.01049, -8.93192, -2.0206, -1.36182, 0.000325257, 3.44859e-06, 0.000952269, 0.000839534, -0.000610034, -0.000650258, 0.000129124, -0.00411647, -2.15483, -2.53881, -4.01572, -11.9415, -20.0012, -18.3221, -8.56686, -7.08008, -14.568, -14.9907, -26.5078, -27.4852, -22.8042, -13.4802, -27.1633, -18.4052, -11.3012, -5.92501, -0.0660322, -0.39802, -0.000648122, 0.00076574, 0.000933164, -0.000965026, -0.000477157, 0.000204993, -0.00223439, -0.0131022, -2.0258, -2.02549, -2.07352, -3.3806, -1.09864, -8.16855, -14.5261, -11.877, -8.60902, -7.57951, -17.5353, -10.8601, -9.07058, -15.5576, -17.0536, -6.83659, -1.40917, -0.282152, 0.171928, 0.00493596, 0.000984863, 0.00081756, 0.000466231, -0.000611133, 0.000295511, 0.000905515, -0.000303934, -0.000849849, -0.000279763, -0.522791, -2.96835, -2.90236, -0.808429, -0.141541, -0.277501, -0.254134, -0.143599, -0.0811481, -0.000596237, -0.000408307, -0.193904, -0.369751, -0.248558, -0.0493757, -0.790768, -0.520129, -0.00098059, -0.00042082, -0.000374798, 6.12506e-05, 0.00027897, -0.000405438, -0.000549791, -4.94705e-05, -0.000404401, 0.000415998, 0.000926084, 0.000441816, 0.000138401, -0.000868526, 0.000246132, 0.000234291, -0.000730583, 0.000829402, -0.000164159, 0.00038908, 0.00087817, -9.13419e-05, -0.000382794, -0.000210303, -0.000981689, 0.000165197, 0.000906796, 0.000353252, -6.8453e-05, -0.000872555, 0.000564318, 0.000491073, 0.000320475, 0.000642445, -0.000608753, 0.000819819, -0.000127476, -0.000288186, 0.000779351, 0.000122593, 3.30515e-05, -0.000422346, -0.000391461, -0.000440535, -0.000971068, -0.000941527, -0.000604114, -0.000871151, -0.000857967, 0.000135166, -0.00030607, 0.000378094, 0.000232521, -0.000213233, -0.000261147, -0.000635426, -0.000487655, 7.67541e-05, 0.000349284, -0.000133335, -0.000431135, 0.000488693, 7.44957e-05, 0.0008446, 0.000637928, 0.00051207, -0.000407086, 0.000151402, -0.000872555, 0.000478744, 0.000360515, 0.00049382, 0.00643063, 0.0234175, 0.00408153, -0.012036, -0.00337509, -0.00491603, -0.00795489, -0.00569341, -0.00329179, 0.000407087, 0.000999878, -0.000210486, -0.000210608, -0.000304605, -0.000428449, -0.000949217, -0.00033256, -0.000159337, 0.000531724, -0.00017893, -0.000158666, -8.54213e-05, -0.000380963, -0.000890744, -0.00418971, -0.0406616, -0.0292558, -0.0172648, -0.0897711, -0.146516, -0.1099, -0.0492278, -0.0173949, -0.0610109, -0.0587578, -0.0603785, -0.086702, -0.0375783, -0.000384114, -0.000777406, -0.000853328, 0.000431623, -0.00070336, 7.24815e-05, -0.000345683, -0.000853694, 0.00078338, -0.000577441, -0.000285988, -8.63441e-05, -0.00270972, -0.0151297, -0.0165861, -1.21201, -5.53803, -6.01866, -5.98655, -6.0885, -6.24017, -6.19172, -5.90698, -6.16423, -6.11789, -0.718014, -0.0620808, -0.249053, -0.497188, -0.382614, -0.134771, -0.00490016, -0.00187311, -0.000646352, 0.000239723, -0.000804376, -0.000872738, -0.000323709, 0.000932739, -0.00538955, -0.0454332, -0.125192, -0.688853, -2.56149, -7.56, -12.0023, -12.201, -9.74884, -9.34451, -7.31765, -7.22397, -10.051, -8.08404, -7.54114, -8.70479, -2.4418, -1.15961, -1.15681, -0.60996, -0.715324, -0.522312, 0.00131276, 0.000469955, -2.78024e-05, -0.000321879, 0.490016, 0.576667, 0.787545, 4.34028, 3.55033, 5.04287, 2.30139, -1.02048, -11.6365, -9.31827, -6.5943, -5.39574, -4.66212, -9.11475, -10.8176, -2.42663, 5.85857, 7.08193, -7.02875, -9.9887, -4.046, -0.669519, -0.059501, -1.13978, -0.121821, -0.00771032, -0.000245246, 0.514884, 3.37676, 6.21014, -5.40248, -10.8132, 8.19892, 13.121, -1.93855, 15.869, 21.9611, 1.54123, -10.6803, -16.0647, -23.546, -18.7121, -16.6946, 6.26031, 7.75149, -9.84301, -10.7224, -1.58216, 2.49081, 2.89556, 1.27687, -2.19405, -0.423892, -0.000534349, -0.0555649, 2.07896, 6.42136, 6.49649, -6.52061, -18.3568, -1.01125, 8.47155, 19.8166, 16.1893, 14.8978, 14.7346, 5.78894, -6.24614, -6.37281, 2.73027, 3.47372, 3.75685, 11.7163, -0.523552, -8.61118, 7.54494, -2.05529, 5.99571, 0.749437, -2.38772, -0.642082, -0.108539, 0.102438, 1.65606, 4.46227, 8.72607, 19.7361, 1.4342, 11.5895, 5.831, -0.129042, 14.3614, -0.15111, 11.3755, 18.5184, 15.8413, 11.3818, 9.4202, 0.835666, 19.1864, 16.3542, -0.919214, 14.6639, 9.65926, 0.666199, -5.94177, -3.67436, -4.14567, -1.06553, -0.00316051, 0.245755, 1.63013, 7.12592, 8.6179, 21.1846, 23.6581, -0.910419, -1.51629, 4.30017, 14.9389, 11.8892, 10.2405, 6.24241, 13.0851, -20.3991, -10.3302, -5.28885, 11.9874, 13.9439, 6.92724, 17.083, 0.825944, -7.96795, -7.83547, -1.16516, -2.48304, -2.52199, -0.00186846, 0.0681412, 1.85122, 7.49215, 13.5217, 14.9136, 10.1803, 5.63945, -7.84774, 3.62569, 19.6176, 9.97826, 9.89624, 0.154586, -10.2253, -18.5783, -22.5819, -1.87585, 13.4775, 13.2205, 19.4308, 10.8373, -9.08882, -8.69019, -7.92822, -0.392378, -1.933, -0.65963, -0.002872, -0.000527069, 1.74734, 3.4745, 10.7362, -0.314134, 5.52342, -2.16981, -4.43827, -9.96165, 6.70045, -4.01015, -13.7492, -31.8298, -54.2109, -23.5532, -9.72971, 7.75391, -4.76241, 9.08453, -0.823527, -4.30405, -0.863193, -6.91674, -11.7372, -4.39509, -0.0584172, -0.000357219, 0.000426801, -0.000532517, 0.382987, 2.65157, 4.68559, -7.56143, 2.94329, 10.8875, 8.98275, 1.89078, 15.6399, 8.69312, -19.5036, -41.3941, -33.2966, -32.7176, -16.024, 2.18008, -10.9818, 0.10281, -13.152, -10.0251, 2.33174, -8.60707, -13.5231, -10.6639, -0.0109087, 0.000459456, 0.000967345, -0.000282083, 0.0487968, 2.52777, 1.12591, -10.9609, 12.3576, 8.84545, -2.98151, -10.6167, 0.128142, -5.03791, -29.8108, -36.616, -38.7776, -29.4022, -2.49286, 0.959707, -10.4127, -5.35427, 7.29756, -18.1915, -5.79986, -8.94752, -9.85027, -4.33575, -0.00536555, 0.000695173, -0.000981628, 0.0239218, -0.000377606, 2.36243, 1.37996, -5.0472, -0.132735, 4.65358, 0.0236992, -4.66222, -11.5101, -24.5131, -34.4481, -37.8826, -28.1439, -12.0146, -2.80572, -4.90019, 15.6204, 1.17168, 4.55529, -7.93504, -8.29257, -7.21391, -7.41577, -2.77039, -0.0262203, -0.00800704, 0.000511765, 0.133361, -0.000861629, 0.901063, -0.535035, -5.95177, -7.3899, -3.46622, -3.798, -4.75459, -12.1405, -24.4708, -27.9014, -29.7699, -25.1339, 6.50387, -0.315633, 1.04845, 6.59746, -0.125969, 1.33343, -19.1963, 1.52051, -5.57285, -4.3717, -2.39075, -1.07665, -0.00412815, -0.000480209, -0.000152684, 0.000442793, 1.1202e-05, -1.6931, -5.23161, -8.31247, -12.2575, -14.0963, -22.3617, -19.9693, -16.3493, -12.6996, -29.6371, -17.3207, 9.3739, 1.07603, -3.08141, -6.58098, 10.3185, -8.57449, -19.4281, 1.54775, -5.8218, -2.85147, -5.15373, 0.30638, 0.0146808, 0.00329827, 0.151681, 0.00049675, 0.0624579, -3.13429, -7.9043, -7.87304, -9.94672, -8.09265, -18.1626, -23.3901, -19.3999, -18.6227, -20.3775, 1.11913, 13.6979, 0.837352, -13.2729, -11.0849, 1.34905, -9.15253, -4.12169, 0.00907676, -5.62907, -11.5808, -5.18632, 0.120429, 0.012587, 0.0127058, -0.000410077, 0.032968, 0.0864885, -2.25466, -5.17551, -7.76808, -8.10135, -9.1942, -12.133, -20.8019, -26.3548, -5.49084, 1.69325, 9.13992, 3.21685, -0.716194, -5.72618, -11.1005, -9.11054, -4.28663, -11.9186, -16.5766, -16.0625, -8.51475, -1.38633, -0.0442159, 0.000219258, 0.00431878, -4.22071e-05, 0.00680631, -0.161328, -1.26574, -5.51292, -7.32603, -8.23246, -7.43059, -7.96963, -20.3507, -13.1267, 0.611094, 4.65716, -7.05065, -4.49335, -12.3152, -7.87465, -10.0965, -21.2597, -16.2071, -19.08, -18.708, -15.1344, -4.71306, -0.366354, 0.0218243, 0.000626942, -0.000733207, 0.00010123, -0.00012949, -0.145034, -0.538678, -3.54538, -6.80793, -10.7725, -17.5256, -19.1001, -10.4474, 5.25, 1.16278, -0.489178, -18.613, -5.75892, -8.11473, 0.254849, -17.1232, -17.5824, -10.5018, -11.7299, -17.7422, -16.7572, -9.62916, 0.108835, 0.00606349, -0.0881361, 0.000350505, 0.000913877, -0.000889035, -0.0895998, -0.244777, -1.17978, -3.35813, -4.94606, -4.52236, -5.61722, 6.32006, 2.5741, 5.29058, -11.2601, -1.7023, -6.311, -11.8348, -12.921, -16.3235, -16.0302, -5.83157, -6.85803, -9.88396, -11.0321, -4.91222, -0.0561664, 0.000413685, -0.00116052, -0.000970397, -0.00079046, -0.000944334, -0.00600675, -0.177121, -1.87536, -2.03726, 3.13084, 7.80297, -4.46383, 2.09646, 0.497177, -3.79066, 0.0596325, -0.605649, -4.72581, -6.28802, -2.44016, -8.5956, -11.5816, -0.940914, -0.67283, -3.95055, -3.38838, -2.59394, 0.0191136, -0.000660633, 0.00073809, 0.000956481, -0.000926023, 0.00069866, 0.000588127, -0.583552, -2.91049, -2.29361, -9.92854, -4.81067, 1.14245, 1.47063, -4.77995, 4.6677, 19.1945, -5.07256, -3.00218, -5.64483, 0.132172, 1.68238, -12.0858, -0.401405, 0.550556, -7.56513, -5.37337, -2.57596, 0.040992, -0.000615955, 0.000467818, 0.00023661, -0.000533921, -0.000407392, 0.000860958, -0.000144223, -4.7079, -18.5233, -10.4927, 4.64548, 14.9508, 11.1115, -10.7754, 6.93133, 11.4301, 12.3232, 19.4868, -0.28339, 15.7935, 6.89689, -0.379136, 1.78279, -3.34445, -6.15842, -2.84667, -1.96321, 0.165982, -0.000272195, -0.00069866, -0.000906674, 6.95517e-05, 0.000388348, 4.14136e-05, -0.00163907, -4.30329, -20.889, -19.992, 3.26067, 7.79226, 10.0064, -3.76902, -21.434, -2.30175, 10.1946, 11.8832, 2.21305, 9.37543, 2.87487, 7.09337, 10.1529, -0.00687584, -2.0749, -0.180321, -0.557426, -0.000916013, 0.00028959, 0.00012302, -0.000218848, -0.000605518, -0.000376446, -0.000965209, 0.000817194, 0.000601164, 0.0135761, 0.0325507, -0.00621572, 0.171141, -0.65745, -0.968302, -1.63709, -0.553605, 3.57465, 4.18893, 2.73317, 4.28702, 5.22134, 4.16574, 3.87367, 0.147334, 0.32732, -0.894782, 0.000377384, 0.000315958, -0.000984375, -7.91955e-05, 0.000750359, 0.000680288, -0.000149693, -0.000688894, 0.000478378, 0.000200476, 0.000391522, 0.000131504, -0.000388348, 0.000569933, 0.000726493, -0.000564867, -0.000431501, -0.000202786, -0.0008353, -0.000562525, -0.000608683, 0.000208594, -0.000223792, -0.000864315, -0.000120273, 0.000190039, 0.000697623, 0.000677847, -0.000480026, -0.000820368, -0.00031492, 0.000977844, -0.000335124, -9.04263e-05, 0.000920286, 0.000583972, 0.000963439, -0.000101474, -0.000935667, -0.00020426, -0.000959838, 0.000193702, 0.000563037, 0.000204604, 6.95188e-05, -0.000350181, 0.000229624, 0.0143451, 0.0440194, 0.0585441, 0.0197277, -0.000199701, -0.00090112, 0.000838473, 0.00021223, -0.000866089, 0.000842097, -0.000558641, -0.000465804, 0.000272927, 0.000413923, -7.22983e-05, -0.000226234, -0.000758049, 0.000567431, 0.000165624, 7.73034e-05, 0.017798, 0.0397279, 0.066813, 0.185955, 0.124228, -0.321402, -0.251591, -0.119089, -0.150853, -0.623417, -0.540205, -0.19631, -0.364012, -0.602509, -0.179453, -0.11614, -0.133739, -0.0932429, -0.0356515, 9.71404e-05, 0.000885128, 0.000962035, -0.000848628, -0.000958251, -0.000689138, -0.00095703, -2.71615e-06, 0.000466508, 0.0673602, -0.0522402, -0.127193, 0.668662, 0.952665, 0.450234, 0.437604, 0.632201, 0.052368, 0.106674, 0.381752, 0.0117871, -1.40546, -1.59191, -1.23773, -0.297572, -0.0831641, -0.158146, -0.133963, -0.0558734, 0.000641041, 0.00029667, -0.00097412, 0.00063976, -0.000565538, -0.000451947, 0.000599242, 0.0831265, 0.188308, 0.385725, 0.744784, 1.2133, 1.21015, 1.0875, 1.13105, 1.32502, 1.42939, 1.24049, 0.964789, 0.379386, -1.65841, -1.52951, -0.6739, -1.20297, -0.710453, -0.457391, -0.356577, -0.0562543, 0.00043907, 0.000638844, 0.000220557, -9.95819e-05, -0.000534336, 0.000154088, 0.00386077, 0.315566, 0.713525, 0.813447, 0.409086, 0.448307, 0.423509, 0.154276, 0.888384, 1.09449, 0.645489, 0.461369, -0.53394, -0.17528, -1.03993, -0.947111, -0.686014, -1.3189, -0.837977, -0.763375, -0.340699, -0.0530535, -0.000500051, -0.000548997, 7.36412e-05, 0.000956664, -0.0272706, -0.0333588, -0.016235, 0.301747, 0.790327, 0.298145, -0.799974, -0.627882, 0.0461914, -0.565431, -0.318864, -0.780104, -0.421565, -0.871065, -0.900503, -1.58945, -1.7832, -0.415359, -0.605603, -0.685227, -0.605164, -0.573055, -0.213915, -0.0242024, 0.000784417, 0.000694937, -0.000712027, -0.000626148, -0.0141607, -0.0594874, -0.0444872, 0.178963, -0.406581, -1.31583, -1.32663, -0.555684, -0.407421, 0.269975, 0.204041, -0.347037, -0.429667, -1.69331, -1.27971, -2.0667, -2.78603, -0.512137, -0.0986115, -0.593868, -0.34774, -0.180956, -0.196562, -0.0762717, 0.000368755, -0.000660634, -0.000123508, 3.35398e-05, -0.016356, -0.0996618, 0.194614, 0.455788, -0.332387, -1.49128, -1.33612, -0.905726, -0.123009, 1.09756, 0.79984, 0.310586, 0.279423, -1.09501, -0.673877, -0.908318, -1.88872, 0.159568, 0.357423, -0.683737, -0.83491, -0.539102, -0.186371, -0.108286, 0.000460128, -0.000881893, 0.000356792, -0.00116757, -0.095697, -0.0946598, 0.371667, 0.528017, -0.292059, -1.38847, -1.9535, -1.33156, -0.889178, -0.486611, 0.068935, 0.0214674, -0.29092, -0.603329, -0.630533, -1.00227, -1.47166, -0.661548, 0.432502, -0.380267, -1.7281, -0.766149, -0.139369, -0.124046, 0.000369121, -0.000462447, 0.000197302, 7.84064e-05, -0.000476242, 0.0289647, 0.308316, 0.314434, -0.519224, -1.57175, -2.28444, -2.15219, -2.06659, -1.77432, -1.65777, -1.56338, -1.02465, -1.14616, -0.917714, -1.24562, -1.87477, -1.13121, -0.612319, -1.0407, -1.78769, -0.738639, -0.0702407, 0.0311158, -0.000350078, 0.000134617, -0.000488083, 0.00055388, 0.000772515, -0.0024337, -0.0558291, -0.689701, -1.06404, -1.71649, -2.10652, -2.61835, -2.39089, -2.975, -2.52234, -2.62984, -1.64668, -2.16017, -1.61417, -1.20126, -1.00403, -0.786822, -1.26155, -2.03226, -1.68405, -1.36257, -0.410651, 0.0836709, 0.000670278, -1.54118e-05, 5.82904e-06, -0.000792108, 0.000427534, -0.00322366, -0.147606, -0.978703, -1.59808, -2.26745, -2.45632, -2.66605, -2.9991, -3.51428, -3.15555, -2.96036, -2.14704, -2.34009, -1.68102, -1.32369, -0.235668, -0.945776, -1.41287, -1.45033, -1.35479, -1.50953, -0.575542, 0.0900948, 0.00043199, 0.000458846, -0.000829585, -0.000355693, 0.000487892, -0.00401327, -0.21379, -1.008, -1.91809, -2.46298, -2.99177, -3.17026, -2.86202, -1.38358, -1.48451, -1.75601, -2.80632, -3.06939, -3.20693, -1.20183, -0.257389, -0.936208, -1.08854, -0.795608, -1.1868, -1.57305, -0.72139, 0.00225453, -0.000358684, -0.000767327, -0.000271096, 0.000177587, -0.000977691, 0.00527499, -0.143778, -0.948652, -1.88539, -2.30444, -2.37566, -2.34944, -1.62804, -0.502226, -1.69775, -1.96137, -2.10539, -2.53804, -2.7508, -1.60526, -1.0893, -1.49809, -1.09734, -1.10548, -1.22491, -1.52642, -0.959055, 0.0145674, -0.000236393, -0.000456648, 0.0003314, 0.000617359, 0.00049239, 0.188498, 0.048221, -0.642082, -1.31927, -1.87322, -0.909508, -0.273781, 0.00460186, 0.5738, -0.617018, 0.561795, -0.371627, -2.6021, -1.56497, -1.68592, -1.51077, -1.98349, -1.9605, -1.36411, -0.886331, -1.46763, -0.896101, -0.107346, -0.00629997, 0.000697562, -0.000499619, 0.000151646, 0.00082751, 0.296946, -0.0150505, -0.576945, -1.41969, -1.65066, -0.991192, -0.360811, 1.78517, 1.85921, 1.36979, 0.94581, -1.40078, -1.51337, -0.281574, -1.55903, -1.96164, -2.72605, -2.75855, -1.41917, -1.05583, -1.18416, -0.88375, -0.060908, -0.00377943, -0.000170751, 0.000825983, 0.000479354, 0.0109465, 0.231057, -0.257365, -0.948902, -1.15442, -1.10121, -0.425894, 0.212585, 1.4922, 0.678591, 0.931447, 0.485652, -0.564319, -0.699394, 0.50001, -0.403685, -0.297642, -1.36658, -0.879609, -0.71132, -0.821092, -0.594909, -0.84452, 0.0693209, 0.000184069, 0.000907956, -0.000588916, 0.000193213, 0.0436613, -0.204289, -0.125835, -0.848117, -0.763066, 0.403043, 0.500009, 0.352972, 0.323039, 0.104091, 0.672254, 0.440404, -0.784233, -1.66361, -0.697761, 0.3424, 0.522735, 1.10031, 1.0493, 0.248067, -0.0542631, 0.584895, 0.415524, 0.0814605, 0.0513181, 0.0157249, -0.000432783, 0.000412519, 0.0215016, -0.461703, -0.173204, -0.259238, 0.224288, 0.0228165, -0.784418, -0.778594, -0.0757717, 0.656754, 1.37801, 0.103439, 0.220121, -0.392476, 0.0859042, 0.385612, 0.577952, 1.07636, 1.01565, 0.499872, 1.60792, 1.65713, 1.02524, 0.212485, 0.0922333, 0.00606853, -0.000240944, -0.000333964, -0.0212162, -0.374578, 0.0400001, 0.446928, 0.638753, -0.795031, -1.28301, -0.818625, -1.61684, -0.727399, -0.129353, -0.287502, -0.804631, -0.544813, 0.233988, 0.0935994, 0.585067, 0.524292, 0.666334, 0.603313, 1.28214, 1.79083, 1.04143, 0.424502, 0.0646304, 0.000210486, 0.00080047, 2.48115e-05, -0.0518289, -0.234818, -0.152106, 0.50353, 1.00993, -0.384208, -1.71945, -1.21343, -0.245102, -0.244287, -0.736707, -1.83116, -1.24171, -1.04851, -1.06819, -1.22604, -0.0977241, 0.583763, 1.02599, 0.735401, 1.51527, 1.1208, 0.613164, 0.190763, 0.00490154, 0.000747368, -0.000700858, 0.000484787, -0.0275122, -0.0283579, 0.305602, 0.270977, 0.354516, 0.38113, -0.656065, -1.14357, -1.4657, -2.01345, -2.83215, -1.80329, -1.14294, -1.43231, -1.35905, -0.846216, 0.748512, 0.527494, 0.0879617, 0.275116, 0.744558, 0.793187, 0.399093, 0.12033, -0.000847534, 0.000379192, 0.000352763, -0.000400067, 0.000463005, 0.176572, 0.255969, 0.348386, -0.684639, -0.613735, -0.554687, -1.74449, -2.19635, -1.91759, -1.88726, -1.78039, -1.39829, -1.38008, -1.80305, -1.80211, -0.559339, -0.935329, -1.0607, -0.304836, 0.0328361, 0.0962212, 0.128633, -0.000337919, 0.000334819, -0.000749504, -0.000506638, -0.000635182, 0.000618458, -0.0303461, -0.131634, -0.579089, -0.875069, -1.26978, -1.21045, -1.14101, -1.07024, -1.17033, -1.31881, -0.956657, -0.61615, -1.18895, -1.30411, -0.976584, -0.848984, -1.23288, -0.742517, 0.0885656, 0.250199, 0.115585, 0.0446846, 0.000262856, 0.000651418, 0.000395978, -0.000116611, 0.000347514, -1.94403e-05, -0.0189285, -0.0973685, -0.133611, -0.132778, -0.0701301, -0.0541133, -0.0188935, -0.0720288, -0.189431, -0.409885, -0.411313, -0.42054, -0.535094, -0.653465, -0.672364, -0.934805, -0.867898, -0.169244, 0.0410107, 0.00888776, 0.000679678, -0.000962828, -0.00041789, -0.000327555, 0.000747612, 0.000760674, 7.23594e-05, 0.000833613, -0.00292976, -0.0130524, -0.00777463, -0.000859724, -0.0077567, -0.00729888, 0.000449381, -0.00842739, -0.0774246, -0.142538, -0.0431031, -0.0495965, -0.218258, -0.16665, -0.0173278, 0.000267786, 0.000164953, 0.000298379, -0.000173315, -4.88601e-05, -0.000332804, 0.000675588, -0.000289407, 0.000409223, -0.000606861, -0.000866329, 0.000652821, -0.000548875, -0.000524339, -0.00028959, -0.000662526, -0.000377789, 0.000976501, -0.000700064, -6.36311e-05, -0.0003361, 0.000315958, -0.000854366, 0.000163488, 0.000631703, 0.000952879, -0.000418256, 0.000579699, -0.000738334, 0.000313944, 2.57881e-05, -0.000852535, 0.000588366, -2.63985e-05, 0.00022074, -0.000964232, -0.000188635, -0.000916257, -0.000952513, 0.000605762, 7.84326e-06, 0.000134556, 0.00049443, 0.000849605, -0.000249733, -0.00065215, 4.91653e-05, -1.69988e-05, -0.000868099, 0.00057622, -0.000134434, 0.000319864, -0.000688162, 0.000559313, 0.000394696, 0.000141148, 0.000351482, 1.5717e-05, -0.000841975, 0.000780694, 0.000113315, -0.000146397, -0.000228675, -3.8789e-05, -0.000590747, -0.000368084, -0.000782647, -0.000619495, -0.000600757, 0.000271096, -0.000629872, 0.000546983, -0.00076043, -0.000986023, 0.000767754, -0.135203, -0.255958, -0.368693, -0.378413, -0.18793, -0.0300594, 0.000911069, 0.0294852, 0.0124253, 0.000986389, 0.000312113, 1.82806e-05, 4.34278e-05, -0.000588122, -1.74871e-05, -0.000866512, -3.43333e-05, 0.000609119, -5.81378e-05, -0.000280679, -0.000975219, 0.000329447, -0.000452132, -0.000457991, -0.000188818, 0.000859798, 0.000207251, -0.206897, -0.409413, -0.202567, -0.0422698, -0.442972, -1.13601, -2.0139, -1.6763, -0.41047, 0.101126, -0.0892167, -0.244742, -0.288331, 0.0107645, 0.0023455, 4.39161e-05, 0.000822932, -0.000998413, -0.000119358, 5.48418e-05, -0.000314066, 0.000465865, 0.305302, 0.0724795, -0.000843989, 5.34989e-05, 0.000856258, 0.0911455, -0.117777, -0.308438, -0.00162289, 0.19582, -0.41064, -7.57938, -7.95558, -4.23238, -3.65852, -3.33845, -2.0427, 0.287063, -1.83675, -2.92585, -0.108664, -0.0775441, -0.0913862, -0.0196705, 1.3123e-06, 0.000704031, 0.000414106, 2.74361e-05, 1.04603, 0.254326, 0.000565075, 0.000417951, -0.0494327, -0.140938, -0.329612, -0.588302, -1.21791, -3.88177, -4.87862, -8.05544, -3.53241, -0.311094, 4.66221, 1.64308, 0.232612, 1.91508, 1.00513, -1.90904, -1.52606, -1.88127, -2.42777, -0.361262, -0.000216041, 0.000171606, 0.000778985, -0.0009682, 0.145582, 0.0365306, -0.000602771, -0.0360766, -0.136988, -0.199035, -3.34018, -1.10667, -2.81062, -5.8704, -8.25047, -4.32311, 4.57548, 6.39824, -0.666492, 1.0064, -1.09556, 0.694471, -1.64876, -4.74403, -3.38441, -2.95377, -1.09275, -0.00246085, 0.000966155, 0.000265603, 0.00089819, -0.000348979, -3.14467e-05, -0.000718737, -0.001488, -0.103397, -0.212425, -0.563872, -5.14152, -2.50875, -5.32508, -6.45047, -11.0833, -8.04801, 5.9551, -0.360755, 2.97202, 1.14388, -2.53322, -1.72193, -2.35253, -3.35042, -2.46688, -1.78723, -0.927038, 0.0247226, 0.000747978, 0.000546129, 4.58693e-05, -0.0309592, -0.000457747, -0.00071405, -0.00390376, -0.0861909, -0.411121, -0.743702, -3.44744, -2.79613, -5.41929, -10.2854, -11.0549, -3.46283, 4.22835, -0.62813, 3.73558, 3.3191, -3.70168, 4.32164, -2.57055, -2.26222, -0.974819, -1.43691, -1.0622, -0.0142506, -0.00398923, 0.000801874, 0.000816889, -0.0249883, -0.000804682, -0.00513583, -0.0107341, -0.56737, -0.735388, -0.613197, -1.57005, -1.73234, -2.60688, -8.20447, -10.666, -5.82941, 5.3584, 5.65261, 0.414868, 0.945217, -2.73296, -2.24506, -1.69632, -1.5922, -1.84554, -1.97452, -1.15646, -0.377182, -0.00181863, -0.000222816, -0.000459639, -0.00187356, 0.000505842, 0.000448904, -0.00463357, -0.362853, -0.472695, -0.292314, -0.550232, -0.520113, -1.17407, -3.33276, -4.18699, -2.02933, 1.44936, 6.90219, 10.6901, -1.26272, -1.84639, -0.229015, -2.1743, -1.91472, -2.1103, -1.59635, -0.884299, -0.559234, 0.000980367, 0.000148045, 0.000944456, 1.7319e-05, 0.000369465, -0.000213983, 0.109525, -0.00620277, -0.44284, -0.564787, -1.06636, -1.71602, 2.32076, -3.01967, -5.10836, -2.67951, 2.43622, 6.17006, 8.41652, 2.38317, 3.76367, -4.14875, -3.23141, -1.98648, -1.34556, -1.10153, -0.734227, -0.0583449, 0.217426, 0.0726276, -0.000930235, 0.000289835, 0.00869124, 0.106549, 0.781145, 0.0203784, -0.399663, -0.571673, -1.45318, -3.92604, -1.10224, -4.74745, -2.91031, -1.2059, -0.727265, 3.21102, 6.73178, -1.24061, 4.41813, -3.64884, -1.74114, -0.240306, -0.352296, -0.144509, -0.0476582, -0.0123528, 0.261387, 0.0163102, 0.000434004, 8.67031e-05, 0.0175818, 0.27794, 0.152032, -0.394042, -0.378586, -0.330474, -2.66006, -3.64391, -3.22793, -6.64665, 2.41728, -0.542569, 3.13297, -2.39972, 7.81112, -2.4768, -2.73193, -3.11781, -0.810235, 0.562631, 0.118902, -0.0929116, -0.0815903, -0.0508127, -0.000962767, 0.000880734, -0.00055455, 0.000542405, 0.00548682, 0.14326, 0.0411117, -0.395876, -0.303672, -0.0306224, -1.01845, -5.61057, -6.39232, -1.00279, 0.283838, 0.569786, 4.38087, -1.22968, 1.77103, 1.00362, -5.97924, -2.9615, -0.247982, 0.984705, 0.0943162, -0.164843, -0.172522, -0.0696286, 0.000782647, 0.000411847, 6.75985e-05, -0.000728568, -0.00134273, -0.00339957, 0.306984, -0.382611, -0.203014, -0.422685, -1.11457, -7.26343, -5.29731, 0.710417, -0.616738, -2.25791, -0.955754, 1.09017, -2.5583, -2.86582, -6.01184, -0.0299045, 0.783181, 1.51607, 0.0205931, -0.0771759, -0.0842277, 0.202671, 0.185204, -0.000623218, -0.000267251, 0.000664907, 0.000587451, -0.00400911, -0.0159649, -0.399881, -0.710874, -1.01643, -0.640758, -5.64635, -7.19568, 0.382403, 0.0103494, -2.31259, -2.63319, -1.64576, -2.44089, -0.981656, -5.67876, -5.35456, -1.77115, 0.747643, -0.306691, -0.100001, -0.15682, 0.0592985, 0.0658575, 0.000550829, -0.000493759, 0.000229102, -0.000465865, 0.000811534, -0.0457382, -0.601557, -0.922356, -0.780666, 0.206393, -1.57963, -5.19823, 3.0034, 0.189802, 1.62493, -3.58499, -1.01515, 1.62674, -0.994655, -2.42161, -2.78289, -1.55392, 0.164467, -0.51138, -0.224363, -0.125757, -0.039629, 0.66116, 0.000476852, 0.000500717, -0.00081225, 0.00046324, -0.0552745, -0.258039, -0.718574, -1.158, -0.655739, 1.28578, -1.26989, -2.07864, 2.72405, 1.65418, 1.99171, -3.26012, 0.220835, -4.00813, -4.28544, -1.89688, -0.369008, -0.657573, -0.109617, -0.457334, -0.349839, -0.221149, 0.25369, 0.963142, 0.00108632, 0.000539781, -0.000666982, 7.90735e-05, -0.054252, -0.458311, -0.824809, -2.22521, -1.11609, 1.2115, -0.68939, -0.296951, -2.34222, 0.340857, 1.92549, -1.93275, -1.03656, -8.86324, -3.98351, -2.49948, -0.455639, -1.16697, -0.441338, -0.596856, -0.384842, -0.301486, 0.233276, 1.02797, -2.36196e-05, -0.000927671, 0.00012711, 0.0367944, 0.0243579, -0.313171, -0.863694, -1.99831, -1.71001, -0.263561, -0.145043, -1.24663, 1.59605, 2.29923, 6.8441, -1.54175, -3.50616, -7.35401, -2.82101, -0.521459, -1.71682, -2.04854, -0.922123, -0.852629, -0.694189, -0.648345, 0.142076, 1.02655, 0.000978541, 0.000336894, 5.41704e-05, 0.0090671, 0.0030617, -0.109458, -1.37005, -2.69838, -2.72972, -0.463294, -3.52535, -0.147994, 1.99488, 5.14194, 0.5627, -1.68546, -5.7242, -5.0768, -1.04229, -1.08196, -0.321154, -0.0881802, -0.996986, -1.05057, -0.650939, -0.43729, 0.177279, 0.892355, 0.000122776, 0.000775292, 0.000221616, 0.000286966, -0.0129737, -0.0928996, -1.89883, -2.86202, -2.37353, -3.10252, -2.77807, 3.1627, -2.22392, 0.867404, -5.02436, 0.20622, -3.49508, -6.35162, -2.42679, -1.64353, -0.141818, 0.787303, 0.152494, 0.0301479, -0.128913, -0.0233724, -0.001556, 0.104062, 0.000187231, 0.000695686, 0.000211362, -0.000605396, -0.000559679, -0.187753, -1.64074, -3.69437, -4.2284, -0.974202, 0.200699, -1.88922, -5.63801, -4.44634, 1.20259, 4.86683, -6.55477, -3.48855, -1.82797, 1.36934, 2.61864, 1.06735, 0.465574, 0.531272, 0.602188, -0.000826653, 0.00248237, 0.0607376, -0.000426496, 0.000188818, 0.000182043, 0.000953246, 0.000354106, -0.275174, -1.98025, -2.69701, -4.41538, 1.40551, 1.03201, -1.26984, 7.0985, 4.74299, 2.38475, -2.07404, -4.73635, -1.91994, -2.41953, -0.295036, 0.0891729, -0.256889, -0.507535, -0.293224, -0.0478259, 0.538822, 0.736571, 0.381603, 0.000543199, -0.000708487, -0.000779534, -0.000862545, 0.000421979, -0.270687, -2.16294, -2.07118, -5.33449, -5.07817, -2.90129, -8.2412, -2.89551, -1.99932, -3.97212, -0.185429, -2.40899, -0.459437, -0.0886036, -0.138204, -0.0964496, -0.141376, -0.362224, -0.063451, 0.000908567, 7.27256e-05, 5.43535e-05, -0.000985961, -6.19831e-05, 0.000399152, -5.72222e-05, 8.70693e-05, 0.000403485, -0.00507589, -0.067221, -0.0879671, -0.473863, -0.797894, 0.17262, -5.49378, -5.5654, -4.46648, -1.25407, -1.24728, -3.3017, -0.341394, -0.0100718, -0.085212, -0.0929092, 0.000295876, 0.00095642, 0.000679189, 0.000949644, -0.000164098, 0.000208777, 0.000737297, 0.000156774, 0.00093115, -0.000653981, -0.000554064, -0.0019622, -0.0140351, -0.00732426, -0.00226668, -0.0102557, -0.00845107, 0.000119008, -0.0964606, -0.287432, -5.3808, -2.27843, -0.455234, -1.0157, -0.344247, -0.0212223, -0.207309, -0.0908087, 0.00017423, -0.000183203, 0.000460311, -0.000367901, 0.000827204, -0.000204016, 0.00052385, 0.000381634, 0.000244545, -8.9816e-05, 0.000151219, 0.000461226, 0.000243019, -0.00090112, -0.000738273, 0.000302774, -0.000680776, -0.000910886, 0.000435286, -0.000487716, 0.000173254, 0.000231178, 0.000560533, -0.000169225, -0.000518113, -0.0520704, -0.167364, -0.00140582, -7.77306e-05, -0.000746513, 0.000405194, 0.000949278, 0.000445173, 0.000974303, -0.000217994, 5.47197e-05, -0.000248268, 3.42112e-05, 0.000464034, -0.00060802, -0.000494552, -0.000620106, -0.000631458, -0.000782891, 0.000219275, 0.000494675, -0.00066216, 0.00079046, 0.000892331, 0.000710196, -0.000518906, 0.000291116, -0.000117405, -0.000292886, 0.000449873, 0.00021189, 0.000586352, 0.000257424, -0.000257546, 0.000726676, 0.000367779, 0.000216041, 0.00025895, 0.000307169, 0.000738884, -0.000236549, 0.000105686, -0.000409406, 0.000788934, -0.000102268, -0.000350139, 0.000496628, -0.000135655, 0.000178033, -0.000146335, 0.00061629, -0.000502879, -0.000297477, -0.000320299, 0.000720145, 0.000590808, -0.000596667, -0.000796136, -0.000156102, -0.000162816, -0.000554674, -0.00065508, -0.000812922, -0.000590747, 5.56963e-05, -0.000651112, -0.000410504, -0.000115818, -0.000525864, -0.000702628, 0.000126438, 0.000424299, -0.000796442, -8.41395e-05, -0.00131054, -0.00357854, -0.0732515, -0.251453, -0.261881, -0.464697, -0.200139, -0.188734, -0.132538, -0.04034, 0.0110299, 0.036465, -0.00301328, -0.00883677, 0.0216726, 0.00232208, -0.000774773, 0.000889279, 0.000531358, -0.000594348, -0.000888607, 0.000641713, -7.60826e-05, -0.000277993, -0.000399762, 0.000575243, 0.000352641, -9.32951e-05, -0.0650105, -0.208388, -0.428191, -0.503424, -0.49662, -0.698404, -0.659959, -0.629917, -0.680607, -0.415095, -0.30907, -0.309618, -0.189468, -0.0866537, 0.0238926, 0.0221117, 0.000178937, 0.000848798, 0.000991089, -0.000676565, -0.000412519, 0.000222388, -6.99179e-05, -0.000872005, -0.000237709, -0.000893618, 0.00678035, -0.0063979, -0.0661244, -0.370684, -0.76039, -0.728817, -0.803198, -0.479971, -0.704746, -1.25369, -1.19122, -0.913189, -0.41388, -0.0407374, 0.123484, -0.187983, -0.0504314, 0.269405, 0.126813, -0.0404928, -0.00204915, 0.000142128, -0.000665029, -0.000647877, -0.000434797, 0.000462447, -0.000867177, 0.00343639, 0.0961578, -0.0370725, -0.131903, -0.473354, -0.962963, -0.801476, -0.785929, -0.325778, -0.941057, -1.40761, -0.727347, -0.387475, -0.275213, 0.0424591, 0.20813, 0.175308, 0.44055, 0.777495, 0.879156, 0.327412, 0.0929631, 0.000741666, 0.000344279, -0.00072045, 0.000602222, 0.000253517, -0.000474659, 0.0418061, 0.259135, -0.0326959, -0.262765, -0.448166, -0.64029, -0.89308, -1.40942, -1.37888, -2.04079, -2.40701, -1.40151, -1.00997, -0.388724, -0.250332, -0.0153176, 0.824392, 0.785162, 0.892532, 1.15517, 0.538845, 0.0690655, 0.000448291, -0.000400983, 3.3784e-05, 0.000209815, 0.000243507, -0.00387062, 0.282093, 0.492149, 0.0724615, -0.898274, -0.946183, -0.499839, -1.17432, -2.19224, -2.18724, -2.20695, -2.26528, -2.62695, -2.25154, -1.33037, -0.879096, -0.482016, 0.337728, 0.328902, 0.769291, 1.10525, 0.339577, 0.0209382, -0.000737426, -0.00386328, -6.77816e-05, 0.0482057, 0.0323887, -0.0204051, 0.384654, 0.411156, -0.0958233, -0.925983, -0.527008, -0.34415, -1.0731, -1.87842, -1.76959, -2.03302, -2.30646, -2.78127, -1.491, -1.53635, -1.18046, -0.559149, 0.156156, 0.232677, 0.511395, 0.421992, -0.219454, -0.189453, -0.0755998, -0.0620604, 0.000338542, 0.065666, 0.0675608, 0.0400824, 0.393929, 0.419645, -0.58542, -0.82296, -0.516801, -0.358874, -0.998877, -0.844078, -1.07126, -1.44022, -3.05259, -2.39367, -0.126106, -0.0884063, -0.934648, -1.09432, -0.17232, -0.552912, -0.123848, -0.627666, -0.447983, -0.318282, -0.0467398, -0.000400099, -0.000329814, 0.0669463, 0.0674855, 0.0792204, 0.621864, 0.108617, -0.659114, -0.0578428, -0.868425, -0.345344, -0.463716, -0.92976, -0.426564, -1.4815, -2.14897, -1.17652, 0.547435, -0.221932, -1.15639, -1.27836, -1.28866, -1.09329, -1.00698, -1.17532, -0.540883, -0.181478, -0.00138721, 0.000455672, 0.000656606, 0.0368729, 0.0306075, 0.0807296, 0.622625, 0.101701, -0.359816, -0.360696, -0.699979, -0.192841, -0.174383, -0.491015, 0.0880911, -1.02244, -1.32811, -0.761553, 0.969748, -0.983269, -1.13591, -1.34417, -0.510916, -0.373776, -0.966207, -0.781923, -0.253603, 0.0509581, 0.000284463, 0.000385846, 0.000846614, -0.080561, -0.0428905, 0.16794, 0.35824, 0.0495166, -0.36154, -0.520558, -0.444023, 0.281013, 0.707118, 0.695735, -0.338868, -0.883836, -1.2931, -0.0154521, 0.699648, -0.431853, -1.05834, -1.25457, -0.013238, -0.396939, -0.390529, -0.391383, -0.196633, 0.0347137, -0.139698, 0.000763298, 0.000366436, -0.0389082, -0.0589644, 0.146495, -0.0870864, -0.0889448, -0.0861927, -0.243979, -0.0631171, 0.954645, 1.96386, 1.21215, -0.28421, -0.273679, -0.557121, 0.00410339, 0.149857, -0.0351044, -0.866525, -0.184329, 0.669072, 0.584522, -0.0242757, -0.356841, -0.42207, -0.140635, -0.0565509, -0.000505722, 0.000927732, 0.000953734, 0.00165479, 0.0948901, 0.165926, 0.610452, 0.311416, 0.0440804, 0.0283362, 0.374972, 1.72412, 1.06596, 0.258034, -0.22732, -0.799595, -0.958718, 0.0406856, 0.428669, 0.649995, 0.945256, 1.06107, 1.18271, 0.0671767, -0.505177, -0.46135, -0.0594259, -0.018008, -0.0009588, 8.4872e-05, 0.000142979, 0.00453232, 0.0624759, -0.0417375, 0.223464, 0.706546, -0.251426, -0.307105, -0.20815, 0.648096, -0.0665715, 0.169665, -0.467719, -0.996264, -0.43618, 0.160119, 0.354666, -0.440205, 0.117508, 0.833256, 0.222742, -0.367005, -0.540403, -0.642408, -0.168964, -0.0500349, 0.000992615, 0.000743217, -0.000293374, 0.0237556, -0.0464264, -0.282987, -0.426479, 0.192139, 0.169913, 0.0424229, 0.342733, 0.323407, -0.52218, 0.0261342, 0.155759, 0.329483, 1.0671, 1.21114, -0.451399, -1.50204, -0.666846, -0.473861, -1.01181, -0.910917, -0.787636, -0.674198, -0.435601, -0.182822, -0.000116611, -8.31629e-05, -0.000986877, 0.0390465, -0.240116, -0.307976, -0.709782, -0.210962, 0.456973, 0.597058, 0.0830591, -0.315851, -0.83087, -0.312412, 0.569364, 0.207597, 0.188635, 0.610595, -0.734733, -1.68898, -1.49004, -0.735458, -1.16104, -1.09223, -0.67379, -0.28415, -0.0978407, -0.0963678, 0.000265542, 0.000736137, -2.49947e-05, 0.0109124, -0.176569, -0.336657, -0.797609, -0.735773, -0.523722, -0.247106, -0.506976, -0.903868, -0.855489, -0.705234, -0.816561, -0.961349, -0.592024, 0.429291, -0.666673, -0.875991, -1.17213, -0.640394, -0.828485, -0.914303, -0.494126, -0.0864074, 0.0108476, -0.0140835, 0.0103232, -0.00029429, -0.000255654, -0.000738607, -0.0936673, -0.242186, -0.421764, -0.530573, -0.7542, -0.739056, -1.2441, -1.26263, -1.25428, -1.20006, -1.35247, -1.12726, -0.702148, 0.060549, -0.793384, -0.521528, -0.927044, -0.755776, -0.425318, -0.538023, -0.427421, -0.121285, 0.00270656, -0.000487167, 0.00580835, -0.000787469, 0.000658193, -0.000467287, -0.0790243, -0.180323, -0.37892, -0.536449, -0.79628, -1.1683, -1.30272, -1.14505, -0.959013, -1.2038, -1.00161, -1.71082, -0.404837, -0.698941, -1.26759, -0.490111, -0.963277, -0.80501, -0.292579, -0.385967, -0.382215, -0.153492, 0.0196385, -0.000991577, -0.000391827, -0.000716849, -0.000566515, -0.000745537, -0.0873266, -0.103704, -0.134791, -0.594611, -0.975367, -0.665383, -0.585525, -0.416094, -0.616745, -0.666269, -0.711169, -1.34493, -0.27232, -0.579889, -1.31856, -0.406188, -0.564699, -0.292525, 0.251567, -0.10673, -0.401256, -0.338732, 0.0130273, 0.0023017, -0.000727531, 0.000592029, -0.000387249, 0.000316996, -0.10052, -0.0948065, -0.121961, -0.329585, -0.777412, -0.813192, -0.802446, -0.694805, -0.80914, -0.979755, -1.06638, -0.850124, -0.0527645, -0.23841, -0.375729, 0.275077, 0.466212, 0.125639, 0.111513, -0.0409877, -0.228821, -0.205091, -0.0788657, -0.000686514, 0.000401166, 0.000718986, -0.000740837, -4.92874e-05, -0.043657, -0.0298462, -0.074459, -0.139853, -0.250287, -0.338262, -0.313829, -0.54983, -0.920451, -1.12997, -1.12681, -0.012393, 0.318792, 0.638902, 0.461166, 0.794312, 0.644946, 0.028482, 0.0155169, -0.0524366, -0.0470175, -0.0738341, -0.0231901, -0.00078515, 0.000123753, -0.000342692, -9.78118e-05, -0.000391766, 0.000911069, -0.000930675, -0.0502416, -0.136523, -0.294071, -0.389704, -0.212618, -0.383121, -0.647027, -0.529441, -0.680803, -0.415922, -0.196127, -0.784858, -0.202373, 0.495515, 0.43386, -0.487492, -0.232805, -0.277223, -0.107811, -0.000690251, -0.000354839, -0.000745048, 7.88293e-05, 0.000571398, 0.000732414, -0.000903134, 4.93484e-05, -0.00318196, -0.0111398, -0.0786212, -0.250215, -0.422771, -0.627936, -1.08893, -0.595845, -0.753754, -0.509188, -0.902359, -0.827899, -0.798571, -0.824745, -0.551523, -0.0418372, -0.393847, -0.412392, -0.240286, -0.0369506, -0.000480331, -0.00064684, -0.000328715, -0.000515732, -0.000195532, 4.70901e-05, -3.84838e-05, -0.00174777, -0.0120589, -0.00593421, -0.169118, -0.215018, -0.201259, -0.197149, -0.553533, -0.602932, -0.550779, -0.497125, -0.614417, -0.537181, -0.574216, -0.915843, -0.952192, -0.352799, -0.0729883, -0.0464478, -0.0205445, 0.00043376, -0.00035313, 0.00043083, -0.000483016, -0.000542344, 0.000136814, -5.42314e-05, 0.000117283, 0.000542405, -0.000676931, 0.000581103, 0.000906919, -0.000460898, 0.000169795, 0.000423956, -0.000309556, -0.00124454, -0.000857278, -3.69621e-05, -0.000236429, -0.0155709, -0.0026641, -0.0735085, -0.0886576, -0.00944137, -0.00773916, -0.000531594, -0.000180517, -0.00059386, 0.000103183, 0.000442793, -0.000206214, 0.000586596, -0.000814753, 0.00097998, -0.000188818, 0.000522629, -0.000711051, -0.000328104, 0.000475814, 0.00073809, 0.000912229, -6.19526e-06, 0.000248207, 0.000579272, 0.000674368, -0.000870296, 4.28785e-05, 0.000313517, 0.000368938, 0.000467391, -0.000602588, 0.000517075, -7.55943e-05, -0.000629078, 0.000559008, -2.68258e-05, 0.000615223, -0.000794977, 0.000819636, -0.00017893, 0.000522752, -0.00039201, -0.000897519, -4.60524e-05, 0.000246071, -0.000984863, 0.000798029, -0.000332255, 0.000863094, -0.000567553, 0.000849422, 0.000559313, 0.000141392, -0.000540147, -0.000911252, -0.000325053, 0.000999329, -0.000435286, -0.000176794, 0.000908994, 0.00021659, -0.000394757, -0.000329447, 0.000651967, -0.000604541, 0.000604114, -0.000354656, -0.000310709, 0.00017185, 0.000771416, -0.000505234, -0.000650563, -0.000324198, -0.000221229, 0.000284646, -9.72625e-05, 0.000242897, -0.0151195, -0.0558667, -0.00315713, -0.0144324, -0.015675, -0.0138521, -0.00818549, -0.0244112, -0.012939, 0.00150832, -0.000736721, 0.0020987, 0.000959512, 0.000269087, 0.000721915, 0.00084991, -0.000847224, 0.000275002, 0.000142491, -0.000783807, -0.000419721, -0.000240211, -0.000335246, -0.000717277, 0.000929991, 0.00028544, -0.00045775, -0.00654103, -0.0340886, -0.0931125, -0.0601465, -0.0563289, -0.0621593, -0.0899269, -0.289869, -0.195739, -0.0331616, -0.0698519, -0.225967, -0.129408, 0.00366999, 0.000225477, -0.000681082, -0.000939573, 0.000690237, 0.000346232, 0.000295145, 0.00071807, 0.000215308, -0.000277566, -0.000343364, 0.000983605, -0.000469955, -0.000225443, -0.00254877, -0.0248132, -0.103346, -0.0740812, -0.0868406, -0.361797, -0.370488, -0.622486, -0.615561, -0.334054, -0.300913, -0.469096, -0.432812, -0.469732, -0.363944, -0.282862, -0.299724, -0.284578, -0.00518238, 0.000315165, -0.000296854, 0.000445051, 0.000341716, 0.000862241, -0.000828241, -0.000729677, -0.0277266, -0.0550682, -0.0491342, -0.0890028, -0.133717, -0.201628, -0.337599, -1.14726, -1.80102, -2.09886, -2.34847, -2.92163, -2.03867, -1.43206, -1.13747, -0.704894, -0.625856, -0.569311, -0.339326, -0.14064, -0.0016902, 0.000665806, 0.000153294, -0.000153417, -0.000226661, -0.000835505, 0.000535592, -0.00215751, -0.000721614, -0.147358, -0.306604, -0.580356, -0.982346, -1.31973, -1.23379, -1.45589, -0.246164, 0.981004, 0.582797, -0.0882143, 1.42082, 1.03694, 0.0640663, -0.638057, -1.32798, -1.07576, -0.698561, -0.348958, -0.0599316, 0.000723502, -0.000297952, -0.000719291, -0.000613025, 0.000222633, -0.0562876, -0.16267, -0.279876, -0.695112, -0.770168, -1.34745, -1.79508, -1.79534, -1.01693, 0.434113, 1.09624, 1.20515, 1.75556, 1.76119, 1.44918, 0.548074, -0.288379, -0.422836, -1.12821, -1.77383, -1.26888, -0.652155, -0.332375, -0.0967252, 0.000964721, -0.000509629, 0.000286172, 0.000588789, -0.136332, -0.15477, -0.363874, -0.778629, -1.50382, -2.0416, -1.77077, -1.17194, 0.445107, 0.609428, 0.401189, -0.911894, -0.49322, -0.0386944, -0.791389, -0.781299, -1.00101, -1.43791, -1.38373, -1.6925, -1.61039, -0.735262, -0.366274, -0.113667, -0.000345439, -0.000669912, -0.00219966, 0.00578037, 0.0310245, -0.0446314, -0.263188, -1.21764, -2.14217, -2.05418, -0.567475, 0.266421, 0.799426, 0.266846, -1.24025, -0.327769, -0.833589, -1.77428, -1.19828, -0.00370634, -0.879095, -0.510845, -0.595524, -1.29391, -1.27069, -0.708484, -0.0823415, -0.0094867, -0.000628224, -0.000257424, 0.000101493, 0.00468242, 0.021286, -0.237987, -0.596955, -0.906054, -0.333252, -0.349641, 0.0418747, 0.204449, 0.2508, -1.21834, -1.1648, -1.03391, -0.974066, -0.866427, -0.643195, -0.0977602, -0.0199968, 0.0824572, 0.122583, -0.731215, -0.756238, -0.431327, -0.204153, 0.000768785, 0.000642628, -1.49236e-05, 0.000578906, 0.00178629, -0.0471519, -0.271763, -0.540339, -0.484902, 0.904741, 0.74871, 0.390017, 0.549185, -0.0900605, -1.50161, -1.34803, -0.277038, 0.285655, -0.628431, -0.815934, -0.753212, 0.682538, 1.87687, 0.00648097, -0.670319, -0.801581, -0.367926, -0.1413, -0.00778937, 0.00020835, 0.000106357, 0.000935038, 0.000229746, -0.0152556, -0.0883913, -0.239367, -0.180552, 0.426291, 0.632759, -0.142376, 0.358541, -0.557721, -0.681638, -0.308113, 0.79567, -0.0317385, -0.373696, 0.207932, 0.953848, 1.15929, 1.05142, 0.0492072, -0.220301, -0.259357, -0.237471, -0.224505, -0.125432, 0.000564501, -0.000327311, -0.00026291, -0.00111517, -0.00347339, 0.0133631, -0.228969, -0.185414, -0.0316849, -0.474473, -0.702986, 0.0747979, -1.04595, -0.830559, -0.518577, -0.266193, -0.244894, 0.864438, 1.10488, 1.32267, 0.254537, -0.021147, 0.126561, -0.143019, 0.0344333, -0.0173178, -0.0423679, -0.0189623, -0.000250404, 0.000745109, -0.000106723, 4.81417e-05, 0.0141242, 0.110629, -0.509679, -0.464455, -0.0211785, -1.19574, -1.4656, -0.43313, -0.365721, -0.79143, -0.792052, -0.2985, -0.335765, 0.72959, 0.14383, 0.224484, -0.0929532, -0.635548, -0.82252, -0.674055, -0.208326, -0.0657646, 0.026505, 0.0087174, -0.000615284, -0.000894833, -0.000306497, -0.000957138, 0.0148877, -0.17428, -1.38666, -1.69751, -0.74953, -0.67292, -1.20624, -1.4145, -0.512718, -0.598731, -0.589771, 0.482376, -0.0688728, 0.628177, -0.258074, 0.471682, -0.814003, -0.901094, -0.844938, -0.657621, -0.515408, -0.237831, 0.0141137, 0.0119551, 0.000962157, -0.000267678, -4.0315e-05, 0.000884148, -0.0968635, -0.315314, -1.21857, -1.60333, -1.26174, -0.123577, 0.272361, 0.228093, 0.725375, 0.188018, -0.424491, 0.590424, -0.176526, -0.101967, -0.0832201, 0.562757, -0.8838, -1.54332, -1.17494, -0.662892, -0.423607, -0.139822, -0.0930376, -0.15248, 0.000384503, 0.000529893, -0.0289374, 0.000928956, -0.11926, -0.185557, -0.766326, -1.35189, -1.42877, -1.19951, -0.775102, -0.137231, 0.238085, 0.429697, -0.0339956, -0.300927, -0.474606, -0.578847, 0.458725, -0.160771, -1.46448, -1.71755, -1.3707, -0.866621, -0.392343, -0.165579, -0.255764, -0.105144, 0.000754574, 0.000301859, -0.00658401, 0.000657432, -0.0949553, -0.135882, -0.171868, -1.01371, -1.66293, -1.4757, -0.9932, -0.758148, -0.3942, -0.770852, -0.510417, -0.646939, -0.104172, -0.649369, -0.223041, -0.418192, -0.611023, -0.897718, -1.06534, -0.795527, -0.327059, -0.206383, -0.149565, -0.0113089, 0.0119106, 0.000979369, -0.0259241, -0.000103983, -0.0165916, -0.0689651, -0.122589, -0.483788, -0.93258, -1.02369, -1.11966, -1.265, -1.09776, -1.07967, -1.31222, -0.745751, -0.415133, -0.250293, -0.876404, -1.02904, -0.310562, -1.1134, -0.938175, -0.48409, -0.270007, -0.0860748, -0.00912957, -0.00429016, 0.00458479, 9.74456e-05, -0.00560475, 0.00579166, 0.015016, 0.0449579, -0.146375, -0.419131, -0.623146, -0.972353, -1.38668, -1.05422, -1.09804, -0.941651, -1.2109, -0.666391, -1.39181, -0.558362, -1.11294, -1.19775, -0.763884, -1.0967, -0.94318, -0.324657, -0.022874, -0.0221207, -0.00660829, -0.000285195, 0.000128758, -0.000478744, 5.04471e-05, 9.3189e-06, 0.000359948, 0.00697344, -0.138989, -0.532521, -0.967268, -1.27989, -1.00673, -0.633775, -1.26202, -1.61246, -1.23423, -1.36957, -1.20022, -1.01287, -1.63654, -1.1018, -0.85891, -1.174, -1.06142, -0.383557, -0.0312575, 0.00788779, -0.00273993, 0.00280627, 0.00091467, 0.000423139, 0.000293619, 0.000571764, -0.000618763, -0.0236104, -0.136084, -0.516584, -1.09294, -0.997131, -0.639864, -0.480684, -0.921885, -1.40276, -1.17623, -0.939319, -0.667958, -1.91579, -0.80319, -1.17748, -0.695008, -0.982837, -0.953145, -0.35048, -0.0247232, 0.0211277, 0.000965575, -0.000505966, -0.000732536, 0.00050853, 0.000153966, 0.00686087, -0.000643321, -0.0897504, -0.140286, -0.297045, -0.559652, -0.0536532, 0.0392863, -0.300993, -1.08357, -1.75093, -1.58981, -1.71209, -1.42935, -1.73628, 0.291063, -0.954239, -0.423787, -0.553086, -0.674889, -0.20191, -0.016453, -0.0011038, -7.86171e-05, 0.000373333, 5.65508e-05, -0.000506943, 0.000676382, 0.000973518, 0.000316191, -0.0311688, -0.0737832, -0.0817402, -0.204764, -0.361379, -0.252097, -0.290691, -1.07756, -1.61753, -0.951201, -1.46898, -1.29189, -1.30338, 0.427537, 0.296868, 0.493764, 0.2822, -0.0128183, 0.0532185, 0.0262866, -0.01809, -0.0170473, -0.00864902, -0.000126011, 0.000829035, -0.000828425, -9.75677e-05, -0.000533622, 0.0439343, 0.0337285, -0.129391, -0.11814, 0.316143, 0.554919, -0.0150096, 0.087864, 0.231429, 0.80589, -0.543661, -0.603959, 0.193034, 1.18181, 1.21671, 1.21069, 1.0442, 0.344059, 0.0705418, 0.0334342, -0.00119981, -0.00802143, -0.00898088, -0.000176061, -0.000318339, 0.000880428, 0.000399091, -0.0021646, -0.0133137, -0.0184953, -0.113652, -0.0148228, 0.308603, 0.633009, 0.701449, 0.819144, 0.37827, -0.182936, -0.762641, -0.664286, 0.0477493, -0.256036, 0.393066, 0.916623, 0.472546, 0.118592, 0.0288067, 0.00937819, 0.000203162, -0.000955992, 0.000755547, 0.00056151, -0.00084405, 0.000887509, -0.000718925, 0.000422956, 0.00095056, 0.000588, -0.000354754, -0.000693818, 0.00462599, 0.072234, 0.0484372, 0.00301435, -0.0622859, -0.028737, -0.000309144, 0.00543001, -0.0356234, -0.0580813, 0.0321713, 0.0157487, -0.000551987, 0.000535203, 0.000399457, 2.75582e-05, 0.00069274, -0.000655568, 0.000435347, -0.000418195, 0.000354411, 0.000503098, -0.00044084, 0.000678884, -0.000996765, -0.0006433, 0.000110263, 0.000702445, -0.000855464, -0.000239784, -0.000318033, 0.000487594, 6.8453e-05, 0.00062212, 0.000804559, 0.000818293, -0.000206946, 0.000490707, 0.000388043, -0.000197851, 0.000181249, 0.000233863, -0.000534959, -0.000825129, -0.000691824, 0.000968871, 0.000182592, -0.000144993, -0.000921751, -0.000758354, 4.43434e-05, 0.000748711, 9.26847e-05, -0.000542772, -0.000597034, 0.000804254, -0.000234046, -0.000441389, 0.000202124, 0.000316996, -0.000306192, -4.31227e-05, -3.14035e-05, -0.000516221, 0.000161558, -0.000332356, -0.000945128, 0.000207923, 0.000474827, -0.000779863, -0.00137703, -0.000846614, -0.000614185, 0.000588244, 0.000926389, 5.02029e-05, -0.00024192, 0.000184912, -0.000776849, -0.000751518, 0.000428266, -0.000806574, -0.000902707, 0.000523606, 0.000788446, 0.000356548, -0.000588977, -0.00276905, -0.0121424, -0.0228347, -0.0369811, -0.0266153, -0.161119, -0.385188, -0.12362, -0.000847466, -0.000169698, -0.00024321, 0.000223216, -0.000164159, 0.000722648, 0.000835139, -0.000604602, -0.000171545, 0.000807184, -0.000145909, -0.00068096, -0.000962096, 0.000310953, -0.000734916, -0.000567064, 1.85328e-05, -0.00553307, -0.00647684, -0.0153815, -0.0581077, -0.0910526, -0.161874, -0.208682, -0.27882, -0.348097, -0.647965, -0.520052, -0.14955, -0.00807337, 0.195202, 0.0976581, 0.00242184, -0.000763604, 0.000543809, -0.000284158, 7.32749e-05, 0.000952757, -0.000191137, -0.000353557, -0.000176611, -0.000257719, 0.000340007, -0.0109656, -0.0623441, -0.0875185, -0.140444, -0.223947, -0.409546, -0.737903, -1.00376, -1.09407, -1.04736, -0.957899, -0.936745, -0.706241, -0.280943, 0.00260216, 0.585773, 0.430701, 0.0452862, -0.0630561, -0.00172308, -0.000190972, 0.000593127, -0.000944029, -0.000594958, 0.000806147, 0.000543995, 0.000978489, 0.00233643, 0.00336232, 0.00542394, -0.0939479, -0.139484, -0.342721, -0.835187, -0.972362, -0.928592, -0.879112, -0.861453, -0.962957, -1.19239, -0.976206, -0.114962, 0.734559, 1.58701, 1.08746, -0.160465, -0.326644, 0.00909356, -0.00122515, 0.000754509, -0.000817499, -0.000197668, 0.000130711, 8.48065e-05, -0.00129434, 0.00351107, -0.0104727, -0.10965, -0.177425, -0.101206, -0.263109, -0.900984, -0.710851, -0.762449, -0.822116, -0.853251, -0.982163, -1.23219, -0.77671, 0.332558, 1.07039, 1.09307, 0.405104, -0.403484, -0.452473, -0.0651636, -0.00878711, -0.00602573, 0.000922605, -0.000777825, 0.000379687, -0.00572241, -0.00539194, -0.0845645, -0.163835, -0.279198, -0.32335, -0.250745, -0.442655, -0.790932, -0.873971, -0.659944, -0.958956, -1.36185, -1.40369, -1.28074, -0.566305, 0.562217, 0.442948, 0.665314, 0.170465, -0.501333, -0.252911, -0.100699, -0.00723928, -0.00368828, 0.000961303, -0.000544176, -0.000315102, -0.00601415, -0.0154177, -0.0624029, -0.186257, -0.273504, -0.270368, -0.24064, -0.299575, -0.51049, -1.01356, -1.06936, -1.31594, -1.34571, -1.38497, -0.426544, -0.394835, -0.369483, 0.219376, -0.00960218, -0.455136, -0.730284, -0.133173, -0.130914, -0.00208025, 0.00040849, -0.000100925, -0.0018139, 0.000745842, -0.00273285, -0.0133287, -0.0128596, -0.176521, -0.205479, -0.330512, -0.297612, -0.19924, -0.251735, -0.767479, -1.3014, -1.16106, -0.748433, -0.218539, 0.0655325, -0.306272, -0.504638, -0.277552, -0.607939, -0.871587, -1.14251, -0.571743, -0.231852, -0.102997, 0.000105441, 0.000322123, -0.000978518, -0.000725211, -0.00329717, -0.0102307, -0.00931877, -0.107372, -0.154637, -0.159379, -0.310204, -0.30706, -0.420539, -0.558713, -1.41412, -1.51018, -0.0961015, 0.430447, -0.310689, -0.164795, -0.247141, -0.857501, -1.01731, -1.25094, -0.590705, -0.158268, 0.0408191, -0.0107576, -0.000707755, 0.000122349, 0.000157506, -0.000307411, -0.00372263, -0.00526207, -0.0171181, -0.0530885, -0.0892426, -0.089334, -0.330142, -0.395495, -0.547282, -0.945733, -0.980326, -0.451056, 0.953696, -0.111444, -0.48885, 0.206473, -0.458891, -0.87482, -0.747312, -0.613825, -0.106207, -0.0505643, 0.119325, 0.000895627, -2.84127e-05, -0.000932066, 0.000721854, 7.34025e-05, -0.00354863, -0.00238621, -0.00969215, -0.0798286, -0.094806, -0.210688, -0.282029, -0.44038, -0.738648, -1.36109, -0.321037, 0.730037, -0.320348, -0.838936, -0.471612, -0.132894, -0.516954, -0.910679, -0.385811, -0.150946, -0.0958068, -0.100759, -0.0555317, 0.000553697, -0.000866451, 0.000623707, -0.000127598, 0.000340315, -0.00352182, -0.00644512, -0.00782022, -0.047536, -0.12657, -0.26488, -0.463897, -0.898153, -0.99495, -0.625696, 0.258517, -0.307877, -0.947117, -0.284309, -0.550322, -0.559941, -0.678246, -0.442127, -0.235902, -0.0995987, -0.0589522, -0.0482533, -0.00911329, -0.000767571, -0.000611255, -0.000978942, -0.000518113, -0.000289346, -0.00488458, -0.0378898, -0.0759316, -0.0499768, -0.196693, -0.285026, -0.584882, -0.960517, -0.288085, -0.316095, -0.913825, -1.19802, -0.425123, -0.339889, -1.06122, -1.52273, -0.77521, -0.264465, -0.121023, -0.034834, -0.0196194, -0.00506723, 0.000790426, 4.48183e-05, 0.000850887, -0.000421064, -0.000452864, -0.000608875, -0.0046239, -0.0848439, -0.109789, -0.070465, -0.308965, -0.467688, -0.518189, -0.317217, -0.41886, -0.368618, -1.07075, -0.897093, -0.0872463, -0.677095, -1.68496, -1.55393, -0.995605, -0.724204, -0.25535, 0.0724251, 0.0562801, -0.01229, -0.0103707, -0.00784182, 0.00026957, 0.000273354, 0.000697256, 0.000523484, 0.00028141, -0.106661, -0.0364418, -0.109705, -0.566107, -0.896219, -0.431928, -0.125304, -0.0653164, -0.550318, -1.19096, -0.793117, -0.484268, -0.590355, -0.796664, -0.988664, -0.589387, -0.710401, -0.575984, -0.302381, -0.0394371, -0.0128865, -0.00744783, -0.00351761, -0.000586596, 0.000558458, -4.91043e-05, -0.000620716, 0.000375524, -0.118476, -0.270994, -0.665026, -0.900902, -0.986232, -0.319946, -0.133602, -0.385902, -0.559103, -1.72491, -1.46494, -1.12133, -0.943339, -0.683041, -0.637311, -0.558145, -0.380455, -0.331764, -0.228651, -0.0408768, -0.019727, 0.000243218, 5.77235e-05, 0.000703028, -0.000563829, -0.000275246, -0.000194128, -0.000341416, -0.143887, -0.593288, -1.05545, -0.968687, -0.483789, -0.380305, -0.078755, 0.151513, -0.899193, -1.49207, -1.55453, -1.18963, -1.03684, -0.633626, -0.616257, -0.546416, -0.532574, -0.237205, -0.0997658, -0.0428052, -0.0382933, -0.000762037, -0.000804809, 0.0151826, 0.000777154, 9.09146e-05, 0.00092114, 0.00241777, -0.153106, -0.690035, -0.923283, -0.310991, -0.319286, -0.465216, -0.0748556, -0.286684, -0.699336, -0.800755, -1.10948, -0.955047, -0.961194, -0.847859, -0.67333, -0.42462, -0.371833, -0.283747, -0.108435, -0.0515836, 0.00423086, 0.000455213, 1.33366e-05, 0.00567203, -0.000109531, 0.000284768, 5.89312e-05, 0.0346542, -0.19213, -1.17423, 0.0134189, -0.0132628, -0.768207, -0.881222, -0.637811, -1.0034, -0.900406, -0.836913, -1.02084, -1.07518, -0.87768, -0.733081, -0.734184, -0.726791, -0.596085, -0.316082, -0.0617739, -0.0236325, -0.0119619, -0.00745032, -0.000277993, 0.000705618, -0.000655629, -0.000537095, 0.000964843, 0.0645305, -0.66527, -0.761898, 0.777006, -0.137385, -0.287563, -0.690874, -1.08565, -1.54671, -1.17267, -1.31572, -1.01013, -0.687598, -0.508095, -0.405613, -0.424066, -0.565172, -0.54059, -0.307888, -0.0185001, -0.0237921, -0.0109657, -0.00350197, 0.00195787, 0.000957457, 3.65917e-05, 0.000710929, -0.000759331, 0.00861678, -0.556129, 0.154011, 0.789695, 0.47205, 0.448872, -0.33516, -1.24397, -1.36625, -1.39381, -1.11114, -0.767077, -0.620063, -0.584739, -0.478863, -0.25609, -0.186596, -0.122403, -0.0388134, 0.00199802, -0.0126505, -0.00148319, -0.000794323, 0.000566942, -0.000122349, -0.000485702, 0.000300943, -0.000959288, -0.00650379, 0.169868, 0.567941, 0.96362, 0.981923, 0.533201, 0.0761059, -0.467226, -0.809395, -0.812098, -0.844494, -0.520373, -0.568487, -0.340204, -0.187172, -0.0202967, -0.0083531, 0.00413589, 0.0127697, 0.028202, 0.00280653, -0.000238279, 0.000138062, -0.000813227, 8.51772e-05, -0.000455367, 0.000199927, -0.000983764, 0.0131354, -0.117422, -0.158062, -0.0976651, 0.445879, 0.523635, 0.460002, -0.250146, -0.414405, -0.445758, -0.298432, -0.215714, -0.0988509, -0.0850054, -0.0844388, -0.0759479, -0.0639099, -0.0358642, -0.00111476, 0.000228539, -0.000767981, -0.000500595, 0.000645253, -0.000702078, -0.000719962, 0.000935301, -0.000172948, -0.000488693, 0.00619176, -0.194417, -0.224785, -0.237921, 0.0575425, 0.302796, 0.0929479, -0.293141, -0.203381, -0.207608, -0.163101, -0.145282, -0.127448, -0.118611, -0.0857873, -0.036491, -0.00975177, -0.000534184, 0.000641163, -0.000901425, 0.000313272, 0.000860836, 0.000810419, 0.00011594, -0.000123447, -0.000395856, -0.000938108, -0.000992248, -0.00154034, -0.0710805, -0.0130531, 0.0605451, 0.0788786, 0.0103752, -0.0149637, -0.0107777, -0.0400313, -0.0855728, -0.0191455, 0.0043715, 0.00209652, -0.00506678, -0.0059853, -0.00156816, 0.000809687, -0.000668142, -0.000580554, 0.00028135, -0.000709525, -2.82296e-05, -0.000919797, 0.000697439, -0.000114109, -9.96429e-05, 0.000501938, -0.000179113, -0.000303079, -0.000238651, -5.09985e-05, -0.000100805, 6.98247e-05, 0.000589282, -0.000825983, 9.59807e-05, -0.000599048, 0.000679312, -0.000144139, -9.49126e-06, -0.000808649, -0.000298196, -0.00072924, 0.000312906, -0.000648366, 7.07724e-05, -0.000773736, 0.000939756, 0.000756401, -0.000439314, 0.000240272, 0.00013535, -0.000950987, -0.00088757, -0.000308878, 0.000137486, -0.000204688, -0.000877987, 0.000990356, 0.000810175, 0.000488632, 0.000751274, 0.000570727, -0.000361187, 0.000230445, 0.247815, 0.541455, -0.000787164, -8.90835e-05, 0.000671438, 0.000472762, 0.000231422, -0.000300394, 0.000178869, -0.000470016, 0.000276467, 0.000131626, -0.000714286, 0.000511643, 0.000836787, -0.000556749, -0.000166662, -0.000603687, 0.000580737, -0.000841426, 0.000620216, -0.000759782, 0.185363, 0.466168, 0.979533, 1.18073, 2.41992, 3.71147, 2.24844, 1.67947, 0.840287, -0.332099, -1.01618, -0.177882, 0.464545, 0.511791, 1.4653, 0.717315, 0.0685487, 0.000507357, -0.00060094, 0.00049266, 0.000418806, 0.000622242, 0.000264077, -0.000694815, -0.000795953, 0.000514206, 0.0987352, 0.135717, 0.310008, 1.15001, -0.260272, -10.37, 0.36775, 9.70487, 8.37314, 10.7651, 6.11907, 7.23257, 3.89055, 7.171, 9.8735, 5.90219, 2.47648, 0.622298, 0.321826, 0.0694306, 0.090029, 0.0672161, -0.000335734, -0.000712394, 0.000172094, 0.000299112, -0.0472476, -0.0110789, 0.0855878, 0.117202, 0.754693, 2.81438, -4.63454, -6.13161, 0.795833, 3.1134, 8.65369, 15.0806, 16.2608, 9.07731, 7.30901, 9.27111, 3.53009, 1.40815, -2.5578, -4.90878, -3.27528, -0.167811, 0.240446, 0.0768151, -0.000922666, 0.000109287, -0.000366314, -0.000605518, -0.161214, -0.0382613, 0.00555195, -1.67148, -1.13197, 0.441277, -4.42447, -5.77437, -1.01179, -1.06465, 2.64334, 16.8747, 2.21904, -7.05358, -5.451, -2.98341, -2.15052, -10.3488, -6.67114, -7.89256, -8.18925, -6.80406, -5.54005, -1.46484, -0.000970397, 0.00023191, -0.000427046, -0.000530747, 0.0485867, -0.005492, -0.0321728, -3.26869, -2.53978, -3.66714, 5.79796, 4.49158, -6.48494, -2.45339, 5.67565, 3.58189, -4.81798, -10.6663, 1.85576, -7.02108, -1.01397, -4.20513, -4.14883, -2.97202, -3.65797, -5.94195, -8.50014, -2.49781, -0.00023686, -0.000623402, 0.000551073, -0.00076043, -0.0650863, -0.446965, -2.51903, -7.2639, -9.10154, -7.42323, 3.00435, -0.802354, -10.392, -0.362606, 1.46378, 4.42853, 3.71856, 3.17516, 2.69589, -12.8453, -10.6351, -8.58233, -7.71471, -3.39632, -3.33012, -2.29662, -2.23116, -1.94732, 0.0143922, 0.00019248, -0.0001948, -0.000513779, -0.000402875, -4.143, -6.02294, -9.05871, -11.3565, -2.62496, -3.22955, -10.9652, -8.53469, -2.52768, 3.67529, 7.04571, -5.66203, -1.87283, -16.5795, -19.6436, -16.722, -12.5349, -7.99496, -4.50547, -4.72211, -3.66826, -4.69679, -5.06489, 0.174585, -0.0917303, 0.000537584, -0.000468795, -0.000803644, -6.09167, -6.34068, -5.46862, -5.43967, -2.58297, -5.70297, -3.20904, -1.25588, -0.632365, -4.08565, 0.344099, -6.51246, -16.9329, -23.0975, -22.9241, -18.8338, -15.268, -8.2439, -6.69917, -6.67628, -9.73939, -8.78442, -2.86311, -1.46315, -1.64814, -0.000545396, -0.00149045, 0.000719169, -5.01569, -5.59813, -5.59057, -4.85033, 2.5634, -0.0114099, 0.913332, -4.22137, 1.88372, 1.02829, 0.245174, -11.7683, -25.9444, -32.6812, -23.2784, -32.7784, -22.7754, -9.49299, -14.5177, -14.4763, -12.0795, -6.50468, -2.8462, -1.1599, -0.0190572, 0.000555895, -0.00054756, 0.000161107, -2.03559, -4.1723, -4.51184, -3.96014, 4.4088, -0.275153, -3.64592, -9.67313, -3.19406, -6.23371, -3.23599, -21.925, -25.7169, -24.1288, -15.0275, -23.6938, -18.8238, -11.722, -12.5275, -8.07822, -8.04403, -5.3022, -4.0846, -1.92619, -1.34892, -0.000826716, 0.000803949, 0.000643056, -1.06462, -2.13689, -4.30666, -1.72924, 4.66123, -4.83839, -10.9581, -3.92921, -3.09253, -4.01977, -12.3818, -20.244, -16.2073, -6.50475, -2.98348, -3.8062, -4.02085, 2.21223, -10.7473, -4.68399, -2.58197, -6.0805, -6.30036, -4.16686, -1.05194, 0.00026017, 0.000767937, -0.000425031, -3.71718, -4.86898, -13.1408, -5.07245, 1.94665, -4.22166, -9.28173, 5.74587, 2.37574, -6.77079, -10.4666, -6.50296, -0.569795, 9.96655, -1.04804, 5.83418, 16.1796, 10.454, -3.72527, 7.25347, 2.77943, 2.68249, -6.50209, -3.13257, -0.162241, 0.000929991, -0.000560778, 7.05893e-05, -2.84569, -5.25559, -13.2901, -2.74769, 5.82749, 3.09272, 4.80139, 1.74538, -6.25767, -10.1848, -8.34724, 2.8952, 9.53482, 13.4976, -3.12009, 4.29724, 10.1228, 7.65025, 9.60039, 14.7347, 5.03984, 5.75246, -7.22714, -3.06924, -0.234523, -0.000754143, -0.000604785, 0.000610767, -0.114758, -1.94176, -9.7001, -0.0279875, 7.73814, 2.31099, 4.59133, 6.13502, -3.24267, -7.35034, -7.04749, 4.49994, 4.04168, 6.94516, -3.13791, 0.510302, -0.177476, 3.91588, 7.36984, 20.6366, 10.384, -4.08873, -0.482722, -2.50569, -0.0261244, -0.000740532, 9.05484e-05, 0.000957884, -0.139155, -0.866038, -6.64974, -0.786329, 7.89983, -2.00274, -0.847307, -3.77788, 2.70503, -6.50525, -5.40899, 7.1291, 5.80346, -6.83413, -9.11967, -3.47497, -3.89211, 7.12684, 8.45756, 12.3689, -3.46977, -9.32547, 4.90746, -1.37303, 0.000397382, 0.000299966, 0.000333537, -0.0134072, -0.158024, -0.914918, -2.36549, -7.32311, 8.57632, -1.18625, 5.80477, 10.662, 13.6711, -10.9125, -8.51721, 8.84551, 6.43766, 0.353854, -10.0776, -6.19232, 6.70476, 6.99962, 3.73268, -4.82101, -2.21611, -0.623102, 5.95708, -0.293579, -0.000352947, 0.00051323, -0.00098706, -0.0145117, -0.171382, -0.791337, -8.62764, -10.853, -0.701948, 3.13413, 7.74884, 11.1358, 9.44605, -5.15364, 1.81048, 9.497, -1.09239, -4.84746, -10.3869, -4.17614, 3.39044, -1.6487, 6.48058, -4.32413, -0.345939, 0.250292, 3.35255, 0.0203271, 0.0200712, 0.000650807, 7.44346e-05, 0.000882931, -0.308045, -0.541207, -7.42878, -9.01576, -3.40449, -2.41799, -2.34511, -2.02837, -5.42812, 0.133158, 14.3609, 12.9961, -3.82142, -2.77162, -0.353812, 2.97225, 2.60624, -11.5194, -2.41632, -5.17124, -1.44297, -2.06942, 0.0469719, -0.822829, 0.00921967, 0.000109043, -0.000253029, -0.0960857, -0.606397, -1.0887, -3.86974, -11.3185, -4.37485, -1.21231, 2.35927, -1.50251, 15.9133, 13.8104, 13.0178, -0.232279, -7.55644, -0.388744, 6.25434, 3.31636, -8.41765, -8.45537, 2.34708, -2.19813, -1.90084, -2.75248, -2.04025, -0.093219, -0.000401227, -0.000781976, 1.95624e-05, -0.124334, -0.460068, -1.59253, -1.10552, -5.03065, -4.81033, -7.59937, -3.65421, 1.38049, 13.4725, 15.867, 17.9435, 17.903, 15.8319, 11.3493, 6.49435, -1.56981, -5.60549, -4.12286, -2.26022, -9.22818, -5.05835, -1.70192, -0.580346, 0.116492, 0.000351726, -0.00021897, 0.000367962, -0.00015755, -0.0619222, -2.36413, -3.07338, -5.72178, -11.7226, -11.9117, -9.17501, -8.54819, -9.74505, -0.474405, 1.85533, 1.7912, 13.8222, 9.37545, 12.8019, -4.82072, -9.75538, -3.85715, -7.21975, -8.45024, -7.49841, -5.42442, -1.44918, 0.120423, -6.79647e-05, -0.000137059, -0.000269204, 0.000437117, 0.017616, -0.406796, -1.1755, -1.46313, -5.53294, -10.1478, -10.6352, -7.58204, -12.9765, -8.56095, -8.34525, -10.5379, -6.84565, -4.04473, -4.77951, -10.3465, -15.3798, -11.243, -7.61832, -6.0997, -6.78624, -6.68585, -4.66455, 0.0512884, -0.000351054, 0.00082989, 0.000736625, 0.000107273, -0.000207412, -0.063915, -0.209418, -0.480032, -2.68278, -4.90142, -5.27663, -4.58818, -4.04118, -4.92215, -12.9771, -16.5083, -13.0369, -13.6629, -8.56378, -6.92143, -5.52739, -4.074, -1.56815, -2.06219, -3.25481, -3.24701, -1.16893, 3.88501e-05, -3.36619e-05, 0.000637989, 0.000180029, 0.000683767, -0.00550838, -0.00130332, 0.0143676, -0.000584412, -0.0424503, 0.0159719, -0.214444, -0.507112, -0.927035, -2.14106, -4.6785, -4.85531, -6.62931, -9.27872, -4.59028, -1.04967, -0.442642, -0.658249, -0.710178, -0.375547, -0.383343, -0.383463, -0.048673, -8.00501e-05, -0.000646046, -0.000627491, -0.00025132, -0.000982604, -0.00092993, -0.00965052, -0.043835, -0.0369663, -0.0452349, -0.0483019, -0.0323261, -0.0691327, -0.190432, -0.620902, -1.1327, -1.05579, -1.03556, -1.00956, -0.268797, -0.23631, -0.202116, -0.244657, -0.193868, -0.0717894, 0.000689383, -0.000591723, 0.000915281, -0.000925657, -0.000610584, -0.000962951, 0.000999512, 0.000795343, -0.00466231, -0.0308241, -0.0166435, -0.00240239, -0.0105624, -0.00924612, -0.00108892, -0.0150356, -0.133136, -0.116793, -0.258061, -0.0838855, 0.00175541, -0.00252519, -0.00425118, -0.0012146, -0.0908089, -0.0650885, -0.000657704, -7.73034e-05, -0.000319071, -9.65911e-05, 5.76495e-05, -3.50658e-05, 0.000109531, -0.000407575, 0.000585314, -0.000545457, 0.00026371, 0.000363201, 0.00050145, -0.000418806, -0.000903256, 0.000664357, 0.000157872, 2.7131e-05, -0.000338176, -0.000489781, -0.00270203, -0.000507633, 0.000947813, 0.000665578, 0.000492843, 0.000458419, -3.46995e-05, -0.000528794, -0.000598437, -0.00076867, 8.26746e-05, 6.54012e-05, -0.000816889, 0.000195471, -0.000388165, -0.000982421, -0.000662038, 0.000364483, 1.80059e-06, 0.000612476, -8.51161e-05, -0.000514267, -0.000690237, 0.000307718, 0.000105625, -0.00026487, -0.000277749, 0.000387066, 0.000382977, 0.000805292, 0.000842586, 0.000184423, 0.000478866, 0.000309793, 0.000685293, 0.000138401, -0.000498703, -0.000536668, 0.000418806, -0.000903073, -0.000698233, 1.10782e-05, 0.000357036, 0.00087225, -0.000907529, 0.000408307, -0.000798029, 4.51979e-05, -0.000686819, -0.00074987, 0.000535813, -0.000979858, 0.000748833, -4.84939e-05, 0.000562853, 0.000329814, 0.000896298, 1.61846, 3.01481, 0.410238, -0.000534405, -0.000492804, -0.000171239, -0.000697623, -0.000171178, 0.000927366, -0.000232276, 0.000913572, -2.66427e-05, -0.000604907, 3.44554e-05, 0.000115207, -0.000966918, 0.000379009, -0.000172399, 0.000401105, -0.000676321, 0.000484787, 0.000816887, -0.047292, -0.0816175, -0.0353059, -0.062353, 0.196452, 0.699457, 4.59742, 8.52353, 2.13615, -1.89733, -1.29627, -0.686986, -0.0340778, -0.0240463, -0.0140938, -0.00728415, 0.000879452, -0.000582507, 0.000521348, -0.00020426, 0.000420759, -0.000820307, 0.0101117, 0.00310266, -0.000158483, -0.000857614, -0.187838, -0.800751, -1.30579, -1.92346, -2.67679, -2.40623, 0.0303967, 1.20953, 2.23439, 7.77433, 6.94718, -0.857953, -0.385948, -1.01991, -0.729912, -0.662178, -0.425382, -0.357121, -0.000791681, -0.000528977, -0.00077105, -0.000329569, 0.000786615, -0.000602771, 0.0339773, 0.00916857, 0.00015598, -0.301061, -0.785992, -0.95497, -1.45677, -2.31718, -3.8277, -3.37555, -1.66664, -3.31242, -1.79998, 2.77088, 3.97018, -0.684607, -0.758534, -1.10449, -1.16341, -1.09031, -0.460453, -0.516571, -0.388676, -0.119005, 4.91348e-06, 0.000513596, -8.3224e-05, 0.000215796, 0.00516455, 0.0122806, 0.0152147, -0.447584, -0.857703, -1.32403, -0.808731, -6.08835, -8.34263, -3.24802, -3.54317, 1.18005, 4.22046, 4.1698, 3.61929, -0.993871, -1.73923, -1.84152, -2.07084, -1.30118, -0.948342, -0.903353, -0.854315, -0.0516562, 0.000352774, -0.000299112, -0.000145482, 0.000901181, -0.0192063, 0.0151312, -0.123065, -0.406964, -1.24744, -1.77273, -0.889268, -4.70654, -8.31185, -1.29491, -2.15605, 2.00943, -0.960937, 1.65957, 0.359925, 0.124973, -2.3801, -3.09495, -2.00009, -1.2118, -0.972233, -0.836098, -0.617828, 0.0116394, -0.000255348, 7.41295e-05, 0.000864925, 0.000775018, -3.61644e-05, 0.00263955, -0.324879, -1.63622, -2.41648, -2.47048, -2.40401, -2.31783, -1.08351, 0.663752, -1.47318, -1.10109, -0.119832, 1.01693, -2.50377, -1.38611, -2.34472, -2.58551, -1.78787, -1.24204, -0.755418, -0.300939, 0.0216906, 0.00440077, 0.000821726, 0.00013657, -0.000432295, -0.00021482, 0.000441939, -0.00648774, -0.381986, -1.41469, -1.8918, -1.646, -2.47098, -2.01886, -0.151427, -1.52297, -0.406219, -0.444965, -1.88553, 2.17742, -2.4766, -4.13093, -1.71798, -1.13979, -1.05596, -0.844667, -0.168795, -0.0677798, -0.0511031, -0.0512414, 0.0146836, -0.000501999, 0.000320353, -0.00111691, 0.000827326, 0.0142549, -0.620609, -1.74321, -1.21089, -0.141229, -0.417803, -2.61403, -1.28857, -1.12845, 0.769869, -2.25004, 3.02194, 3.59482, -1.28059, -3.2711, -1.71476, -1.0436, -0.84164, -1.09856, -0.759361, -0.163907, -0.113262, -0.0636577, 0.00328696, -0.00042967, -0.000149571, 0.000142615, -0.000265236, 0.00529073, -0.835276, -2.65175, -2.98463, -0.286172, -2.08967, -4.19474, -1.53123, 0.148262, -3.00526, 0.777767, 0.139037, 2.95565, -1.43689, -3.01819, -2.75046, -1.72462, -0.99827, -1.05467, -1.0944, -0.320724, -0.0269064, -0.0226212, 4.05661e-05, -0.000487289, -0.000861019, -0.000517502, 0.000653554, -0.00506199, -0.91494, -1.92106, -2.76335, -1.35358, -4.65443, -2.04053, -1.89695, -0.784631, -2.81693, -2.28716, 0.22487, 1.309, 1.22444, -4.47469, -2.52869, -1.80938, -1.38022, -0.918362, -1.21886, -0.912421, -0.0739141, -0.00104546, 0.000874813, -0.000572982, 0.000552965, -0.000997742, 0.000293315, -0.00600029, -0.862023, -1.19085, -0.885813, -1.15732, -1.58068, 0.73601, -1.1286, -0.646254, -2.58308, -1.92707, -1.44918, 2.16456, -1.84923, -6.08071, -2.40768, -1.56055, -1.4995, -1.61037, -1.31129, -1.27244, -0.167419, 0.000193274, 2.77413e-05, 0.000802976, 0.000227821, 0.000252052, -0.00128851, -0.00384433, -0.125509, -0.361491, -1.08786, -1.91143, -1.12822, -1.17937, -2.29976, -3.27286, -3.70966, -2.86765, -2.01166, 2.4473, -5.31977, -7.16793, -2.9024, -2.37715, -1.38105, -1.63085, -1.54931, -1.65014, -0.382572, 0.000500656, -0.000183264, 0.000213538, -0.000298929, 0.000913633, 0.000818644, -0.00377353, -0.0265823, -0.203343, -1.05992, -1.26624, -0.795399, -3.08186, -3.94794, -4.94995, -5.1159, -3.78178, 0.744316, 0.49445, -5.18641, -6.27497, -3.31586, -2.96048, -2.67473, -1.48659, -1.36094, -1.78034, -0.899731, -0.00132848, -0.000875146, 0.000260353, 0.000794366, 0.000287149, 0.000259011, -0.0027739, -0.0436508, -0.545615, -1.12856, -1.27347, -1.48093, -4.53137, -5.20214, -4.50447, -6.1552, -2.71571, 2.51176, 1.17077, -3.28642, -8.07386, -3.38924, -2.73192, -3.205, -1.54748, -1.22591, -1.73893, -0.993413, 0.0159273, -0.00022939, -0.000231178, -0.000253395, 0.000420247, -0.000283792, 0.00530618, -0.120729, -0.797208, -1.45591, -1.40036, -2.74923, -3.33628, -3.83862, -5.56377, -5.97054, -1.25065, 4.03962, 2.39757, -4.82985, -8.20228, -4.7993, -2.60324, -1.76182, -0.715826, -1.61243, -2.47465, -0.951122, 0.0244504, 0.00209509, -0.00076635, 0.000596912, -0.000498659, 0.000416303, 0.0115519, -0.294886, -1.17866, -2.08318, -2.85655, -4.44435, -4.6475, -3.91347, -5.36685, -7.62528, -3.09503, 3.84625, 3.42866, -2.78121, -6.05265, -3.97798, -3.38916, -1.30218, -0.199203, -1.21128, -2.92185, -1.58999, -0.171273, -0.0227625, 0.00509398, -0.00018302, 0.00068395, 0.000186865, -0.0861912, -0.302159, -1.40934, -3.28399, -3.5626, -3.14778, -3.66888, -4.22366, -4.79998, -9.83435, -4.3246, -0.206207, 4.0904, 1.9268, -2.26545, 0.0545504, -1.32735, 2.62373, 3.8012, -1.87527, -3.5085, -2.27316, -0.0796582, -0.110735, -0.111128, 0.000194617, 0.00048619, -0.419042, -0.995546, -0.797061, -1.9218, -1.83784, 0.0346923, -0.837811, -0.137753, 0.0247724, -1.96969, -6.32464, -1.89705, 1.69184, 2.81255, 1.87146, -1.12202, 0.422403, 1.90583, 4.13195, 4.2128, -1.24343, -0.305652, 1.03734, 0.61209, -0.169152, -0.112485, -3.43944e-05, -0.000511643, -0.363294, -0.943306, -1.37971, -2.35616, 0.00730658, 1.92679, -1.79389, -0.0188099, 0.290639, 1.26694, 2.12233, 0.29246, 1.51731, -2.7006, 0.361285, 3.53022, 4.48252, 2.42342, 1.35268, -1.27832, -1.71352, 0.384453, 2.19631, 0.825681, 0.00260096, 0.000907773, -0.000802606, 0.000427656, -0.0113106, -0.0303835, -0.464419, -1.18941, 0.34697, 0.22417, -0.934325, -1.90665, 0.603718, -2.17212, 0.254805, 2.14928, 0.757431, 3.30895, 2.66497, 2.74537, 3.51107, 3.152, 2.83485, 1.06934, -0.932582, -0.56847, 0.283186, 0.0671215, 0.00765699, 0.000667104, -0.0005786, -9.8178e-05, -0.000270486, -0.00826888, 0.0254178, 0.232173, -1.08945, 0.0762683, 3.27603, 0.246726, -2.46626, -1.0944, -0.987061, -3.10462, -1.72809, 1.06223, -0.971417, -0.653317, 0.799312, 0.426507, -0.445547, 0.115536, -0.423407, -0.370177, 0.0185177, 0.00236215, 0.000699576, 0.000841121, 0.000516099, -0.000310404, 7.86462e-05, -0.00373161, -0.0168043, -0.0174782, -0.162362, -2.53081, -3.3629, -2.0034, -5.3032, -4.32704, -2.65592, -6.76359, -5.58461, -4.75837, -5.46634, -3.50211, -2.98401, -2.2266, -2.10527, -1.73151, -0.325131, -0.234209, 0.00970171, 0.000614374, 0.0491198, -0.000922666, 0.000839412, -0.000679189, 0.000660085, 0.000457198, -0.00324527, -0.0176881, -0.0240989, -0.0165809, -0.0346532, 0.268711, 2.64851, 1.77361, -2.18867, -6.48823, -7.38036, -8.25838, -4.39553, -2.57855, -2.34565, -1.00575, -0.305318, -0.513066, -0.498379, -0.0583418, 0.011032, 0.0024261, 0.000160863, -0.000744621, 0.000612049, -0.000102939, -0.000727103, -0.000455061, -0.0090875, -0.0383556, -0.0319537, -0.0170858, -0.018968, 0.0138799, -0.0857808, -0.285699, -1.75061, -3.48455, -2.82134, -5.19458, -3.41017, -1.01413, -1.15372, -0.262813, -0.0189467, 0.000932554, -0.000821894, -0.000228126, -0.000729545, -0.000374065, -0.000557176, 0.000181494, 0.000550035, -0.000838496, -0.000542161, -0.00515451, -0.0267488, -0.0146985, -0.00216234, -0.00984407, -0.00739046, 0.000132041, -0.019133, -0.121865, -0.16163, -0.545789, -0.590978, -0.658853, -0.662244, -0.162126, -0.0188875, -0.000963256, -0.000847041, 0.000160253, -0.000182226, 3.51878e-05, 0.000746696, 0.000725883, -0.000313456, -0.000465499, -0.00025248, -0.000180334, -0.000245277, 0.000990051, 0.000118748, -0.00038847, 0.000663869, 0.000565416, -0.000149815, 0.000194433, -0.000171667, 0.000374737, 0.000127111, -0.00201627, 0.000289287, 0.00110867, -0.000431618, 0.000173559, 0.00027195, -0.000893246, 0.000152318, 0.000425947, -0.000639576, 0.000689566, -0.000830378, -0.000834223, -0.000567797, -0.00093939, 0.00083758, 0.000314615, 0.000511704, 0.000780328, 0.000705252, 0.000996033, -0.00062212, -0.000346171, -0.000355754, -0.000285806, 0.000322001, 0.000713309, -0.000204627, 0.000605396, -0.00011655, 0.000328349, -0.000600818, -0.000721366, 8.79849e-05, 0.00088464, 0.00063213, 0.0004644, -0.000590808, 0.000556932, -0.000307718, -8.71914e-05, -2.12104e-05, -0.000667104, -0.000864498, 0.000542344, -0.000951903, -0.000713553, 0.000461287, 0.000838069, 0.00069866, -0.000898975, 0.000948899, -0.000499542, -0.0117358, -0.0597383, -0.365241, -0.220724, -0.097147, -0.160267, -0.0203804, -0.00030516, -0.000661974, -0.000318906, -0.000584304, 0.000529397, 0.000618519, 0.000286538, 0.000186987, 0.000655568, 0.000725761, -0.000865352, -3.48216e-05, 7.04062e-05, 0.000652882, -0.000441145, 0.000261391, 0.000381878, -0.000800043, 0.000166278, 0.0792957, 0.384817, 0.342237, 0.0649726, -0.600992, -0.441185, -0.68175, -0.808327, -0.352558, -0.120069, -0.0762537, -0.231819, -0.15132, -0.0366941, -0.149809, -0.0533311, -0.0758411, -0.0495546, 0.000297952, -0.000694937, -0.000626148, 0.000846919, -0.000369854, 0.000537523, -0.000558153, 0.0122023, 0.0857322, -0.123999, 0.122433, 0.699086, 0.645719, 0.36562, 0.00867601, -0.138011, 0.180302, -0.454339, -0.514337, -0.188339, -0.312489, -0.543672, -0.342052, -0.569179, -0.269503, -0.128969, -0.0769752, -0.0466568, -0.000876766, -0.000361614, 0.000688833, 0.00053502, 0.000575549, 4.56862e-05, -0.0313581, -0.110857, -0.124202, -0.205844, 0.231609, 0.653167, 0.538753, 0.107836, 0.368659, 0.11517, 0.139344, -0.597504, -0.645484, -0.950823, -1.58313, -1.89332, -1.04452, -0.826411, -0.446527, -0.137124, -0.10702, -0.0583401, -0.00736048, -0.00759432, -0.000631947, 5.20341e-05, -0.000897763, -0.0030212, -0.190505, -0.442049, -0.13166, -0.116428, -0.119269, 0.195096, 0.575941, -0.438171, -1.14854, -0.80712, 0.155575, -0.160548, -0.903963, -1.09069, -1.3434, -1.79279, -1.0229, -0.711275, -0.649019, -0.208422, -0.115881, -0.0347279, -0.0278134, -0.0114948, 0.000102573, -0.000641469, 0.000818171, -0.0367861, -0.124456, -0.493218, -0.438866, -0.340724, 0.211653, 0.193212, 0.0324738, -1.3499, -1.31568, -0.760535, 0.360383, -0.400154, -0.4851, -0.84037, -1.15963, -0.868933, -0.221211, -0.367884, -0.495474, -0.256092, -0.059083, 0.0268674, 0.0010383, 0.000896847, 0.000167272, -0.00050267, 0.000551683, -0.0406733, -0.126567, -0.945907, -0.449024, 0.0784504, 1.02119, 1.16166, -0.241278, -0.798125, -1.01175, -0.300023, -0.280407, -1.08569, -1.42734, -1.29544, -1.07884, -0.930548, -0.399248, -0.204305, -0.166311, -0.423396, -0.0956228, 0.0182967, 0.0189868, 0.00050792, -0.000976928, 0.000882687, -0.000164562, -0.00385875, 0.0220252, -0.818966, 0.0545524, 0.843931, 1.43457, 1.3553, 0.583554, -0.294082, -0.214883, -0.210897, -0.184214, -0.969882, -1.44615, -1.41112, -0.638258, -0.795774, 0.0794197, -0.207365, -0.135374, -0.734117, -0.495303, -0.281823, 0.0014916, 0.000889157, 0.00016831, -0.00156162, 0.00061333, 0.0397952, 0.0237118, -0.323674, 0.994881, 1.07516, 1.48006, 1.20632, 0.41695, -0.630944, -0.732677, -0.433828, 0.122665, -1.55718, -1.48453, -1.15936, -0.901192, -0.380424, 0.220869, -0.458254, -0.461976, -0.836841, -0.471661, -0.249109, -0.00284385, -0.00824274, -0.000760186, -0.000743481, -0.000779492, 0.146671, 0.00612962, 0.247647, 0.940823, 0.120134, -0.400107, -0.834011, -0.635076, -1.29792, -1.23237, -1.29399, 0.0430126, -0.0914489, -0.864133, -0.81123, -0.767208, -0.411404, 0.0689342, -0.716937, -0.957563, -0.856002, -0.183372, -0.0534645, -0.0514101, -0.00137188, 0.00036552, 0.000299417, 0.000657033, 0.0432259, -0.0411119, -0.11034, -0.634632, -1.45186, -1.76675, -1.89892, -1.3761, -1.94953, -1.83414, -1.60672, -0.222423, -0.148218, -0.136638, -1.44307, -1.46653, -0.705052, -0.871637, -0.881036, -1.11678, -0.792823, -0.172228, -0.146746, 0.044529, 0.000580188, 0.000764824, 0.000356182, -0.000998474, -0.0983856, -0.251728, -0.770783, -1.64023, -2.19346, -1.96944, -2.07379, -1.83857, -1.83652, -1.74885, -1.15615, -0.651233, -0.79544, -0.589244, -1.23051, -0.737764, -0.527939, -0.627479, -0.99881, -1.44938, 