{
	"num_layers" : 4,
	"cost_function" : "quadratic",
	"layers" : [
		{
			"num_input_layers"  : 784,
			"num_output_layers" : 100,
			"activation" : "relu",
			"weights" : [-0.000997497, -0.000705008, -0.000126621, 0.000219275, 8.48109e-05, -0.000922849, 0.000449873, -0.000837031, -0.000723136, 0.000738884, 0.000627674, 0.000917661, -0.000175451, 0.000796075, 0.000209143, -0.000162816, -0.000850764, -0.000496628, -0.000702628, 0.000139012, -0.000901852, -0.000896542, 0.000546251, 0.000153722, 0.000194311, 7.73644e-05, -0.000589587, 0.000575243, -0.000113559, -0.00060564, 0.000395306, 0.000710807, 0.000799249, 0.000762139, -0.000692862, 0.000730766, 0.000982971, 0.0008764, -0.000497116, -8.10877e-05, 0.000163732, -0.000328654, 0.000140355, 0.000922422, -6.43941e-06, 0.000569445, 0.000428022, 1.37333e-06, 0.000300089, 0.000731376, -0.000124668, -0.00072045, -0.000663259, -0.000693899, 0.000542344, 0.000993835, 3.28684e-05, -0.000319071, -0.000710074, -0.000255776, 0.000243507, -0.000268593, 2.98776e-05, 0.000744255, 0.000999512, 7.13218e-05, -2.54219e-05, 7.06503e-05, 0.000757317, 0.000302835, -0.000112705, 0.00091345, -0.000350566, -0.000733757, 0.000332011, -0.000174108, -0.000265908, -0.000709647, -7.63878e-05, 0.000974548, -0.000754936, 0.000442122, -0.000422407, 0.000389203, 0.00084228, 0.000776666, 0.00076043, 0.00021305, -0.000138951, 0.000587573, -0.000260842, 0.000952574, 0.000562853, 0.000656606, -0.000168249, -0.000272744, 0.000384625, 0.000503891, -0.000342998, 0.00052031, 0.000189245, 0.000637806, -0.000615711, 0.000427778, 0.000515427, 0.000804926, 0.000984008, -9.06705e-05, -0.000172521, 0.00024015, 0.000477096, -0.000962279, 0.000765679, -8.3224e-05, 0.000185461, -0.000250893, 0.000395917, 0.000796319, 0.000981689, 9.28068e-05, 0.000460067, 7.84631e-05, 0.000539232, 0.000481491, -0.000374371, -0.000548753, -0.000417829, -5.86803e-05, -0.000263355, -0.000657741, 0.000136376, 0.000361066, 5.99689e-05, -0.00083758, -0.00022483, 0.000743217, -0.000457259, -0.000431623, -0.000122532, -0.000545946, -0.000945067, 0.000700003, -0.000130284, 0.000472396, -0.000357036, 0.00043675, -0.000519883, -0.000359416, 0.000779046, 0.000646413, 0.000987487, 0.000914243, 0.000611126, -0.000565155, -0.000528419, 0.00061342, 0.000214045, -0.000602533, -0.000936805, -0.000332007, -0.000165904, -0.000136578, -0.000808943, -0.000126746, -0.0008493, -0.000841853, 0.000841182, 0.000141026, -0.000487167, 0.000838069, 0.000793756, 0.000741325, 0.00019779, -4.88601e-05, -0.000117161, -0.000440291, 0.000658181, -0.000716937, -0.000757362, 0.000344516, 0.000772347, -0.000392297, 0.000559511, 0.000959309, -0.000903912, -6.13599e-05, 0.000317596, -0.000372999, -0.000893763, -0.000226669, 5.32091e-05, -0.000814175, -0.000538194, -0.000645863, 0.000606433, -0.000660329, 0.000242775, -9.38444e-05, 0.000363506, 0.000902402, -0.000793207, -0.000104831, -0.000486068, 5.20983e-05, 3.66248e-05, -0.000725764, 0.000296972, 0.000580355, 0.000592504, -0.000262245, -0.000744422, 0.000143854, -0.000841044, 0.00096303, -0.000522381, 0.000508289, 0.000695494, 0.000869845, 0.000857201, -0.000195532, -0.000912778, -0.000135655, 0.00033726, 0.000779595, -0.000601062, -0.000907407, 0.000161168, -0.000959532, 0.000117283, 0.000687613, 0.000123447, -0.000691502, -0.000594513, 2.02916e-05, -0.000181131, -0.000331639, -0.000644932, -4.69522e-05, 0.00089602, -0.000181972, 0.000228522, -0.000918959, -0.000701911, -0.000682227, 0.00071846, -7.87619e-06, -0.000475814, -0.000158666, 0.000189184, -0.000490097, 0.000873409, -0.000571581, 0.00093646, 0.000949339, -0.000305643, 0.000728996, 0.000427229, 0.000360759, -0.000362957, -0.000742729, -0.000444574, 0.00078349, -9.76984e-05, -0.000358615, 0.00089229, 0.000497314, -0.000507561, -0.000129112, 0.000931985, -0.000734229, -0.000542663, -0.000449668, 0.0003459, 0.000594564, -0.000847896, 0.000147008, 0.000230384, -2.46284e-05, 0.000480392, -0.000757866, 0.000361003, -0.000859004, 0.000146641, 0.000779229, -0.000564745, 0.000309915, -9.37834e-05, -0.000684622, -0.00067217, 0.000439882, 0.000816654, 0.000272084, -0.000660374, -0.000523249, -0.000518725, 0.000180825, 0.000445525, 0.000603546, 0.00031138, 0.000940062, -0.000451253, 0.000495199, -0.000235387, 6.03961e-05, -0.000275552, -0.00044145, 0.000599719, 0.000915036, 0.000479232, 0.000196142, 0.000127354, 0.000990905, -8.88089e-06, -0.000956114, 0.000458296, 0.000138096, -0.00063469, -0.000771764, 0.000755449, 0.000820933, 0.000882547, 0.000610658, -0.000522512, 0.000363628, 0.000248695, 4.56252e-05, 0.00064153, -0.000791375, 0.000848469, -0.000376122, 6.09637e-05, -0.000841548, -1.41911e-05, 0.00092053, -0.000401654, -0.000370342, -0.000851497, -0.000743889, -0.000578417, -9.79339e-05, 0.000245033, -6.52791e-05, 0.000246315, -0.000631119, -0.000138319, 0.000501102, -0.000409202, -0.000213337, -0.00049315, 0.0009828, 1.92705e-05, -0.000475753, -0.000128758, 0.000155065, -0.000595447, -0.000184362, -0.000932896, -0.000225177, -0.000834668, -0.000993347, 0.000879635, 0.000835566, 0.000519272, 0.000806879, -0.000973083, -0.000174169, 0.000740226, 0.000539109, -0.000601978, 0.00096765, -0.00060094, -0.000610303, 0.000310179, 0.000473697, 0.000618768, 0.000657277, 0.00075125, 0.000789448, -0.000678759, 4.83061e-06, 0.000642488, 0.000858453, -0.00051677, -0.00029075, -0.000922215, 0.000355285, 0.000378748, 0.000908628, 0.000571886, -5.86261e-05, 0.000831172, -0.0001442, -0.000676504, -0.000476608, -0.000530137, 0.00016654, -0.000547838, 0.000491256, 0.000971252, -0.000929077, -0.000744414, -2.46703e-05, 0.000313395, -0.000341655, -0.000547777, -0.000909679, -0.000975496, -0.000863219, -0.000556752, -0.000804543, -0.000563951, -0.00092407, -0.00044575, 0.000135618, 0.000927842, -0.00034373, -0.000720817, 0.000488876, 0.000178503, -7.62047e-05, -0.000452193, -0.000169836, -0.000577013, 3.72631e-05, 0.000960082, 0.000967406, 0.000693663, -0.000480097, 4.39962e-05, 0.000198525, 7.27256e-05, -0.000496567, -0.000501328, -0.000442427, -5.43405e-05, 0.000989661, 0.000455669, -0.000930299, -0.000752859, -0.000909609, 0.000721024, 0.000999592, -0.000285444, -0.000720206, -0.000980834, 9.21964e-05, 0.000131504, -0.000353435, -0.000739555, -0.000159215, 0.000587878, -0.000857662, 0.00077514, 0.000721183, 0.000721662, -0.000166459, 0.000571736, 0.000448898, -2.93893e-05, -0.000855464, -0.000420087, 0.000227271, -0.000174169, 0.000120784, 0.000912064, 0.000997985, 7.69073e-05, -0.000333937, 0.00010339, -0.000306132, -0.000933105, 0.000797845, -0.000639821, -0.000521104, -6.37532e-05, 0.000898129, -0.000177343, 1.32756e-05, 0.000878475, -3.86059e-05, -0.000198401, -0.000308939, -0.000612363, 0.000846938, -0.00096399, -0.000104282, 0.000507065, -0.000477828, 0.000936277, -0.000751152, -0.000916746, -0.000674551, 0.000844966, -0.000140192, 1.19026e-05, -0.00079605, 0.000277236, -0.000421142, 0.000489792, -3.30515e-05, -0.000828852, 0.000239723, 0.000264504, 0.000540574, 0.000146458, -8.12098e-05, -0.000115513, 0.000211951, 0.00074456, -0.000821284, 0.000949391, 0.000883194, -0.000315428, -0.000679067, 0.000357768, -0.000685171, -0.000891476, 0.00063506, 0.000561704, -0.000612181, 0.000838166, 0.000649052, -0.00018691, 0.00034298, 0.000619124, 0.000378582, 0.000412152, -0.000967711, 0.000372112, 0.000578661, 0.000963927, 0.000174596, 0.000444685, -8.14844e-06, 0.00062157, 0.000600085, -0.000140233, -0.0004008, -0.000659723, -0.000496115, 0.000567317, 0.000869991, 0.00012418, 0.000689566, -0.000311536, 1.13296e-05, -0.000719785, 0.000831241, -0.000222258, 0.000221005, 0.000666806, -0.000288994, -0.000941832, -7.004e-05, -6.05792e-05, 0.000477218, -0.000316446, -0.000936949, 0.000807794, -0.000111118, -1.90741e-05, -0.000719718, -0.000718925, 0.000570055, 0.000703787, 0.000230628, -8.01812e-05, -0.000741306, -0.000717394, -0.000197866, 8.38292e-05, -0.00094868, 6.86404e-05, 0.000368346, 0.000186015, -0.000333943, 0.000597334, -0.000955109, -6.24461e-05, -0.000323954, -0.000177953, -6.71102e-05, 0.000602771, 0.00077337, 0.000376934, 0.000373577, -0.000754692, 1.05899e-05, 0.000819636, -0.000804865, 0.000980163, 5.43535e-05, -0.000116062, 0.00096466, -0.00077698, -0.000564238, 0.000730973, 0.000238422, -6.01523e-05, 0.000794627, -0.000806863, -0.00019277, -0.000102252, -0.000859863, 3.4044e-05, 0.000954462, 0.000914182, 9.08536e-05, -0.000810053, -0.000299234, 0.000109165, 0.000130528, 2.45064e-05, -0.000946043, 0.000151524, 0.000855098, -0.000424116, -0.00073925, -0.000488449, -0.000776055, 0.000808527, 5.60625e-05, 0.000710473, -0.000189413, 0.000863253, 0.000913648, 0.000570381, -0.000950117, -0.000695409, -0.000706227, 0.000462783, -0.000508796, 0.000374554, 0.000896176, 0.000561449, 4.84939e-05, -0.00075811, -8.9816e-05, 9.13419e-05, 0.000247047, 0.000249245, -0.000738456, -0.000423017, 0.000475997, -0.000834284, 0.000864864, -0.000905881, 0.000237892, -0.000563902, -0.000127466, 0.000518785, 0.000398051, 0.000431517, 0.000927687, -0.000219621, -0.000562327, -0.000301793, 0.000406753, -0.000896359, -0.000304361, -0.000792474, 0.000679312, -0.000730216, -0.000369915, -0.0003914, 0.000351238, -0.000142125, 5.92364e-05, 0.000474899, 0.000516709, -0.000501694, 0.000415204, 0.000555895, -0.000991821, 0.000122349, 0.000993591, 2.6679e-05, 0.000646104, -0.000788754, -0.000797604, 0.000738858, -0.000509101, 4.95166e-05, -0.000184401, 0.000469832, -0.000910703, -3.03659e-05, -0.000783319, -0.000828913, 0.000726615, 0.000605701, -0.000345195, -0.000778253, -0.000322916, 0.000143101, -0.000508164, -0.000324015, -0.000546922, -0.000432295, -0.000546983, 0.000513901, 5.50859e-05, 0.000916379, 0.000876705, 0.000891232, 0.000221961, -0.000473678, -3.5371e-05, -0.000610462, -0.000319254, 0.000285989, 3.17698e-05, 0.000266335, -0.000603076, -0.000115696, -0.000243507, -0.000295267, -0.000175817, -0.000938902, -0.00056975, 6.36921e-05, -0.000845637, 0.000857051, -0.000791986, 0.000127903, -0.000432234, 0.000863338, -0.00064214, -0.000642079, -0.000517014, -0.000527757, 0.000511216, 0.000140049, -0.000193274, 0.000126682, -8.73135e-05, 3.63475e-05, 0.000184057, -0.00042967, -0.000329691, 3.45775e-05, -0.00075164, 9.76897e-05, -0.00099469, 0.000798578, 0.000871395, -0.000195898, 0.000502304, 0.000917539, 0.000412885, 0.000835566, 0.00035905, -0.000843257, 0.000971129, -0.000361064, 0.000636586, 0.000707266, -0.000367351, -0.000788202, -0.000490646, -0.000564318, -0.00027781, -0.000647389, -0.000485031, 0.000134739, -0.000947264, 0.000910581, -0.000195532, 0.000772637, 0.000175756, 3.5493e-05, 0.000391949, 0.000743461, 0.000630787, 0.000428327, 0.000405011, -0.00088287, -0.000804376, -0.000409589, 0.000334391, 0.000889401, 0.000136631, -0.00092584, 0.000284158, 0.000127171, 0.000899167, -0.000535142, 0.000912229, 0.000969665, -0.000495834, -0.000602588, 0.000613086, 0.000268532, 0.000522752, -0.000906735, 0.000214454, 0.000849422, -3.12815e-05, -0.000292032, 0.00021659, -0.000989624, 0.000641285, -0.000505234, -0.000470138, -0.000227638, -0.000625294, -0.000945494, 0.000725028, 0.000128758, 0.00028843, 0.000585803, -0.000717277, 0.000295755, 3.708e-05, -0.00086523, 0.000843989, 0.000962035, -0.000939573, -0.000154576, 0.000459822, 0.000539048, 0.000833369, -0.000790887, -0.000158483, 0.000410932, -0.000884091, 0.000315165, 0.000610523, 0.000184484, -0.000796625, 0.000100253, -0.000451704, 0.000939024, -0.000823908, 0.000598987, -0.000153417, 0.000476608, -0.000850337, 0.000193396, 0.00035728, 0.000572069, 0.000524766, 0.000863338, 0.000842402, 0.000222633, -0.000762871, -0.000563707, -0.000775933, 0.000898434, -0.000992126, 0.000837336, 0.000834712, -0.000207862, 0.000593249, -0.000660756, -0.000333293, -0.000930967, -0.000965636, -0.000187597, -0.000377178, -0.000882809, 0.000907895, 0.000975036, -0.000234169, -0.000202673, -0.000424726, 0.000642689, -0.000431379, -0.000307413, 0.000433515, 0.00097882, 0.000164464, -0.000640919, 0.000164403, -0.000255531, -0.000403546, 0.000575365, -1.49236e-05, -0.000451643, 6.80868e-05, -0.00040727, 0.000897885, -0.000903134, -0.000807001, 0.000385113, 0.000940123, 0.000444014, -0.000755119, -0.000100864, 0.00043437, 0.000241432, 0.000407697, -0.000696036, -0.00076165, 0.000988525, 2.54219e-05, -0.000758354, -4.91348e-06, 0.000282144, -0.000147679, -0.000923399, -0.000617542, 6.69881e-05, -0.000697317, 0.000146214, -0.00063628, -0.000114597, 0.000701163, -0.000989807, 0.000437239, 0.000127293, 0.000532291, 0.000701028, 0.000886318, -0.000719852, 0.000691049, -2.57271e-05, 3.01828e-05, -0.000820307, -0.000267678, 0.00055736, -0.00052794, 0.0002584, 0.000121311, 0.000400983, 0.000351176, 0.000796991, -0.000516709, 0.000928282, 0.000591662, 0.00017362, -0.000146214, 0.000284951, 0.000152745, 0.000114231, 0.000928343, 0.000589642, 0.000278873, -5.76648e-05, -0.000687483, -0.000817108, 0.000749326, -0.00017119, -0.000227279, -0.000120359, -0.000870498, 4.3425e-05, 0.000484778, 0.000215796, 1.96844e-05, 0.000202612, 0.000285257, 0.000700064, 0.000303812, 0.000519578, -8.00501e-05, 6.44246e-05, 0.000402509, -0.000943419, -0.000704276, 0.000513292, -0.000478815, 0.000973201, 0.000729056, 0.000973538, 0.000900083, -0.000223938, 0.00019689, 0.000344906, -0.00093448, 0.00057112, 0.000586957, 0.000750601, -0.000921565, -0.000689648, 0.00094616, 0.000785394, -0.000215186, 4.38551e-05, -0.000268777, 0.000766045, -0.000935057, 0.000168859, 5.99078e-05, -1.65716e-05, -0.000914243, -0.000318888, 0.000959801, -4.98827e-05, -0.000451902, 0.000423308, 0.000618556, -0.000347397, 0.000939552, -0.00066312, -0.000365505, 0.000798777, -0.000218297, -0.000289419, 0.000266325, -0.00092994, -0.000118291, 0.000429654, -0.000318339, -0.000630238, -0.000418928, -0.00077221, -0.000791498, -0.000926389, -0.000992981, -6.3509e-05, -0.000414106, -0.000718925, -0.000677786, -0.000265175, 0.000212526, 6.32567e-05, -2.62301e-05, 0.000398954, 0.00039668, -0.000284996, -5.49475e-05, -0.000445902, 0.000608787, 3.29378e-06, -0.000995931, -7.74456e-05, -0.000272415, -0.00058211, 0.000954081, 0.000572741, 0.000291971, 0.000420331, 0.000882321, 0.00017246, -0.000248573, 0.000695486, 0.000412336, 0.000236671, -0.000284036, 0.000401105, 0.000953001, 0.000377972, -0.000794733, -0.000582788, 0.000947442, -0.000443598, -0.000101263, 0.0005965, -0.000875129, -0.000669484, -0.000611596, -0.000984308, -0.000250232, -0.000894446, 0.000422889, -0.000778163, -0.000129022, -0.000615345, 0.00016306, 0.000486068, 0.000572375, -0.000981323, -0.000570482, 5.14847e-05, 0.000223487, 0.000456282, -4.68459e-05, 0.000384503, -0.000270974, 0.000993652, -0.000375225, 0.000423872, -0.000221297, 2.44252e-05, -0.000254891, 0.000830394, 9.73595e-05, 0.00029074, 0.00027677, -0.000759983, 0.000695774, -0.000868831, -0.000910276, -0.000492386, -0.000881977, -0.000267293, -0.000783929, 0.000963622, -0.000304483, 0.000379986, 9.74456e-05, -0.000340495, 0.000793207, -0.000295083, 0.000835749, -0.000379803, 6.18e-05, -6.25935e-05, -0.000557054, 9.30798e-05, -0.000312741, 0.00015479, 9.08686e-05, 0.000797655, -0.000359621, -0.000467395, 0.00036314, -0.00082165, 0.000928404, 0.000593249, 0.0005009, -0.000351451, 0.000841091, 0.000456936, 0.000657277, 0.000847407, 0.00020603, 9.23795e-05, 0.000145054, 0.000884945, 0.000634266, -0.000435224, 0.000687246, 0.000594775, -0.00022721, -0.000712333, -0.000333176, 0.000782619, 0.000553362, -0.000728039, -0.000622873, -0.000522779, 0.000443121, 0.000376795, 0.000271828, -0.000819452, 0.000695364, -0.000441694, 0.000214148, 0.000115421, -0.000404248, -0.000879861, -0.000272011, -0.000520737, -0.000281716, -3.53099e-05, -0.000752739, 0.000690909, -0.000830195, 0.000840754, 0.00036607, 0.000642262, 0.000843562, -0.000404645, -0.000911545, 0.000947844, -0.000332712, 0.000423208, -0.000921018, -0.000804751, -0.000145595, -0.000883745, 0.000911789, 0.000193975, 0.000154086, 0.000315714, -0.000677602, -0.000773217, -0.00090176, 0.000757701, 0.000454878, -0.000701041, 0.000256874, 0.000528428, -0.000885678, 0.000388043, -0.000517014, 0.000310282, 1.60833e-05, 0.000694632, 0.000165929, 0.000634022, -0.000964827, -0.000108402, 0.00047956, -0.000872066, 0.000457686, 0.000375591, 0.000633495, -0.000232631, 0.000228111, 0.000513825, 0.000121929, 0.000127304, -0.000796136, -0.00010114, 0.0009747, 0.000627508, 0.000399518, 0.000593799, -0.000993408, -0.000212439, 0.000241554, 0.000384808, -0.000932798, -0.000526353, -0.000183813, 3.12204e-05, 0.000291787, 0.000149995, 0.000119699, 0.000514543, -0.000649559, 0.000128574, -0.000690725, 0.000289895, -0.000301126, 0.000818753, -4.94741e-05, 0.000533174, 0.000826823, -2.25462e-05, 0.000271714, 0.000395581, -0.000488723, 0.000960201, -0.000591235, 0.000248634, -0.00093762, -3.10984e-05, 0.000659291, 0.000937254, 0.000575976, -0.000696402, 0.000730399, -0.000970824, 0.000183325, 0.000612221, 0.000989594, 6.48405e-05, 0.0003008, 0.000140233, 0.000715079, -0.000192358, 0.000880001, -1.93793e-05, 0.000343942, -0.000507494, 0.000656898, -0.000676341, 0.000724054, -0.00092172, 0.000404671, -0.000290821, 0.000364788, 0.000496078, 0.000179296, 0.000271889, 0.000683157, 0.000898984, 0.000572863, 0.000995849, -0.000742119, -8.652e-05, -3.72631e-05, -3.77012e-05, -0.000922513, 0.000888419, -0.000238624, 0.000600635, -0.000208655, 0.000145848, -0.000333659, 0.000937193, 0.000957701, 0.00022953, 0.000909958, 0.000845817, -0.000705045, -0.000843819, -0.000488631, -0.000699759, -6.53401e-05, -0.000333598, -0.000477523, -0.000381573, -0.000336039, 0.000471419, 0.000281655, 0.000718253, 0.000183081, -0.000493637, -0.000337626, 0.000364472, -0.000648457, -0.000821284, -0.00067687, 0.000419965, 0.000439802, -0.000380963, -4.23292e-05, 9.47295e-05, -0.000623111, -7.05665e-05, 0.000544021, -0.000803689, 3.50113e-06, -0.000563406, -0.000401837, -0.000617847, -0.000679312, 0.00093762, 0.000417341, -0.000596606, 0.000737663, -4.64187e-05, 0.000336467, 0.000361797, -0.000674551, -2.19428e-05, -2.50557e-05, 0.000955614, -0.00093527, -0.000272995, 0.000487411, 0.000731376, 9.70183e-05, 0.000389613, 0.000813299, -0.000667743, -2.77914e-05, 0.000876306, 0.000927687, -0.00024939, 0.000903139, -0.000926817, -0.000908078, -0.000423872, -0.000989563, -0.000914853, -0.000900571, 0.000244179, -0.000424726, 0.000492172, -0.000468673, 0.000289834, 0.000289773, -0.000403729, -0.000997009, 0.000595314, 0.000505448, 0.000672143, -0.000584828, -0.000359688, 0.000484718, -0.000782975, -0.000796668, 0.000751924, 0.000649297, -0.000798659, 0.000589657, -0.00064338, 0.000833064, 0.000318583, 0.00082989, 0.000226112, -0.000473495, -0.000767693, -0.000535508, 0.000730644, -0.000866878, 0.000831416, -0.000429487, 8.86563e-05, -0.000784356, -0.000523545, -0.000990417, 0.0006157, -0.000253059, 0.000250512, -0.000321857, 0.000974907, 0.000359952, 0.000209648, 0.000758432, -0.000571931, -0.000401176, -0.000366524, -3.14075e-05, -0.000915647, 0.000166906, -0.000727653, 0.000809198, -0.000851375, 0.000176672, -0.000400006, -0.000181677, 0.000175573, 0.00040257, 6.33869e-05, -0.000181433, -0.000683157, -0.000471664, 0.000331645, -0.000832331, -0.000428204, -0.000602425, -0.000453879, -0.000992293, -0.000963301, 0.000265436, -0.000427456, 0.000518444, 0.00015814, 4.67059e-05, 0.000248451, 0.000162511, 0.000976989, -0.00043553, 0.000632069, 0.000937315, 0.000383038, -0.000196081, 0.000256752, -0.000373089, -0.000635731, -0.000839961, 0.000377667, 5.00198e-05, 0.00025602, 0.000687796, -0.000777568, 0.000310062, -9.39128e-06, -0.000648218, -0.000758538, 4.6374e-05, -0.000650731, -0.00072182, 0.000358972, -0.00031595, 0.000211158, -0.00099707, -0.000779962, -0.000319132, 0.000800409, 0.000720267, 0.000442854, -0.000218177, 0.000941221, -0.000463607, -0.00013126, 0.000266457, -0.000695181, 0.00071746, -0.000188452, -0.000800409, 0.000660146, 0.000939451, 0.000307387, -0.00031933, -0.000876964, -0.000461973, 0.000365831, -0.000904074, -0.000590826, -0.000238717, -0.000780999, 0.000365032, 7.94397e-05, 1.41911e-05, -0.000429609, -0.000807123, 0.000793146, -0.000886105, 0.000847407, -0.000679617, -0.000442366, -0.000462691, 0.000449812, -0.000226783, -2.2248e-05, 0.00067156, 0.001, 0.000112278, 0.000505966, 6.36311e-05, -0.000407086, -0.000316507, -0.000307718, 0.00067101, -0.000953673, 0.000868099, -0.000565416, 0.000111057, -0.000849422, 0.000332316, 0.000228248, -8.84121e-05, -8.13318e-05, 0.000277749, 0.000416364, 0.000760308, 0.000836238, -0.000309061, -0.000560411, -0.00024485, 0.000111484, -0.000406293, -0.000913572, -0.000345683, -7.44346e-05, 0.000293008, 0.000742973, 0.000126011, -0.000317972, 0.00063097, 0.000642689, 0.000998718, -0.000742851, -0.000765252, -0.00088287, -0.000489059, 0.000249916, -0.00023307, -0.000154698, -0.000438459, -0.000768181, 0.000174902, -0.000896237, 0.00095941, 0.000997253, -5.8504e-05, -0.000983032, 0.000673452, -0.000187048, -0.000665456, 0.000806879, 8.29798e-05, 0.000668691, 0.000657155, 4.30616e-05, 0.000227393, 0.000526475, -0.000502548, -0.000107089, -0.000943846, -0.000428755, -2.11493e-05, 0.000371319, 0.000679006, 0.000460616, 9.79644e-06, -0.000409162, 0.000615711, -0.000425336, 0.000533982, -0.000988159, -0.000953734, 0.000266335, 0.000780267, 0.000692312, 6.09455e-05, 0.000111057, -0.000487472, 0.000537645, 0.000909909, -0.000613392, -0.000716849, 0.000155736, -0.000855464, -0.000892392, -0.000621448, 0.000388043, 0.000710685, 0.000100803, -0.000921751, 0.000628407, 0.000576464, 0.000202124, -0.000347087, -0.000277505, 0.000553514, 0.000829585, 1.75481e-05, -0.000776849, -0.000777093, -0.000766717, 0.00098175, -0.000359722, 0.000185339, 0.000745415, -0.00050029, 0.000690725, 0.000310953, -0.000970153, 0.000920286, -0.000451765, -1.05289e-05, 0.000333048, -0.000763604, -0.000906186, -0.000619922, -0.000267067, -0.00066393, 0.000165502, 0.000661672, -0.000610096, -0.000748527, -0.00019187, 0.000282449, 0.000796136, 0.000409467, -0.00047618, -0.000789727, -0.000974181, -0.000118686, -0.000478439, -0.000817499, 0.000985534, 0.000632984, 0.000967528, 0.000956114, -0.000336711, -0.000225135, 0.000234657, 0.000557421, 0.000379681, 0.000811945, -0.000846797, -0.000467635, -0.000963012, -0.000106418, -0.000739677, -0.000803461, 0.000369854, 6.38752e-05, 5.02029e-05, 0.000885006, 0.000194494, -0.000488632, -0.000775933, 0.000202124, -0.000340495, -0.000180944, 0.000940245, -0.000727897, -0.000504563, 0.000214637, 6.39363e-05, 0.000988647, 0.00026487, -0.000179846, 0.000417585, -0.000735282, 0.000612293, -9.76287e-05, -0.000969665, -0.00071691, -0.00048558, 0.000122349, 0.000388897, -0.000254006, 0.000529954, 0.000785943, 0.000686392, -0.000874874, 4.94705e-05, -0.000906735, 7.3397e-05, -8.8229e-05, -0.000454268, -0.000610767, 0.000907468, 0.000866756, -0.00017655, -0.000586901, 2.9603e-06, -0.000729667, -0.000730522, 0.000548814, 0.000881527, -0.00082757, 0.000102573, 7.45567e-05, 2.16987e-05, -0.000357463, 0.000623646, -0.000586596, -0.000890866, -0.000980651, -0.000534593, 0.000382794, -0.000713614, -0.000838498, -0.000157215, -0.000555659, -0.000596925, -0.000303019, -0.000196875, -4.45265e-05, 0.000266335, 0.000273354, 0.00047496, 0.000416364, 0.000889462, 0.00080755, 0.000319315, 0.000722831, 0.000743217, -0.000263894, -0.000620716, 0.00041496, 5.52385e-06, 0.000265358, -0.000470016, 0.000927427, -0.000188757, 0.000620716, 0.000728518, -0.000160552, 0.000502189, 0.000297297, -0.000735922, -0.000875294, -0.000122502, 0.000310206, 8.02961e-06, -0.000597983, -0.000556874, -0.000555913, 0.00066216, 0.000181799, 0.000660329, 0.000501022, 1.33366e-05, 0.000123936, -0.000798761, 0.000555773, 0.000178198, -0.000720634, -0.000807733, -0.000799249, 0.000856247, -0.000655496, -0.000532414, 0.000799025, -0.000421046, -8.91918e-05, -0.000181938, 0.000731205, -4.11567e-05, 0.000712056, -0.000758788, -0.000351036, -5.80056e-05, -0.000120363, 0.000193079, -0.000276109, 5.44145e-05, 0.000186377, 0.00083459, 0.000896115, -0.000342387, -0.000696646, -0.000713553, -0.000874142, -0.000807917, 4.32447e-05, -0.000125706, 0.00064287, 0.000432381, 0.000614998, -0.000617705, 0.000196455, 0.000732054, 0.000869123, -0.000701455, -0.00069639, -0.00072056, 0.000554131, 7.16225e-05, 0.000503333, -0.000656067, -0.000439136, -0.000643888, -0.000395856, 0.000528306, 0.000176733, 0.000263222, -6.73544e-05, -0.00098468, -0.000668142, -0.000388592, 0.00058562, -0.000179113, 0.000851619, 0.000176122, 0.000679378, -0.000956587, -0.000293538, 0.000940692, -0.000399761, 0.000111009, 0.000258779, -0.000657834, -0.000748107, 3.63992e-05, 0.000518814, -0.000471294, 0.000310109, -0.000337573, 0.000388935, 0.000604541, 0.00047026, -8.29188e-05, -8.11487e-05, 0.000879391, 0.000695181, 5.66729e-05, -0.000450301, 0.000121006, -0.000531419, -7.85852e-05, 0.000368816, -0.000195837, -0.000956481, 0.000183559, 0.000358162, -0.000639183, -0.000306834, 0.00059674, 0.000642523, 0.000428621, -4.25924e-05, 0.000245916, -0.000256832, -0.000895319, 0.000900168, -0.000199205, -0.000175171, 0.000191198, 0.000351665, -0.000238685, 0.000948302, -0.000552049, -0.000837458, 0.000708731, -0.00068334, -0.000158055, -0.000546983, -0.000442488, -0.000470992, -0.00020304, 0.000862789, -0.000196203, 0.000828417, -0.000556369, 0.000801399, -0.000223535, -0.000647217, 0.000870892, 0.000696675, 0.000883636, 0.000384049, 0.000372723, 0.000248024, -0.000130414, 0.000599235, 0.000701467, -0.000327311, -0.000941588, 0.000320231, -0.000683767, -4.17798e-05, 0.000605762, -0.000237892, 0.000633106, -0.000888546, 0.000750237, -0.000714347, 0.000275063, 0.000408918, 6.20581e-05, -0.000354433, -0.000677977, 0.000646638, -0.000305454, 0.000242519, 0.000562128, 0.000389508, -0.000370037, -0.000631947, 0.000738517, 0.000223243, 0.000936574, 0.000462562, 0.000802646, -0.000997864, 1.30314e-05, 0.000359233, 0.000163366, 0.000100314, 0.000839045, -0.000465133, 0.000935301, -0.000338664, -0.000772637, 0.000361919, 0.000191076, 0.000848375, -0.000927525, -0.000643307, 0.000209701, 9.40413e-05, 0.000602351, -0.000567812, 0.000728705, -0.000649281, 0.000622852, 0.000140599, -0.000810236, 0.000340068, 0.000776657, -6.52249e-05, 0.000994387, 0.000803278, -0.000213355, 0.000409589, -0.000249672, 0.000751274, -0.000293191, 0.000553392, -0.000478561, 0.000714225, 0.000174169, -0.000999634, -0.00092053, -7.91384e-06, 0.000657148, 0.000278597, 0.000153033, 0.000904416, 0.000707762, -0.000937218, -0.000321291, -0.000959551, 0.000207834, 0.000416856, 4.64187e-05, -0.000492965, -0.000378468, 5.53842e-05, -0.000641893, -0.000816034, 0.000247902, 0.000584887, -0.000329508, 0.000968139, 0.0004644, -0.000244484, -0.000753533, 2.64595e-05, -1.76092e-05, 0.000713187, 0.000807123, 4.55021e-05, 9.46908e-05, 0.000247667, -0.000219764, -0.000518052, -7.28477e-05, -0.000955388, 0.000551472, -0.000188249, 0.000686961, -6.783e-05, 0.000710167, -0.000222571, -8.96435e-05, 0.000133327, -0.000692738, -0.000353374, -0.000277688, -0.000481613, -0.000901059, -0.000547533, -0.000925901, 0.000848811, 0.000797357, -0.000751091, 1.3123e-06, 3.19529e-05, -0.000677575, -0.000641163, -0.000129192, 0.000369654, 5.16068e-05, 0.000626087, -0.000367168, 0.00080871, -0.000931228, 0.000662726, 6.87168e-05, 0.000190425, -0.000584821, 9.90103e-05, 3.8964e-05, -0.000502738, -0.000662465, 0.00083813, 0.000742668, 0.00011301, 0.000543138, 0.000300638, -4.45875e-05, 6.00909e-05, 0.000442976, -0.000323099, 0.000286966, 0.000257973, 0.00040631, 0.000176726, -0.000571622, 0.000770104, 9.67437e-06, -0.000719474, 0.000404218, -0.000945433, -0.000713919, 0.000986631, -0.000180723, 0.000215019, 0.000976939, 6.40941e-05, 0.000110255, -0.000754678, 0.000776529, 0.000299844, -0.000201453, -0.000709159, -0.000407758, 0.000753044, -0.000265419, -0.000113926, -0.000215613, 3.35704e-07, -0.000647633, -0.000788079, -0.000578645, 0.000388158, 0.000917263, 0.000343791, 0.000528977, 0.000283731, -0.000222266, -0.000498764, -0.000660756, 0.000321879, 0.000612842, 0.000299718, 0.000542751, -0.000341046, -0.000315512, -4.87933e-06, -0.000466475, 0.000217872, -0.000913327, -0.000256142, 0.000667592, 0.000945006, 0.000995178, 0.000842769, -0.000495285, 5.356e-05, -8.22474e-05, 0.000984191, -0.000937542, -0.000723326, 0.000944277, 0.000505234, 6.58895e-05, 0.00011832, -2.89926e-06, 0.000637379, -0.000803596, 0.000100612, 8.03619e-05, -0.000242654, -0.000656898, -0.000985105, -0.000471656, -0.000366375, -0.000149693, -0.000827326, 0.000260964, -0.00031663, 0.000772576, -0.000343791, 2.75582e-05, -0.000784417, -0.000881039, 0.000565538, 0.00066039, -0.000315592, -0.000893658, -0.000729492, 0.000323126, 0.000938536, 0.000408979, 0.000661916, -0.000236954, -0.000528308, 0.000408177, -0.000601367, 0.000557695, 0.000670717, 0.000440282, 0.00015824, -0.000634083, -0.000932554, 5.06302e-05, -0.000110691, 0.000181921, 0.00059032, -0.000757561, 6.09455e-05, 0.000579333, 0.000809931, 0.000724296, 0.000909787, -3.56761e-05, -0.000807978, 0.000161856, -0.000307603, -0.000174966, -0.000652941, 0.000428784, 0.000936602, -1.64703e-05, -0.000718881, -0.000144581, 0.000686892, 0.000839704, -0.000358453, 0.000477376, 0.000758293, -0.000371563, -2.69478e-05, 0.000290078, 0.000987365, 0.000667592, 0.000965087, -0.000505173, -0.00052208, -0.000395123, 0.000700186, 0.000749748, 0.000854244, -0.000329081, 0.000905942, -0.000580171, 0.0005095, -7.19761e-05, -0.000795655, -0.000171651, 0.000858514, -0.000477938, -0.000637, -0.000496554, -0.000418622, -7.27093e-05, -0.00045896, -0.000568773, -0.000118686, -0.000796075, 0.000546068, 0.000306497, 0.000730766, 0.000242653, 7.76696e-05, 0.000779168, -0.000879452, -0.00098413, 0.000980712, -0.000293497, 0.000311502, 0.000828486, -0.0005056, 0.000403273, 8.4281e-05, 0.000567562, -0.000496676, 0.000891488, 0.000988233, 0.000951244, 0.000784483, 0.000147978, 0.000592062, 0.000779839, -0.000738823, 0.000359905, -0.000263894, -0.000812311, -0.000748344, -0.000830378, 0.000778375, -0.000110935, -0.000282571, -7.32749e-05, -0.000153356, -0.000569079, 0.000515061, -6.21052e-05, -0.000911435, -0.000557645, 0.000646133, 0.000717685, 0.000922166, 0.000884623, 0.000504942, 0.000234974, 0.000281696, 0.000299246, 0.000131621, -0.000831843, 0.000874386, 6.25935e-05, -0.00053795, -0.000846858, -0.000573351, 0.000631825, 0.000574877, -0.00096881, -6.6805e-05, 0.00079577, -5.64287e-05, -0.000898801, -9.14029e-05, -7.44346e-05, 0.000686575, -0.00063097, 0.000637196, 0.000224966, 0.000817458, -0.000201433, -0.000576444, 0.000978444, -0.000508763, 0.000557542, -0.000161536, 0.000802362, -0.000739006, 0.000274209, -2.27973e-05, -0.000102145, 0.000323771, 0.000283242, 0.000701468, 0.00029545, 0.000769829, 0.000875179, -0.000107028, 0.000108554, 0.00083459, -0.000451949, 0.000703299, -0.000217505, -0.000851985, -0.00074279, -0.000196692, 0.000344707, 0.000984619, 0.000664663, -0.000366497, -0.0003455, 0.000513352, 0.00038963, 0.000654042, 0.000653554, -0.000952269, -0.000741691, -0.000405744, -0.000384869, -0.000704093, 0.000554125, -0.00029667, 0.000395001, -0.000389569, 0.000267251, 0.001, 0.000680532, 0.000238502, -0.00065508, 0.000522202, 0.000241432, -0.000428327, -5.82598e-05, 0.000577746, -0.000820795, 0.000396222, -0.000331156, 0.000993774, 0.000177648, 0.000142796, -0.000155126, -0.000632984, 0.000752373, -0.000863338, -0.000254921, -0.000686148, -0.000498886, 0.000847774, 0.000852107, 0.000720084, 0.000353618, 0.000140233, -0.00089465, -9.12503e-06, 0.00082165, -0.000477035, -0.000848567, 0.000301248, 0.000249001, -0.000600635, 0.000593921, -0.000154454, 6.15558e-05, 0.000317362, 0.000243385, 8.76797e-05, 1.71819e-05, -0.000780633, 0.000367473, 1.11393e-05, 0.000455794, -0.000307596, 0.000940916, 0.000368938, 0.000549303, 0.000217933, -0.000104709, -6.64998e-05, 0.000551683, 0.000421979, -0.000630543, -0.000252968, 4.88601e-05, -0.000674856, -4.08643e-05, -0.000629078, 0.000617481, 0.000810236, 6.5157e-05, 0.000751274, -0.000837153, -0.000504624, 0.000231422, -0.000750725, 0.000966979, -0.000166662, -0.000520005, -0.000154576, -0.000415693, 7.4984e-05, 0.000336222, -0.000832698, -0.000176672, -0.000462569, -0.000795953, -0.000465743, 0.000996338, -0.000145604, -0.000383343, 0.000206702, 0.00016953, 0.000225806, -0.000514084, 0.000636647, -0.000587024, 0.000668142, 0.000352702, -0.000282571, -0.000949156, -0.000735893, 0.000636647, -0.000966124, 0.000911069, -0.000586962, 0.00088641, 0.000112217, -0.000424726, -0.000919431, -0.000970397, -0.000330058, -0.000370525, 4.87381e-05, -0.0003773, 0.000866146, 0.000913327, -0.000834101, -0.000899045, 0.000551073, -0.000229835, -0.000402936, -0.000971252, 0.000516648, 0.000297647, 7.3397e-05, -0.000650746, 0.000746147, -0.000402875, 0.000142613, -0.000365459, 0.000664052, -0.000976135, -0.000581286, 0.000335551, 0.000386456, -0.000562914, 0.000832331, 3.2197e-05, -2.92062e-05, 0.000449873, -0.000119907, 0.000683279, 0.000665944, -0.000320841, -0.000124424, 0.000876522, 0.000162084, -4.05896e-06, -0.000801752, -0.000921506, -0.000159093, 0.000775018, 0.00054442, 0.000884884, 2.54219e-05, -0.000854915, 0.000176489, 0.000269875, -0.000769829, -0.000761162, -0.000826716, 0.000836909, -0.000589038, -0.000557237, 0.00068041, -0.000931761, -0.000784906, -0.000352702, -0.000840754, -0.000425031, -0.000768731, 0.000496811, -0.000361797, 0.00034727, -0.00076043, 0.000639515, 0.00096173, 3.93689e-06, -0.000538499, -2.24311e-05, -0.000959288, -0.000957091, -0.000190039, 0.000917173, 0.000102634, -0.000908994, -0.000860775, -0.000381878, -5.88092e-05, 0.000153844, 0.000495041, -0.000755608, -0.000833491, -0.000134007, 0.000364611, -0.000786099, 0.00045558, 0.00074117, -7.3758e-05, 0.00044792, -0.000199683, -0.000578906, 0.000299966, 0.000622425, -0.000238868, -7.21763e-05, -0.000202734, -0.000583239, 0.000713492, 0.000911252, -0.000829279, -0.000235511, 9.95819e-05, 0.00090051, 0.000864559, -0.000897275, -0.000322001, -0.000446394, 0.000264321, 0.000622936, 0.000773994, 0.000907729, 0.000947471, 0.000521291, -0.000470241, 0.000629697, -6.85528e-05, -0.000755696, 0.000151499, -0.000738298, 0.000926861, 0.00074517, 0.000161596, -0.00052324, -0.000416974, -0.000267067, -0.000344951, -0.000668874, 0.000745109, 0.000917356, 0.000537095, -0.000495407, -0.000304117, 0.000263083, -0.000218698, 0.000558131, -0.000587935, 0.000239482, 0.000678793, 0.000181082, -0.000190782, -0.000932017, 8.28895e-05, 0.000439126, 0.000993943, -2.60586e-05, -0.00033292, -0.000969289, 0.000516887, 0.000437056, -0.000830317, 0.000531358, 0.000620472, -0.000554735, -0.000350566, -0.000351848, -0.000513169, 0.000734672, 0.000726371, 0.000463607, 0.000489735, 4.90722e-05, -0.000159317, -0.000307759, -0.000554824, 0.000381001, -0.000506443, -7.78038e-05, -0.000142502, -0.000768193, 0.000507399, 0.000873857, 0.00017439, -0.000146114, -0.000731524, 0.00064921, -0.000962951, 0.000506516, 0.000983398, 0.000976073, 0.000527268, -0.000298135, 0.000921812, 0.000461531, -0.00058385, -0.000545457, -0.000329997, -0.000158361, 0.00041766, 0.000535455, 0.000383119, -0.000766757, -0.000561579, -0.000284841, 2.70578e-05, -0.000623524, 0.000820919, -0.000978756, 0.000638985, 0.000894533, 0.000604181, 0.000983672, 0.000569788, -0.000457686, -0.00023014, -0.000109409, -0.000258156, -0.000550829, -0.000512253, -0.000970153, 0.000888913, 0.000374493, 0.000369732, -5.61846e-05, 0.000812189, 0.000956786, -0.00028074, -0.000320175, -0.000369163, -3.57764e-05, 0.000783593, 3.88393e-05, 2.76729e-05, -0.000458999, -7.63117e-06, 0.000821211, 0.000502855, 0.000463852, 0.000229879, -0.000910304, 0.000623868, -0.000613086, 6.30207e-05, 0.00040556, 0.000276101, 9.30509e-05, -0.000997375, 8.51161e-05, 0.000908811, 0.000744133, 0.000750542, 0.000448286, 0.000788141, -0.000869137, 0.000450056, 6.91244e-05, 0.000247156, -7.64922e-05, -6.24994e-05, -0.00097224, 0.000935486, -8.03393e-05, 0.000984718, 0.000149548, -0.000933503, -0.000702261, 0.000563402, 0.000276741, 0.000675178, 0.000864137, 8.13318e-05, -0.000503769, 0.000858089, -0.000696158, 0.000638966, 0.000402509, -0.000969054, 0.00043144, 0.000277932, -0.000657399, 0.000174841, 0.000439985, -0.000768426, -0.000331899, 8.75321e-05, -0.000848171, -0.000824197, 0.000986257, 0.000634166, -0.000732826, 0.00047264, 0.000399762, 0.000991028, -0.000383343, -0.000566515, -0.000221382, 0.000909877, 0.000409197, -0.000444075, 0.000986694, -4.8616e-05, 0.000481674, 0.000780206, -0.000854244, 0.000746391, 0.000551439, 0.000737846, -0.00011948, 0.000240516, 0.000463729, 2.05401e-06, 0.000569742, 0.000946682, 0.000443355, -0.000662654, -0.000403123, 0.000194735, 0.000343221, 0.000949278, -0.000405194, -0.000624866, 0.000894894, -0.000264626, 0.000708456, -0.000794521, 0.000961073, 0.000534349, -0.000170385, 0.000961058, 0.000780511, -0.000623829, -0.000142369, -0.000262734, -0.000777154, 0.000732475, 0.000944334, -0.000305216, -0.000964171, 0.000766121, -0.000253916, -0.000688744, 9.62473e-05, 0.000581225, 0.000672191, 0.000631327, 0.000661236, -0.000525143, -0.000862583, 0.000510674, 0.000610523, 0.000180639, 0.000808069, -0.000118719, 0.000712896, 0.000130528, 0.000856868, 0.000983459, -0.00014182, 0.00069335, -0.000790399, 0.00062743, 0.000318522, 0.000430403, -0.000204443, -0.000561266, 0.000993957, 0.000344725, -0.000201545, -0.000890248, 0.000663442, -0.000870357, 0.000904599, -0.000350869, -0.000763193, 0.000423526, 0.00055799, 0.000631503, 0.000995977, 4.72121e-05, -0.000801841, 0.000447584, -0.000138447, -0.000725211, -0.000471114, -0.000443709, 0.000626576, 6.43025e-05, -0.00024778, -0.000268044, 0.000215064, 0.000316752, 0.00082458, -0.000685171, 0.000929542, -0.000874853, -0.000292918, 0.000462168, -0.00029899, 2.24921e-05, 0.000613392, 0.000396954, -0.000659317, 0.000236551, 0.000265012, 0.000661448, -0.000212343, -7.02021e-05, -0.000871365, 0.00035621, -0.000641944, -0.000535936, 0.000685476, -0.000591174, 1.37333e-06, 0.000638173, 0.000664785, -0.000192663, 0.000543016, -5.70391e-05, 0.000300516, 0.00085699, -6.21146e-05, -0.00018885, -0.00041905, 0.000429581, 0.000519395, -0.000134312, 0.00049736, 0.000213416, -0.000749504, 0.000172825, 0.000297129, 0.000965161, 0.000974882, 0.000490163, 0.000728049, -0.000249609, -0.000343043, -0.000488693, -0.00070513, -0.000788385, -0.000347819, 0.000130467, 0.000505661, 0.00080163, 0.000936888, 0.00067687, -0.000878536, 4.0437e-05, 0.000368379, 0.000173099, -0.000591794, -0.000235206, 0.000932493, -0.000418134, 0.000384198, -0.000622181, 0.000994629, -0.000940794, -0.000926389, 0.000101046, -0.000449313, -0.000796423, -0.000245838, 0.000214731, -0.000532701, 0.000296304, -0.000795526, 0.000326701, 0.000752556, -0.000426862, -3.80566e-05, 0.000604053, -0.000215064, 0.000452742, -0.000435347, 3.18308e-05, 0.000574196, -0.000202523, -0.000194485, -0.000338298, 8.45363e-06, -0.000840083, -1.92572e-05, -0.000138401, -0.00089418, 3.7025e-05, 0.000142839, -0.000431934, 0.000263698, -0.000886508, 0.000341914, -0.000474532, 0.000501572, -0.000485153, -0.000109409, -0.00044261, 0.000729911, 6.44856e-05, 0.000599902, -0.000204627, 0.000979614, 0.000521287, 3.58592e-05, -6.06403e-05, -0.000337512, 0.000837427, 0.000769029, 0.000505844, 0.00081933, 0.000405316, -0.000377189, 7.86052e-05, -0.000628324, -0.000687197, 0.000927457, 0.000556006, 0.000365122, -0.000419017, -0.000241432, 0.000400067, 0.000226112, 0.000429426, -0.00079162, -0.000101352, 1.5595e-05, -0.000480758, -0.000385662, 0.000397809, 0.00066686, 0.000199499, -0.000180029, -0.000437544, 0.000244352, 0.000762228, 0.000423164, 0.000624083, -0.000808953, -0.000309443, -0.000974107, -0.000368133, -0.000419098, 0.000909838, -0.000518468, 0.000695823, 0.000359592, -0.000968566, -0.000852474, -0.000752678, 0.000611377, 0.000618885, 0.000141881, -0.000713492, 0.000794794, -0.000581408, 0.000579333, 0.000624866, -3.02133e-06, -0.00037907, -0.000169225, 0.000142064, -0.000815495, -0.000892241, -0.000228351, -0.000964986, 0.000454717, 0.000703543, 3.12694e-05, 6.60605e-05, 0.000278652, -0.000581361, -0.000762087, 0.000809885, 0.000758599, -0.000289834, 0.000282022, 0.0009176, 0.00088171, 0.000728324, -0.000445967, -0.000651234, -0.000243263, -0.000439985, 0.000197607, -0.00036845, -0.000126194, 0.000485458, -0.000639088, -0.000889584, 0.000352082, 0.000227607, -0.000551769, 0.000198694, 0.000191127, -0.000803046, -0.000638246, -0.000381377, -0.000487713, 0.000745849, -0.000239174, -0.000334574, 0.000825434, 0.00042497, 0.000314005, -0.000547594, 0.000265236, -0.000780694, 0.000936827, 0.000154393, 0.000844417, 0.00080755, -0.000949095, 0.000264199, -0.000294656, 0.000809381, 0.000832442, 0.000842665, -0.000628896, 3.8171e-05, 0.000461599, 0.000763897, 0.000989003, -0.000256954, -0.000631914, -3.26752e-05, -0.000413556, 0.000867489, -0.00050853, 0.000716666, -0.000673391, -0.000698477, 0.0005244, 0.000835078, 0.000744133, -0.00087994, -0.000839167, 0.000963805, 4.79141e-06, -0.000158605, 0.000349956, -0.000189367, 0.000153417, -0.000324625, 0.000545509, -0.000598173, 0.000365479, 0.000775038, 0.000952956, 0.000323265, -0.000811191, 0.000477339, 0.000781365, 0.00098468, -0.000192358, 0.000571764, 0.000499069, 0.000860591, -0.000716605, 0.000532029, -0.000926878, -0.00026017, -0.000195593, 0.000774895, -0.00077398, 0.00097882, -6.12506e-05, -9.1525e-05, 0.000684133, 0.000750053, -0.000116428, -1.74261e-05, -0.000572375, -0.000707327, 0.000714896, -0.000261879, 0.000940916, 0.000162145, -0.000362529, -0.000142491, -0.000538194, -0.000519578, -0.000764763, 0.000214698, -0.000767449, -0.000814325, 0.000720939, -0.00087524, -0.000251015, 0.000282815, -0.00081402, 0.000594531, -0.000989135, 9.26847e-05, 0.000851131, -0.000428083, 0.000772027, -0.000497055, 0.000315653, -0.000803522, -0.000210059, 0.000217505, -0.000192114, 4.91043e-05, -0.000923765, 6.68355e-06, 0.000435102, -0.00059801, -0.000853572, -4.28175e-05, -0.000566515, 0.000468856, -0.000730277, -0.000277871, -0.000581957, -0.000345195, 0.000719535, 0.000771172, -0.000367229, -0.000193701, 2.28584e-05, -0.000359844, -0.000799554, -0.000538682, 0.000210852, -0.000818598, 0.000372967, 9.90936e-05, 6.8453e-05, -0.000186193, -0.000219092, -0.000609668, -0.000615406, 0.000772515, -0.000316141, 0.000447249, 0.000202002, -0.000641102, -0.000779656, -0.000926756, 6.74154e-05, 0.000191259, -0.000342265, -0.000986694, -0.000718619, 0.000453719, -0.000357585, -0.000796136, 0.000148412, -0.00085284, 0.000449507, -0.000977416, 0.000170019, 0.000385784, 0.000257363, 0.000307718, 4.93484e-05, -0.000692984, 0.000309793, -0.000385052, -7.31529e-05, 0.00087225, 0.00079577, 0.000636769, -4.84939e-05, 0.000141575, 0.000952086, -0.000697623, 0.000510666, 0.00097589, 0.000379009, 0.000466903, 0.000479843, 0.000286843, -0.000710074, 0.000161046, -0.000527207, 0.000286966, 0.00076165, -0.000158483, 9.17692e-05, 0.000739433, 0.000984069, 0.000640675, 0.000177099, -0.000791681, -0.000489547, -0.000383404, -0.000942625, -0.00069158, -0.000492538, 3.38755e-06, -0.000200354, 0.000955382, 4.91348e-06, -0.000539354, -0.000540819, 0.000615467, 0.00014597, 0.000323954, -0.000670644, -0.000444136, -0.000563097, -0.000145482, -0.000807855, 9.45769e-05, -2.41096e-06, 0.000489547, -0.000432478, -0.000149815, 0.000810846, 9.18302e-05, -3.61644e-05, -7.72118e-06, -2.70089e-05, 0.000199927, -0.00087225, -0.000508896, 0.000943602, 0.000278359, -0.000705741, -0.000632252, 0.000795343, -3.27464e-05, 0.000436506, 0.00094409, 0.000464461, -0.000667348, 0.000515976, 9.26237e-05, -0.000999756, -0.000883724, -0.000267617, -0.00051323, -0.000184545, 0.000985717, 0.000773919, 0.000850826, 0.000935972, -0.000215796, -0.000933226, -0.000790338, -0.000749016, -0.000219153, -0.000974364, -0.000861019, 0.000763054, 0.000920713, 0.000303385, -0.000984558, 0.000837886, -0.00092584, 4.12305e-05, -0.000733695, 0.000454634, 0.000287942, -0.000881466, 0.000619617, 0.00045555, -0.000965941, 0.000403119, 0.000354228, -0.00020365, 0.000460738, -0.000999084, 0.000549852, -0.000204138, 0.000641591, 0.000506394, 0.000336894, 0.000386395, 0.000826228, -0.0007481, 0.00014658, 0.000363323, -0.000310038, 0.000558458, -3.90942e-05, -0.000364605, -0.000415996, 0.000985045, -0.000437714, -0.000525499, 0.000785336, 0.000579516, 0.000785272, 0.000766533, -0.000253395, -0.000872982, -0.000236793, 0.000259438, -0.000653798, 0.000401898, -0.000818415, 0.000815363, -0.000861568, 0.000416303, 0.000526353, -0.000340556, -0.000396649, -0.000329264, 0.000334025, 0.000630116, 0.000396832, -0.000595859, 0.000442336, 0.000429096, 0.000600208, -0.000156114, 0.000239518, 0.000872, 0.000971355, 0.00045524, 0.000915061, -0.000863477, 0.000193802, 0.000190344, -0.000294107, 1.2299e-05, -0.000875546, -0.000256691, 0.000156163, 0.000157384, -0.000949828, -0.000206458, 0.000355998, 0.000338603, -6.92465e-05, -0.000740195, -0.000802422, -0.000312181, 0.000653244, -0.000450834, 0.000624696, -5.06343e-05, -0.000721705, 0.000805747, -0.000121207, -0.000269602, -0.000706127, 0.000163375, -0.000243861, 0.000753189, -0.000135693, -7.78222e-06, 0.000850093, 0.000100803, 7.87683e-05, 0.000155004, -0.000190588, 0.000473312, -0.000797113, 0.000248512, -0.000420331, 0.000430647, 0.000927617, -0.00013938, -0.000340176, 0.000648563, -0.000379861, 0.000813538, 0.000345438, 0.000161868, 0.000570937, -0.000578633, 0.000987502, 0.000622743, 0.000249068, 0.000735044, 0.000234742, 0.000546084, 0.000550035, 0.000795526, 0.00028959, -0.000440962, -0.000957091, 0.000880062, -0.000847041, 0.000652638, -0.000776543, -0.000245277, 0.000877132, 0.000430647, 0.000763208, -7.48998e-05, -0.000183677, -0.00063828, -0.000240019, -0.000118414, 0.000871667, 2.33982e-05, 0.000984709, 0.000356484, -0.00025056, -0.000638894, 0.000136962, 0.00056781, -0.000796024, 0.000933348, 9.29899e-05, 0.000475936, -0.000706229, -0.000840571, -0.000848262, -0.000975219, -0.000375652, -0.00042674, -0.000710379, 0.000398968, -0.000396344, -0.000928098, 0.000408612, 0.000271201, 0.000691097, 0.000166113, 0.000587251, 5.19389e-05, 0.00064424, -0.000772129, 0.00032602, -0.000861701, -0.000226014, 0.000745971, 0.000807398, -0.000829818, -0.000809148, -0.00043028, 0.00013535, 0.000272805, -0.000942015, -0.000837397, -0.000409406, -0.00069097, 0.000836787, -0.000148595, -0.000120273, 0.000131443, -0.000459517, -0.000923948, -0.000614795, -0.000169713, -1.66164e-05, -0.000360358, 0.000415763, 0.00098544, -0.000969716, -4.05119e-05, -0.00054646, -8.95896e-05, -0.000153807, 0.000314737, -0.00058977, 0.000913828, 0.000147948, -0.000901483, -0.00012949, 0.00053856, 0.00045323, -0.000932432, -0.000654225, -0.000184362, 0.000329142, -0.000408551, -0.000476913, 0.000515549, 0.000644642, 0.000903134, -0.000484725, -0.000603486, -0.000180952, 0.000348443, 0.0001115, 0.000456422, 7.41511e-05, 0.000638, 2.47505e-05, -0.000823237, -0.000322245, 9.36003e-05, 0.00014658, 0.000783942, -0.000795756, 0.00090154, -0.000207495, 0.000488937, -0.000223731, -0.000638356, 0.000954405, -0.000259133, -0.000683767, 0.000136143, 0.00054973, 0.000478011, 0.000798761, 0.000501083, 0.000671735, -0.000623607, 0.000498473, 0.000595413, 0.00083963, 0.000102364, 0.000243123, -0.000327197, 0.000248268, -0.000444746, -0.000345256, 0.00034727, 1.83416e-05, 0.000129014, 0.000414425, 0.00084883, -0.000553758, -4.6968e-05, 0.000499741, -0.00072985, 0.00025425, -0.000855831, 0.000438765, -0.00018363, 0.000840327, 5.87481e-05, -0.000438581, -0.000943541, 0.00052824, -0.00045932, 0.000247916, 0.000172631, -0.000182287, -0.000826292, 0.000181507, -0.000788453, 0.000634842, -0.000472148, 0.000589653, -0.000671499, 0.000578234, 0.000411128, 0.000508727, -0.000951274, -0.000822748, -0.000876888, -0.000978027, 0.000507126, 0.000133885, 0.000698416, -0.000487045, -0.000298502, -0.000423444, 0.000161046, -8.29798e-05, 0.000744133, 0.00030932, 0.000773138, 0.000969872, 0.000109958, 6.28986e-05, 0.000285989, 0.000459139, 0.000888799, -0.000256372, -0.000811076, -0.000528856, -0.000971246, -0.000320353, 0.000955209, 0.000643434, -0.000402064, -0.000117954, 0.00030491, 0.00041728, -0.000975524, 0.000282815, -0.000560472, -0.000718986, -0.000650868, 0.000990844, 0.000301431, 2.5544e-05, 0.000476825, 0.000540534, 0.000820504, -7.85065e-06, 0.000426008, 0.000143345, -0.000833979, -0.000676748, -0.000421993, -6.43874e-05, -4.59411e-06, -0.000787211, 0.000927768, -0.000772987, 0.000699772, 0.00015044, 0.000331351, 0.000757805, -0.000332865, 0.0001854, 0.000762688, 0.000941099, 0.000517075, -0.00083929, 0.00055504, 0.000116184, 0.000359783, 0.000972961, -0.000343828, 0.000797981, 4.3223e-05, -0.000181339, -0.00012241, -7.1749e-05, 0.000404645, 0.000445723, -0.000856624, -0.000876989, 0.000518528, 0.000403677, -0.000257479, 0.000925787, -5.35472e-05, 0.000287666, 0.000572178, -0.000947508, 0.000992065, 2.16681e-06, -0.000599658, 0.00064977, 0.000943541, 0.000995972, -0.000896786, 0.000536607, 0.000329203, 0.000520798, -7.83782e-05, -0.000541659, -0.000835214, -0.000121006, -0.000290201, 0.000337382, -0.000794244, 0.000673696, 0.000184851, 0.000520066, 0.000193945, -0.000940076, -0.000821421, 3.06176e-05, 0.000110636, -1.14655e-05, 0.000881588, -0.000185095, -0.000574999, -0.000530992, 0.000104404, 5.18815e-07, -0.000655141, 0.000806024, 0.000516343, 0.000136753, 6.59505e-05, 0.000856624, 0.000901083, -0.000550571, -0.000977767, 0.000278603, -0.000594043, -0.000908567, -0.000863338, -0.000219459, -0.000208786, 0.000390235, -0.000929658, 0.000372851, -0.000319104, -0.000901664, -0.000530188, -0.000387616, 0.000809565, -0.000355388, -0.00077514, -0.000136692, -0.000719962, -0.000614124, -0.000289712, 0.000536241, -0.000195166, 0.000852168, -0.000960204, 0.000343608, -3.93767e-05, -2.6193e-07, 0.000315393, -0.000451399, 0.000437666, 0.000461898, -0.000121722, 0.000216188, -0.000709878, -0.000202974, -0.000443115, 0.000459727, 0.000182221, -0.000263083, 0.000916013, 0.000694143, 0.000644032, 0.000441939, -0.000486435, -0.000111972, 0.00032078, 0.000749199, -0.000857784, -0.000192419, -0.000782159, 0.000419111, 8.37123e-05, -0.000729301, -4.52351e-05, 0.000388362, -0.000642184, 0.000395931, 1.493e-05, -0.000978636, 0.00097491, 0.000854357, -4.97627e-06, 0.000355171, 0.000178503, 0.000113297, -0.000147772, 0.00035313, -0.000296121, -0.000305216, -0.000838679, -0.000842158, 2.63985e-05, -0.000577929, -0.000641591, -0.000665578, -0.000393536, -0.000333048, -7.47703e-06, 0.000124546, -0.000856136, -0.000397259, 0.000976219, -0.000304591, -0.000173549, -0.000546265, 0.000836515, -0.000607644, -0.000417984, 0.00074587, 0.000960903, -1.88357e-05, -0.000678009, 0.000551754, -0.000148595, -9.20743e-05, -0.000798334, -0.000248939, -0.00062389, -0.00045555, 0.000861995, -0.000729911, -0.00098706, -0.000563463, -0.000317911, 0.000336894, 0.000104404, 0.000556383, -0.000970275, 0.000730338, 0.00010599, 0.000552634, 0.000511863, -0.000968965, 0.000837607, -1.89459e-06, 0.000221196, 0.000867303, 0.00072875, 0.000641393, 0.000989807, -0.000829035, -0.00092291, -0.000340007, 0.000640736, 0.000425398, 0.000291177, -9.56755e-05, 0.000232093, 0.000912473, 0.000142796, 0.000151158, 0.00031138, 0.000965819, 1.7304e-05, -0.000646779, -0.000835468, -0.000779386, -0.00083569, 0.000890302, -0.000934153, 0.000860497, 0.000943385, 0.000813697, 0.000525528, -0.000129171, -0.000920042, 0.000104404, 0.000545763, -0.000709586, -8.54213e-05, 0.00091998, 0.000865658, -0.000544115, 0.000647755, 0.000840938, 0.000211951, 0.000255348, -0.000405438, -0.000875301, 0.000549974, -0.000622181, 0.000433271, 0.000954466, -0.00066598, 0.000564515, 0.000456785, -0.000309596, -0.000244802, -0.000147354, 0.000816711, -0.00088645, 0.000992553, -0.000164403, 0.000782952, -0.000311991, 0.000467025, -9.38444e-05, -1.22379e-05, 0.000799005, 8.44447e-05, 0.000506638, 0.000675161, -0.000991577, 0.000489853, -0.000619312, -4.6968e-05, 0.000304361, -0.000683401, -0.000177099, 4.27564e-05, 0.000350261, -0.000563585, 0.000928465, 0.000528733, 0.000735588, -0.000790887, -0.000156529, 0.000608814, -0.000774468, 0.000733024, 1.47404e-05, -0.000655934, 1.11393e-05, 9.44548e-05, -0.000560106, -9.09757e-05, -4.08643e-05, -0.000381695, 0.000917417, -0.000158849, 0.000861995, 0.000117588, 0.000296365, -0.000708487, -0.00031193, -0.000856319, 0.000726798, -0.0007257, 0.000831599, -0.000763909, 0.00090936, -8.29798e-05, 0.000362224, 0.000172826, -0.000654408, 0.000710379, 0.000275796, -0.000780023, 0.000587939, 0.000758538, 0.000743767, -0.000617969, -0.000510666, -0.000971252, 0.000363262, -0.000348247, -0.000546251, 0.000601794, 0.000407331, -0.00073986, 0.000685781, 0.000921506, -0.000925291, -7.35191e-05, 0.000440901, 4.49538e-05, -0.000259865, 0.000108371, -0.000724784, 0.000892758, -0.000796197, -0.000748405, -0.000704154, -0.000501389, -5.80767e-05, 4.0437e-05, 0.000410566, -0.000740471, 0.000356426, 0.000647206, 0.000577868, -0.000814081, -0.000975097, 0.000982665, 5.70391e-05, 0.00015128, 0.000950987, 0.000945799, -0.000341655, -0.000857479, -0.000186254, -4.02539e-05, -0.000393902, -0.000679617, -0.000355754, -0.000146397, 0.000240638, 8.79849e-05, 0.000146641, -0.000570421, -0.000864498, -0.000486984, 0.000478927, -0.000196692, -0.000326945, -0.000552721, -0.000584155, -0.000624683, 0.000833064, 0.000652882, 0.000954955, -0.000918332, 0.000442854, 5.18509e-05, -0.000434004, -0.000356792, 0.000427656, -2.32856e-05, -0.000558153, 0.000816218, 6.0152e-05, -0.000580187, -0.000252113, 0.000641896, -0.000789178, -0.000716117, -0.000128025, 0.000696768, -0.000402264, -0.000368267, 0.000674917, -0.000657582, 3.66527e-05, 0.000936277, -0.00026017, 0.000975829, -0.000309061, -0.000669424, 0.000622852, -0.000721305, -0.000678457, -0.000141942, 0.000102573, 0.000468307, 0.0005374, -0.000277932, -0.000569811, 0.000546861, -0.000955382, -0.00046379, -0.000420209, 0.000551683, -0.000102634, 0.000574206, 0.000497848, -0.000194555, 0.000747307, 1.99286e-05, 0.000353679, -0.000834101, -0.000906369, 0.000217505, 0.000789178, 0.000275857, -0.000466475, -7.89514e-05, 0.000168798, 0.00081341, -0.000988464, -0.000454939, 0.000829951, -0.000258339, 6.99789e-05, 0.000413984, 0.000332316, 0.00055913, 9.87274e-05, 1.24821e-05, 0.000708609, 0.00054912, 0.000585498, -0.000764641, -0.000286111, 3.0427e-05, 0.00036552, -0.000362224, 7.60216e-05, -0.00039317, 0.0008717, 0.000684744, 0.000745598, -0.000582629, -0.000615467, -0.000998474, 0.000145604, 0.000386151, 0.000282449, -0.000376263, -0.00057799, -0.000527635, 0.000291238, -0.000753166, -0.000306742, 0.000920591, -0.000265603, -0.000523301, -0.000699576, -0.000489731, -0.000216773, 7.92566e-05, -0.000942747, -0.00019364, -0.000293497, 0.000230567, -0.00049968, -0.000591357, 0.000120762, -0.000233131, 0.000138663, 0.0002023, 0.000240297, 0.000434607, 0.000703987, -0.000392621, -0.000873348, -0.000859859, 0.000400616, -0.000170568, 0.000939634, -0.000799554, -0.000844234, -0.00089111, 0.000186193, -0.000407758, 0.000869198, 0.000971557, 0.000971191, 0.000202673, 0.000663137, -0.000521836, 0.000247047, -0.000921262, 0.000132664, 0.000474859, -0.000936025, -0.000321915, 0.000595719, 0.000843646, -0.000179445, 0.000119064, 0.000342229, -0.00025091, -0.000488919, 0.000427432, -0.000114103, -0.000107822, 0.000976318, -0.000210425, -0.000789666, 0.000762078, 0.00016129, -0.00019248, -0.000973693, -0.000120701, -0.000647328, -0.000262429, 1.38859e-05, 5.11529e-05, 0.000436767, -0.000251371, 7.77485e-05, 0.000620178, 0.000148311, 0.000169122, -0.000407241, 0.000712666, -0.000684171, 0.000735528, 0.00065684, 0.000490424, 0.000119589, -0.000152125, 0.000342607, 0.000400067, -0.000665029, -0.000185766, -5.49638e-05, 0.000428022, -0.000410382, 0.000106052, 0.000231117, -0.00065978, 0.000603748, 0.000601184, 0.000690287, -5.84264e-05, 0.000448839, 0.000840819, 0.000785523, 0.000316775, 0.000788647, -0.000729151, -0.000800869, -0.00090921, 0.00013968, 0.000501481, -0.000911121, 0.000670959, -0.000886756, 0.00055459, -0.00066332, 0.000502731, -0.00032786, 0.000109531, -0.000204443, 0.000314982, 0.000373699, -0.000243385, 0.00054033, -0.000628895, -0.000377056, -0.000754143, -0.000880786, -0.000278175, 0.00092505, 0.000739558, -0.000195351, -0.000551411, 0.000127259, 5.42877e-05, 0.000836239, -7.82957e-05, 0.000679802, -7.81863e-05, -0.000318702, -0.000955662, 0.00087725, -0.000764214, 0.000280923, 0.000509812, -0.000883114, 0.000295816, 0.000295267, -0.000958739, -0.000861385, 6.30818e-05, 0.00035844, -0.000351115, -0.000718497, -0.000590991, -0.000672964, 0.000878384, -0.000266364, 0.000366008, -0.00046749, 6.03022e-05, -0.000222525, -0.000626614, 2.11881e-05, 0.000556537, -0.000954859, 0.000535158, -0.000176523, -0.000978123, 0.00076659, 0.00086285, -0.000815241, 0.000641285, -0.000979125, -0.00047148, 0.000825251, 0.00038554, -1.76702e-05, -0.000885495, -0.000812494, 0.000260659, -0.000826533, 0.000863399, -0.000313089, 0.000558092, 0.000715014, -7.22102e-05, -3.72817e-05, -0.00089389, 0.000575224, 0.000620354, -0.000878145, 0.000510829, -0.000181853, -0.000335856, -0.000998718, -0.000575463, -0.000140699, -0.000557648, -0.000594104, -0.000222755, -0.00029136, -0.000751823, -0.000635853, 3.62255e-05, -0.000774712, 0.000535142, 0.000377483, 0.000453658, 0.000365459, 0.000166723, -0.000330363, 0.000317009, 0.000433144, -0.000333268, -0.000561522, -0.000799358, -0.000668689, 0.000468931, 9.98871e-05, 0.000206763, 0.000805292, -0.000832514, -0.000450911, -0.000766203, -0.000293777, 0.000766773, 0.000399579, 0.000207862, -0.00077282, -6.92465e-05, -0.000761589, 0.000342265, 0.00016068, 0.000234291, -0.000124302, -0.000614734, 0.000146519, -0.000588061, 0.000593801, 0.000870601, 0.000922508, 0.000608712, -0.000601935, -0.000632089, -0.000424591, -0.000370323, -0.00073394, -0.000272805, -0.000217078, 0.000188879, -0.000601489, 0.000341619, -0.000918918, -0.000836965, 0.000468612, 0.000383526, 9.61638e-05, -0.000162999, -0.000127964, -0.000937437, -0.000195776, -0.000843562, 0.000977294, 0.000873226, 0.000778741, 0.000977294, 0.00037555, 0.00084493, 0.000440925, -0.000684783, -0.000869503, -0.000207425, 0.000311297, -0.000401976, 2.9878e-05, -0.000433648, -0.000748825, -9.28068e-05, 0.000829157, 0.000299747, 0.00073018, 0.00024394, -0.000486373, -0.000335185, 5.80157e-05, -0.000236976, -0.000463424, 0.000116428, -0.000355571, 3.14035e-05, -0.000924986, 0.000144993, 0.000246559, 0.000275857, 0.000278732, -0.000473714, 0.000219157, 0.000633351, 0.000519944, 0.000571032, 0.000765167, -0.000597186, -0.000354347, -0.00062291, -0.000816148, 0.000286659, -0.000781976, -0.000929599, 0.000122374, -0.000342992, -0.000217078, -0.000927671, 0.000827754, -0.000209876, 0.000101474, 0.000332926, 0.000392499, 0.000123875, 0.000409345, 0.00058861, -0.000992798, 0.000506175, -0.000335101, -0.000388751, -0.000789567, 0.000445051, 0.000798944, 0.000457625, -0.000861995, 0.000359193, -3.3412e-05, 0.000721919, -0.000224338, 0.000827071, -0.000209741, -0.000224195, 0.00019928, -0.000164963, 0.000622364, 3.7019e-05, 0.000843013, 3.46995e-05, -0.000216346, 0.000201575, 0.000732109, -1.60833e-05, 0.000818293, 0.00050206, 0.000740715, -0.000598164, 0.000743181, -4.35938e-05, 0.000840824, 0.000417524, -0.000702383, -0.00038255, -0.000647938, 0.000820368, 0.000194305, -0.000175631, 0.000193697, -0.000688217, 0.000368997, -0.000551597, 0.000125098, 0.000746029, -0.000774651, -0.000850154, 1.41911e-05, -0.000601794, -0.000102268, 0.000621998, 6.96738e-05, 0.000196692, 0.000487533, -0.000156468, -0.000900632, -1.84959e-05, -0.000679714, 0.000328546, -0.000241127, 0.000753044, 0.000194067, 0.000375896, -0.000198645, 0.00092169, -0.000370281, 0.00032017, -0.000670424, 0.000559971, 0.000122653, -0.000218857, 3.67379e-05, 0.000643056, -0.000616749, 0.000911985, 0.000474288, 0.000317423, -0.000393963, -0.000346049, -0.000715629, 0.000132359, 0.000700613, 0.000981445, 0.000458541, -0.00070089, -0.000449055, 0.000154564, 0.000585864, 0.000939085, -0.00073632, -3.15867e-05, 0.000103244, -0.000665916, 0.000419504, 4.85273e-06, 0.000547104, -0.000823209, 0.000318922, -0.000124593, -0.000206214, 0.000814386, 0.000234901, 0.000484725, -0.000671133, -0.000485824, 0.00066863, -0.000732719, -0.000522141, 0.000696585, 0.000588427, -0.000555834, 0.000665944, -0.000806239, 0.000687149, -0.00072837, 0.000665761, 0.000498337, 0.000629933, -0.000708998, -0.000151123, 1.45696e-05, 0.000306783, -0.000419942, 0.000432079, 0.0003022, -0.000925924, 0.000995544, -0.000271462, 0.000333476, -0.000983276, 0.000439497, -0.000593677, 0.000745598, 0.000192846, 9.21354e-05, 0.000724662, -0.000920225, -0.000120273, 0.000670583, -0.000207862, -0.000960419, -0.000171337, 0.000677016, 0.00081523, -0.000261201, -0.00048572, -0.000349667, -0.000650438, 0.000952471, -0.00061727, -0.00058963, -0.000457027, 0.000359879, 0.00010007, -0.000686087, -0.000604236, 0.000808954, -0.000187048, -0.000491989, 7.66015e-06, -0.000446333, -0.000615833, 0.000168737, 0.000821772, -0.000492172, -0.000349101, 0.00075927, 0.000880306, 0.000496046, 0.000673049, -0.000721846, 7.3778e-05, 0.000504476, 0.000984878, -0.000489764, 0.000390146, 0.000925135, 0.000837496, 0.000269713, -0.000839458, -0.000188025, -0.000540025, 0.000663991, 0.000323099, -0.000865596, 0.00030546, -0.00066802, -0.000343608, 1.58391e-05, 0.00029545, -0.000302652, 3.8789e-05, -8.33155e-06, -0.000924131, -0.000780755, 0.000696158, 0.000257686, 0.000266544, 0.000643874, 0.000453869, 0.000921107, 0.00070644, -0.000752345, 0.000978909, 0.00024316, -0.000292333, 9.46379e-05, 4.14747e-05, -9.62859e-05, 0.000310953, -0.000711112, 0.000760552, 0.000238929, 0.000523606, -0.000786554, 0.000848872, -0.000505417, 0.000577319, -0.000211402, -0.000131748, -0.000922727, 0.000176428, -0.000279853, 0.000479442, 0.000805405, -0.000250026, -0.000250724, -0.000312268, 0.000152712, -0.000306047, -0.000101683, 9.6012e-05, -0.000494613, -0.000369304, 0.000730216, -0.000839045, -0.000585192, -0.000341044, 0.000592212, 0.000431074, -0.00016361, -0.000405438, 0.000864437, 0.00080401, -0.000612415, 0.000227821, -0.000786798, -0.000224891, 0.000596057, 0.000571825, 0.000841008, 0.000689447, -0.000848564, -0.000886041, -0.000266995, -1.69356e-05, -0.000852859, -0.000942753, -9.05484e-05, 0.000447066, 0.000343913, -0.000412214, 0.000680776, 0.00046849, -0.000588916, -0.000892331, -0.0001124, -0.000719901, -0.000823908, 0.000493149, -0.00084283, 0.000213355, -0.00012241, 0.000343059, -0.000848079, -5.29496e-05, 0.000414289, 0.000229041, 0.000819514, -0.00024192, -0.000405011, -5.46587e-05, 0.000642506, 0.000770684, -0.000611072, 0.000758904, -0.000111179, -0.000793268, 0.000175207, 0.00065923, -0.000138462, -0.000363933, -6.80563e-06, -0.000391461, -0.000851131, 0.000225929, -0.000207617, 0.000791803, 0.000874142, -8.81985e-06, 0.000682608, -0.000133518, -5.41093e-05, 4.44655e-05, -0.000816523, 0.000212745, 0.000307718, 0.000846126, 0.000475204, 0.000183447, 0.000188513, -0.000546007, -0.000352275, 0.000354106, -0.000647816, 0.000773736, 0.000951598, 0.000772881, 0.000347942, 0.000808466, -0.000953001, 0.000210547, -0.000240028, -9.08536e-05, 0.000254799, -0.000589404, -0.000542161, 2.43843e-05, -0.000194372, 0.000339274, -0.000153905, -4.97147e-05, -0.000909604, -0.000564867, -0.000885556, 0.000580798, 0.000910398, 0.000859798, 0.00048796, 0.000157323, 0.000726615, -0.000252785, -0.000523484, -0.000480941, -8.95108e-05, -0.000545701, -0.000874569, -0.000647084, 0.000993774, 0.000810358, -0.000734916, -0.000556627, 0.000917966, -0.000632618, -0.000238929, -7.74865e-05, 0.000285073, 0.000650319, -0.000299417, -0.000146886, 8.27052e-06, -0.000790399, -0.000810663, 0.000770745, -0.0008034, -5.40483e-05, -0.000398602, -0.000670278, -0.000461287, -0.000728446, 0.000902646, -0.00030369, 0.000791559, -0.000825312, -0.000796564, -0.000756523, -1.85247e-05, -2.42012e-05, -0.000991211, 0.000801508, -0.000345561, 0.000577258, -0.000531846, 0.000907407, 0.000126011, 0.000713553, 0.000625538, 5.53911e-05, -0.000268838, -0.000799005, -0.000330546, 0.000946837, -0.000925596, 0.000188269, -0.000817072, 0.00073986, -0.000720084, -0.000594226, -0.000606311, -0.000700186, 0.00024131, 0.000416181, 0.000423811, -0.00055089, 0.0008717, 0.000863948, 0.000539964, -0.000783074, -0.000646352, 0.000725822, 0.000403241, 8.9816e-05, -0.000610462, 0.000560411, -0.000680532, -0.000738884, 0.000451094, -0.000241615, -0.000511093, -0.000118686, 2.94504e-05, 0.000792535, 0.000256325, -0.000692129, -0.000114475, -0.000532579, 0.000361003, -0.000644704, 0.000299661, -0.000829951, 0.000186865, 0.000545152, 0.000321635, -0.000880917, 1.21769e-05, 0.000355998, 2.09662e-05, 0.000615528, 0.000259987, -0.000526536, 0.000736442, -0.000707999, -0.000252358, 4.01318e-05, -0.000673391, -0.000636341, -6.27766e-05, -9.42106e-05, 0.000419477, -0.000122715, -0.000814936, 0.00087701, 0.000662526, 0.000961913, 0.000992431, 0.00096765, 0.000972839, 7.85241e-05, 0.000254677, 0.000648305, 0.00078692, 0.000270119, -0.000488021, -0.000903134, 0.000311014, 0.000411786, -0.000801019, 0.000448286, 0.000770623, -0.000539415, -0.000105075, 4.42213e-05, 0.000661061, 0.000705741, 0.000573412, 0.000683645, -3.08237e-06, 1.82806e-05, 0.000852596, 0.000872494, 0.000562548, 0.000101474, -0.000754631, -0.000926328, 0.000161657, 0.000740274, -0.000591854, -4.40933e-05, 0.000866748, -0.000947638, 0.000395245, 0.000650136, -0.000726981, -0.000262856, 0.000900449, 0.000986389, 0.000740593, -0.000674673, -0.000484481, -0.000242897, -0.000348064, 0.000430586, 0.000975951, 0.000960509, -0.00034135, -1.80059e-06, 0.000411603, 5.15458e-05, -6.83309e-05, -0.000444441, -0.000403119, 0.000192544, -0.000588789, -0.000538964, -0.00080032, 0.000501356, -0.000943263, -0.000841641, -0.000962746, 0.000307996, 0.000100957, -0.000578828, 0.000313883, -0.000608081, 0.000289285, 0.000602466, -0.00011655, 0.000244789, 0.000141636, 0.00089111, 0.000493027, 0.000313883, -0.000803827, 0.000556566, -0.000965693, 0.000253522, 0.000260671, 0.000200618, 0.000793595, 0.000174907, -0.000338982, -0.000994528, -0.000299861, -0.00010405, -0.000503694, 0.000989535, 0.000582924, -0.000805046, -0.000117074, -0.000749679, -0.000591479, 5.11185e-05, -0.00079577, 0.000215308, -0.000458052, 0.000905087, 0.000366802, -0.000102695, -7.78222e-06, 0.000903439, -0.000954588, 0.000140239, -0.00033729, 0.000149788, -6.53679e-05, 0.000869913, -0.000398933, -4.64773e-05, 0.000996931, 0.000342976, -0.000750742, -0.000915351, -0.000280846, -0.000598233, 0.000696052, 1.70013e-05, -0.000648116, -0.000281716, 0.000923154, -0.000817927, -0.000832453, 4.40382e-05, 5.40483e-05, -0.000782098, 0.000708792, 0.000466231, -0.000389325, -0.000779229, 3.69579e-05, 0.000652885, 0.000758078, 0.000993563, -1.67214e-05, 0.000103249, 0.000554596, -0.00070533, 0.000397174, 0.000400524, 0.000206928, 9.3704e-05, 0.000402025, -0.000540673, -0.000687546, 0.000813544, 0.000635243, -0.000224342, 0.000115879, 0.000585131, -0.000494064, 0.000676199, -0.00024778, 0.000495224, -0.000556688, 0.000571947, 0.000505051, -0.000160436, -0.000854305, -0.000794733, 5.12511e-05, 0.000370302, -0.000169346, -0.000100749, -0.000289063, 0.000545063, -0.000514675, -0.00018689, 0.000702395, -0.000217353, -0.000881459, 0.000183109, 0.000384865, 0.000704954, -0.000995178, 0.000580126, 0.000514573, -0.000607532, 0.000940367, -0.00084405, -0.000511643, -0.000368999, 0.000490829, 0.000895566, 0.000601611, -0.000834468, -0.000758721, -0.000134739, 0.000292825, -5.28236e-05, -0.000954873, -0.000537613, 0.000393764, 0.000383978, 0.000279947, 0.000670876, 0.000385235, -0.00040707, 8.59096e-05, 0.000300577, -0.000363866, -0.000356736, 0.000626934, -0.000753777, -0.000333598, -0.000181616, -0.000663503, 0.000734916, 0.000384075, 0.000851314, -0.000833857, 0.000575182, 0.000346049, -0.000813593, 0.000837886, -0.000592334, -0.000997628, -0.00077646, -0.0009085, 0.000954164, 0.00094753, -0.000427749, 0.000941893, 0.000272683, 0.000173132, -0.000704337, -8.46278e-05, -3.44859e-06, 0.000309006, 0.000163743, 0.000312379, 0.000595874, 0.000888424, 0.000909299, -0.000545335, 0.000621387, -0.00041966, -0.000535936, -7.11997e-05, 0.000955931, 0.000453597, -0.000778008, -0.000156041, -0.000935641, 0.000219232, -0.000718547, -0.000922961, -0.000756453, 0.000486303, 0.000702947, -0.000470861, 0.000873287, 3.44859e-06, 0.000746574, -0.000636402, 0.000663503, 0.000915653, -0.000867233, -0.000732604, 0.000907712, -0.000983215, 0.000293435, 0.000699515, -0.000269204, -1.21769e-05, -0.000390545, 0.000132603, -0.000660024, -0.000340861, -0.000326029, -0.000687185, 0.000274104, 0.000253101, 0.000534604, -0.000495358, -0.00034489, 0.000641839, -4.88895e-05, -0.000256723, -0.000564602, 0.000584291, -0.000367412, -0.000918577, 0.000650441, 0.000987615, -0.000501011, 0.000841846, -0.00033256, 0.000157506, -6.86972e-05, 0.000870235, 0.000435774, 3.65917e-05, 9.55229e-06, -0.000223975, 0.000736686, 0.000466964, -0.000223731, -0.000807855, 0.000432456, -0.000567303, 0.000478457, 1.99896e-05, -0.00027842, -0.000682302, 0.000824224, 0.000680503, -0.000621537, -0.000857506, -0.000777199, -0.00063585, -0.000986633, 0.000826162, 4.31286e-05, 0.000280057, -0.000681997, -0.000564013, -0.0001348, -8.93277e-05, 0.000315775, -0.000573717, -0.000281472, -0.000747856, -0.000387921, 0.000900998, -0.000655385, 7.36852e-05, 0.000643463, -0.00014425, -0.000559694, -0.000835444, 0.000933042, 0.000436262, -8.83511e-05, 0.000581414, 0.0003288, -0.000825218, 0.000118231, -9.82804e-05, -0.000734363, -0.000747972, -0.000872239, 0.000471467, -0.000990783, 0.000747185, -3.03049e-05, -0.0003408, -9.26847e-05, 0.000876156, -0.000127476, -0.000901547, -0.000360393, 0.000254494, 0.000527146, 0.000945004, -0.000533361, -0.000860103, 0.00032981, 0.000124851, 0.000486068, -0.000310709, 0.000634693, 0.000581225, -0.000130159, 0.000197131, 1.89478e-06, -0.000471666, -0.000873516, -0.000644453, 0.000448203, -0.00030021, 0.000347942, 0.0005056, -0.000298807, -0.000401471, 0.000454085, -0.000125217, -0.000560289, -0.000252907, -0.000550462, 0.00084051, -0.000446516, 0.000937069, 0.000669129, 0.00017219, 0.000388226, 0.000481307, -0.000965514, 0.000288247, 0.000996765, 0.0004597, -0.000707877, -0.00050499, -0.000611197, -2.73921e-05, 0.000274069, 0.000246654, 0.000781007, -0.000607837, -0.000851985, -0.000604846, -0.000151769, 0.00060625, -0.000343364, 0.000430525, 0.000970397, -0.000725455, 0.000379192, -0.000258583, 0.000485763, -0.000924438, 0.000974742, 0.000859616, 0.00093939, -4.11084e-05, 0.000439192, 0.000713981, -0.000666921, 0.00039104, -0.000656833, -0.000126473, -0.000624628, -0.000391539, 9.33044e-05, 0.000805475, -0.000265481, -0.000128086, -0.000819514, 0.000119602, 0.00028135, 0.000704031, -0.00057738, 0.0008211, 0.000346782, -0.000847957, 0.000222999, 0.000559374, 0.000967956, 3.10309e-05, -0.000185394, -0.00012269, -0.000861019, 0.000177221, -0.000482162, 0.000466908, 6.13312e-05, 0.000694052, -2.31558e-05, -0.000593379, -0.000608164, -0.000795028, -0.000574975, -0.000571276, -0.000500412, 0.000106235, -7.6693e-05, -0.000848201, -0.000296854, 0.000808527, -0.00038316, -0.000656301, 0.000533189, -4.79141e-06, 0.000982299, -0.000834346, -2.40181e-05, -0.000131811, -0.000923143, 0.000422128, -0.000275739, 0.000400194, -0.000204819, -0.000183419, -0.000570065, -0.000419113, 0.000105176, -0.000809618, 0.000949927, -0.00032624, 0.000316141, -0.000213965, 0.000599353, -0.000543077, 0.00031138, 0.000484542, -0.000601794, 0.000480514, -0.000189123, 6.54012e-05, -0.000674184, -0.000685842, 0.000615467, -0.000548509, -0.000432051, -0.000203529, 0.000856818, -4.09723e-05, 0.000765882, -0.000714009, -0.000747564, -0.00044751, -0.00072828, 0.000911602, -0.000652197, -0.000912263, -0.000607715, -0.000178503, -0.000227088, 0.000565294, -0.000361248, -0.00056975, 0.000486801, -0.000620106, 0.000983154, -0.000324381, -0.000966552, 0.000572436, -0.000896725, -0.000736259, 0.000788079, -0.000922605, 0.000633961, -7.98227e-05, -0.000793333, -2.70911e-05, -0.000584233, 0.000639249, 8.00943e-05, 0.000734961, 0.000750308, -6.18493e-05, -0.000219763, -0.000518174, -0.000357036, 9.9826e-05, -0.000492416, -0.000776177, -0.00094525, -0.000572985, -0.000451399, 0.000119541, 0.000156713, 0.000493942, -0.000479476, -0.000279397, 0.000575793, 0.000393231, 0.000622608, -0.000776475, 0.00064613, 0.000987334, -0.000113896, -0.000281474, -0.000342587, -0.000843157, 0.000423426, 0.000442161, 0.000111421, -0.000942991, -0.000316691, -0.000975402, -3.98877e-05, 0.000355083, -0.000310465, -0.000261147, 0.00086639, 0.00049266, -0.000697134, -0.000245338, 0.000449507, 0.00092993, 0.000464766, -0.00061449, 0.000535752, -0.000603748, 0.000448592, 0.000339536, -0.000591568, 0.000140876, 0.000110053, -3.07653e-05, 5.78503e-05, 0.000182365, 0.000136511, -0.000478195, 0.000431196, -0.000441206, -0.000702261, 0.000388958, -0.000316996, -0.000422102, 0.000695303, 0.000356792, 0.000424543, -0.000933042, 1.27873e-05, -0.000143956, 0.000974364, 0.000622669, -0.000234046, 0.000212012, -0.000392315, 0.000861263, -0.000447432, -0.000105502, 0.000807245, 0.000668569, 0.000302286, 0.000767815, -0.000487594, -0.000550157, 0.000526902, 0.000340739, -0.000630238, -0.000619922, 0.000570238, 1.66936e-05, 0.00098291, -0.000346355, 0.00085815, -0.000656423, 0.000162389, 0.000734428, 0.000148473, 0.000263955, 0.000175878, 0.000605884, -0.000218848, -0.000635365, -1.92267e-06, -0.000979003, -7.18711e-05, 0.000127232, 0.000560656, -0.000247658, -0.000156652, -0.000822321, -0.000997681, 0.000841975, 0.000112766, 0.000536729, 0.000918943, 0.000851436, 0.000904538, -0.000130772, 0.000613208, -0.00088818, 0.000218604, 0.000735038, -0.00065508, -2.61544e-05, 0.000137059, 0.000838191, -0.000418989, -0.000942381, -0.000925901, 0.000277383, -0.000754631, -0.000497055, 2.59102e-05, -0.000204077, -3.10373e-05, 0.00021897, 0.000820551, -0.000968566, -0.000660451, 0.000134556, 0.000368328, 0.000766411, -0.000847652, 0.000447859, 0.000911435, -0.000822565, -0.0003408, 0.000876888, 0.000274148, 8.60927e-05, -0.0001807, -9.11588e-05, 0.000112888, -0.000791986, -0.00045146, -0.000949278, 0.000165868, 0.000791925, -0.000859249, 0.000926084, 1.01016e-05, -0.000482406, 0.00087817, 9.07315e-05, 0.000524094, 0.000564318, -0.000577441, -0.000583972, 3.30515e-05, 9.67132e-05, -0.00066155, -0.00030607, -0.000365459, -0.000153722, -0.000431135, -9.25016e-05, -0.000570177, 0.000360515, 0.000685904, 0.000481429, -0.000225684, 0.000253578, 0.000140538, 0.000531724, 0.000527146, -0.000544053, -0.000487289, -0.000884213, 0.00030137, 0.000464522, -0.000238746, 0.000482589, -0.000285989, -0.000407514, 0.0004738, -0.000677786, 0.000636036, 0.000219642, -0.000883114, 1.64495e-05, -0.000557787, 4.2085e-05, 0.000286294, -0.000111789, 0.000261269, 0.000322367, 0.000956236, 0.000452132, 0.000225867, -0.000860714, -0.000269997, 0.00066393, 0.000722526, 0.000638295, 9.00601e-05, 0.000170934, 0.000641652, 0.000280984, -0.000352641, 0.000561876, -0.000372417, 9.56145e-05, -0.00060802, 0.00061681, -0.000671377, -7.32749e-05, 0.000942991, -0.000442793, 0.000647023, 0.000685171, -0.00020188, 0.00029606, 0.000988647, -0.000401654, 0.000584277, 0.000687613, -0.000486435, -0.000539903, 0.000306986, 0.00077752, 0.000385723, -0.00011948, -0.000399091, 5.30107e-05, 2.27973e-05, 0.00053618, -2.04779e-05, 0.000692557, 0.000346538, 0.000420087, -0.000914792, 0.000816156, 3.25022e-05, -0.000908444, -6.06403e-05, -0.000264992, -0.000239784, -7.35191e-05, 0.000192053, -0.000798029, -0.000536851, -0.000632984, -0.000627552, 0.000661245, -0.00042143, 0.00017185, 0.000138646, 0.000498215, 0.000297647, 0.000665822, -0.000472579, -0.000710013, 0.000815607, -9.55229e-06, 0.000204749, -0.000945067, 0.000581469, -0.000646413, -0.000284707, 0.000502792, 0.000548082, -0.000720634, -0.000267312, 0.000284768, 0.00042241, 0.00085884, -0.00069016, 0.000243587, -8.48696e-05, 0.000998169, 0.000127232, 0.000662709, -9.18607e-06, -0.000328471, -0.000253822, -0.000481918, 0.000118259, -0.000831355, 0.000855708, -0.000273598, -0.000480209, -0.000654347, 0.00052385, 0.000395856, 0.000421857, 0.000875362, -0.000552232, 7.60216e-05, -0.000695364, 0.000496769, -0.000796387, 8.08105e-06, 0.000152919, 0.000266428, -0.00050294, -0.000624519, -0.000296202, 0.00080398, -0.000589655, 0.000549794, 0.000700149, 0.000547899, 0.000654775, 0.000345622, -0.000863765, -0.000995117, 0.000825556, -0.000726981, -0.000486007, -4.85244e-06, 0.000641652, 0.000778436, 8.62758e-05, 0.000906257, -0.000797309, 0.000501871, 0.000111682, -5.741e-05, -0.000761968, -0.000475668, -0.000899293, -0.000626214, 0.000352437, -0.000384102, 6.74993e-05, 0.00078569, 0.000282732, 0.000491535, 0.000782205, 0.00033079, 0.000143284, -0.000944334, -0.000980773, -1.80364e-05, -0.000319132, 0.000657094, -0.000194372, 0.000773431, 0.00051677, 0.000332194, 0.000672302, 5.9059e-05, -0.00059565, 6.20243e-05, 0.000904897, 0.000754749, -0.000528591, 1.4369e-05, 0.000790334, 0.000597028, -0.000521551, -0.000198916, 0.0008709, -0.000613886, -0.000936983, -0.000271944, -0.000804987, 0.000241615, -5.2797e-06, 3.96435e-05, 0.000563952, 0.000848506, -0.000580615, 0.000172216, -0.000218848, 0.000706656, -0.00088818, 3.20444e-06, 0.000905447, 0.000384691, 0.000727755, -0.000896501, 0.000500355, 0.000764026, -0.000952824, -1.96774e-05, 0.000878564, 0.000294857, -0.000766921, -0.000664175, -0.000638726, 0.000242669, 7.50128e-05, -0.000683767, -0.000475387, -5.6856e-05, -0.000754265, 0.000755119, 0.000445662, 4.45875e-05, 0.000542772, 0.000428449, -4.40382e-05, -0.000237831, -0.000856746, 0.000303873, -0.000108676, 0.000128601, 0.000854881, 0.000791152, -0.00065669, -0.000757321, -0.000638546, -1.13766e-05, -0.000100109, -0.000484433, -0.000523302, 0.000939694, 0.000914038, 0.000932389, 0.000394116, 0.000877377, 0.00073516, 0.000289651, 0.000937315, 0.000476241, -3.11594e-05, 0.000451827, 0.000806574, -0.000897763, 0.000724174, -0.000400983, -0.000168371, 6.28986e-05, -0.000135838, 0.000478256, -0.00077859, -0.000142732, 0.000257209, -0.000345383, 0.000814094, -0.000575289, 2.0329e-05, 0.000752282, 0.000324225, -0.000602222, -0.000217933, -0.000277123, 0.000599845, -0.000650744, -7.9989e-05, 7.65709e-05, 0.000863765, -0.000956481, -0.000183203, 0.000143101, -2.98166e-05, -0.000313456, -0.00089111, 0.000317423, -0.000348979, -0.000824458, 0.000936827, 0.000311368, -0.000232311, -0.000650425, -0.000804041, 0.000404767, -0.000439083, -0.000762248, -0.000218848, 0.000686636, 0.000896298, 0.00031254, -0.000151891, 0.000323909, -0.000474273, -0.000263318, -0.000948424, 0.00079107, 0.000323771, -0.00038609, 0.000801752, -0.000867244, 0.000547105, 0.000240516, -0.000487716, -0.000791009, -0.000920225, -0.000646535, -0.000148891, 0.000946574, -0.000314112, -0.000618458, -1.00018e-05, -0.000411211, 0.000258355, 0.000694289, 0.000854122, 0.000942259, 6.44246e-05, 0.000852596, -0.000626576, 0.000636479, -0.000990586, -0.000139619, -0.000268838, -0.0006386, 0.000869808, -0.000589282, 0.000614734, 0.000126682, 0.00055443, 0.000139866, 0.000465255, -0.000493027, -0.000649953, 0.00087463, 0.000727969, 0.000894054, 0.00017278, -0.000116653, -0.000898373, -0.000255123, 0.000817891, 0.000127032, 0.000790574, 0.000834857, -0.000794665, 0.000502853, -0.000251686, -0.000496978, 0.00064246, -0.000892266, -6.11286e-05, 0.000907529, -0.000941954, 0.000473678, 0.000575732, -0.000728141, 0.000263527, 0.000826716, -0.000622486, -0.000864315, -0.00080224, -0.000666616, -0.000183012, 0.000605656, -0.000820798, -0.000648, 0.000369732, 0.00060332, -0.000845238, -0.000316367, -0.000231564, 0.000120376, 0.00095041, -0.000185056, 0.000242103, -0.000542509, 0.000520204, -0.000817312, 0.000783746, -0.000509507, -0.000801141, 0.000408918, 0.00038377, 0.000906919, 0.000949339, 0.000559435, -0.000711966, -0.000538865, -0.000387127, 0.000390764, 0.000246749, -0.000775308, 0.000160151, -0.000399274, -0.000237403, -0.000165929, -5.99078e-05, 7.9241e-05, -0.000654615, -0.00025427, -6.68249e-05, -0.000842719, 0.000752974, -0.000524811, -8.07275e-06, 0.000855347, -0.000746208, 0.000863094, 0.000106418, -0.000861019, 0.000866634, 0.000311808, -0.00035905, -0.000837031, -0.000385662, 4.06812e-05, 0.000589221, 0.000523836, 0.000774666, -0.000664127, 0.000824184, 0.000508957, 0.000127537, -0.000201025, -0.000652638, -0.000651967, -0.000790967, 0.000600135, -0.00045875, -0.000536618, 0.000558917, -0.000277306, 0.000410863, 0.000712226, 0.000965941, -0.000780816, -0.000151341, -0.000347148, 0.000730949, 0.00045793, -0.000128819, 0.000778741, 0.000903134, -0.000627064, -0.000125462, -0.000223867, 0.000537293, -0.000284668, -0.000116062, 0.000772698, -5.91144e-05, 0.000301431, -0.000196509, -0.000412336, -7.27866e-05, 0.000265725, 0.0006678, 0.000983544, -0.000935942, 0.000308599, -0.000115972, -9.33561e-05, 0.000915952, -5.55742e-05, 0.000497604, 0.000755913, -0.000687613, 0.00075811, 0.000426923, 0.000614246, -0.000420331, -0.000351909, -0.000279458, 0.000507966, -0.000200156, 8.03562e-05, -0.000194006, 0.000654347, 5.77105e-05, -0.000663747, 0.000739799, -0.000287097, -0.000305295, -0.000233907, 0.000459096, 3.51826e-05, 0.000553174, 3.08671e-05, 2.26142e-05, 0.000907895, 0.000228431, 0.000365459, 0.000879147, -0.000180151, -0.000674429, -0.00018363, 9.87884e-05, -0.000306314, 0.000698538, -0.000502365, -0.000367351, 0.000145591, 0.000706672, -0.000159967, -0.000439375, 0.000732658, 0.000462142, -0.000160124, -0.000657545, 0.00020549, -0.000915339, 0.000312517, -0.000935122, -0.000248346, 0.000940806, -0.000867855, 0.000691641, 0.000251747, 0.000907102, 0.000500656, -0.000677053, -0.000467147, -0.00038609, 0.000178503, 0.000431501, -0.000392438, 0.000692923, 0.00074456, -0.000879513, -6.80399e-05, 3.08078e-05, 0.00084455, -0.000627611, 0.000653098, -0.000982139, 0.000440783, -0.000700346, -0.000138746, -0.000200907, 5.96217e-05, 0.000388816, 0.000831989, 0.000518845, 4.41603e-05, 0.000759758, -0.000709525, 0.000584399, -0.000190405, 0.000412824, 0.000649586, -0.000100253, -0.000918699, 0.000473495, -0.000737114, 0.000125034, -0.000846858, 0.00044731, -0.000323724, -7.56407e-05, 0.000135695, -0.000530369, -0.000121725, 0.000216477, 0.000206025, -0.000446338, 0.000544598, -0.00058019, 0.000853465, 0.000838265, 0.000294229, 0.000710868, 0.000140599, 0.000849727, 0.000942747, -0.000728263, -5.66118e-05, -0.00026371, 0.000740898, -0.000465682, -0.000796625, -0.000472823, -0.000367168, 0.000436018, -0.000820856, -0.000619617, 0.000504348, 0.000669312, 0.000697521, 0.000834768, 0.000433817, -7.27918e-05, -0.000603509, -0.000948216, -6.51296e-05, 0.000157076, 0.000983398, 7.75475e-05, 0.000221046, 0.000816156, 0.000486496, 8.8229e-05, 0.000443525, 0.00010947, -0.000505539, 0.000634938, 0.000944334, 0.000247841, -0.000585559, -0.000100986, 0.000507309, 0.000695853, 0.000720194, -5.79464e-05, -0.000390617, -0.000576391, 0.000202206, -4.80719e-05, -0.000335006, 0.000150729, 0.000213596, -0.000505666, 0.000280862, -0.000397259, -7.11386e-05, -0.000229102, 0.00051091, 0.000764092, 0.000588488, 0.000855831, 9.43327e-05, 0.000116855, 0.000746818, 0.000954039, 0.000713492, 0.000899289, -0.000474288, -0.000350871, -0.000757744, 0.000353374, -0.000135512, -0.000844314, 0.000997539, 0.000976664, -0.000233537, -0.000438811, 0.000981867, -0.000235897, -0.000448714, 8.84732e-05, -0.000854366, -0.000525925, -0.000890255, 0.000337931, -0.000370647, -0.00013712, -0.000855647, -0.000463057, 1.29704e-05, 0.000941954, 0.00042552, -0.000207129, 0.000568773, 0.000226722, -0.000960204, -0.000658254, -0.000489608, -1.34587e-05, -0.000359478, -0.00020127, 0.000242958, 0.000494613, 0.000697073, -0.000592273, 0.000612964, -0.000721854, -0.000254494, 0.000291604, 0.000158361, 0.000368267, 0.000638112, -0.000297891, -0.000641652, -0.000450117, 0.000793695, -0.000730033, 0.000883786, -0.000388165, 0.000447432, 0.000254738, 0.000846675, -0.000403058, -9.91546e-05, 0.000794916, 5.05692e-05, 5.1973e-05, 0.000771966, -0.000842158, -0.000759575, 0.000277444, -0.000754936, 0.000989929, 0.00035258, -0.000422163, -0.000678884, 0.000566271, -0.000235206, 0.000511643, 6.72933e-05, 4.09864e-05, -0.000453841, 0.000141087, 0.000867061, 0.000697195, 0.000707389, -0.000717582, 0.000670522, 0.000196753, 0.00045024, -0.000244118, -0.000755913, -0.00016953, -0.000581835, -0.000364666, 0.000420637, -0.000231788, 0.000946043, 0.000498886, -0.000650746, 0.000308451, 0.000309915, 0.000678274, -0.00025425, -0.000871151, -2.25532e-05, 0.000509262, -0.000857967, 0.000535875, 0.000857601, -0.0004185, 0.000136692, 0.000714774, -0.000449202, -1.13834e-05, -0.000355632, 0.000979919, -0.000401166, -0.000421918, 0.00064568, 0.000933226, 0.000391522, -0.000545824, 0.000783074, -0.000608692, -0.000900754, -0.00061626, -0.00031492, -0.000766167, -0.000541246, -0.000959838, 0.000669851, -0.00041966, 0.000907041, -5.63677e-05, 0.000355876, 0.000413923, 0.000306864, 0.000602405, 0.000912839, 0.000830683, 0.000196997, 0.000763237, 0.000310831, -0.000709769, -0.000958251, -0.000339152, 0.000571032, -0.000134556, -0.000518601, 0.000268654, 1.52287e-05, 0.000492355, 0.000581896, -0.000451949, -0.000483993, -0.000779717, 8.4994e-05, 0.000698904, 0.000746941, 0.00046202, 0.000658254, -0.00059093, 0.00043199, -0.000756645, 0.000144993, 0.000105014, 0.00059624, -0.000546373, -0.000185705, 0.000201331, 0.000815424, 9.53093e-05, 0.000611072, 0.000350932, 0.000466048, -0.000465804, -0.000594043, 0.000694937, 0.000975402, -0.00025071, -0.000754631, -0.000887204, 7.16269e-05, 0.000583056, -0.000398297, -0.000527696, 3.35398e-05, -9.064e-06, 0.000622791, -0.000120518, -5.91754e-05, 0.000292032, -0.000617542, 0.000928648, -7.60826e-05, 0.000418439, 0.000130345, -4.77615e-05, -0.000586047, 0.000165563, 0.000541795, -0.000728751, -0.000606922, 0.000442305, -3.2136e-05, 0.000444807, 0.000643971, -0.000479415, -0.000314493, 0.00052031, 2.1363e-07, -0.000714225, -0.000852596, 0.000283486, 0.000596118, -0.000513474, 0.000232154, 0.000508286, 0.000116733, -1.54118e-05, -0.000506149, 0.000206946, -0.000951903, -0.000994873, 0.000412702, 0.000880123, 0.000926939, -0.00061333, -0.000355693, 0.000766594, 0.000590503, 0.000830988, -0.000729484, -0.000906552, 0.000427168, 0.000152867, -0.000951476, 0.000326151, 0.000625965, -0.000469222, 0.000661672, 0.000418256, -0.000573351, 0.000756279, -3.12815e-05, -0.000938396, -0.000630631, -0.000516796, -0.000746052, -6.31217e-05, -0.000453047, -0.000517624, -0.000520493, 0.000962462, -0.000149937, 0.000882687, 0.000530076, 0.000544847, -0.000777825, 0.000429548, -0.000531785, -0.000170751, -9.3112e-05, -0.000269021, 0.000781793, 0.000949156, -0.000301187, -0.000491745, 0.000634449, -0.00072393, 0.000193227, -0.000153943, -0.000884467, -0.000330684, -0.000964214, 0.000441637, 0.000490528, 0.000728533, 0.000175069, 0.000858124, -0.000548816, -0.000959487, 0.000105441, 0.00076574, -0.000639027, -0.000572802, 0.000127964, 0.000205786, 0.000515976, -0.000796075, 0.000590991, -0.00017185, 0.000383221, 0.000421552, -0.000855324, -0.000852854, -0.000142722, 0.000120324, 0.000990176, 0.000790799, -0.00049276, 0.000576342, -0.000872674, 0.000747779, -0.000171001, -0.00044317, 0.000610669, 0.000624883, -0.000505114, 0.000566998, 0.000790521, -0.000113681, -0.000400067, -0.000901791, -0.000426679, 0.000115696, -8.04773e-05, 0.000882565, -0.000337077, -0.000744194, -0.000848506, 0.000139058, 0.000815746, -0.000135018, -0.000828277, -0.000174115, 8.56191e-05, -0.000639422, -0.000722706, -0.00011356, 8.04191e-05, 0.000279186, 0.000446985, -0.000493398, -0.000791994, 0.000516149, -0.000417707, -0.000640004, -7.13828e-05, -0.000416608, -0.000239479, -0.000144261, 0.000999817, 0.000853572, 0.000485519, -0.000606861, -0.000267983, -0.000186316, -6.36311e-05, 0.000609753, 0.000237331, 0.00031513, -0.000780729, 0.000631261, -0.000325355, 0.000818113, 0.000611672, -0.000680011, 0.00050881, 0.000652097, -0.000176983, -0.000470872, 0.000751248, 0.00025554, 0.000235817, -0.000649525, 0.000219031, -0.000566088, -0.000842891, 0.000360759, 0.000774285, -0.000398114, 7.13218e-05, -0.000122471, 0.000583422, 3.98267e-05, 0.000888058, -0.000794, 0.000363087, 0.000141574, 0.000193122, -0.000109849, -0.000370343, -0.000338462, -0.000503723, -3.97688e-05, 0.000950674, 0.000971112, -0.000512772, 0.000188318, 0.000196354, -0.000697557, 0.000277261, 0.000332011, 0.000786676, -0.000996704, -0.000345073, -0.000612415, -6.0152e-05, -0.000218482, -0.000665029, -0.000159703, 0.000927915, 0.00096057, -0.000792474, -8.67641e-05, -0.000677419, -0.000273688, -0.000412126, -0.000182138, -0.000753102, -0.000621668, -0.000530054, 3.93799e-06, -0.000377143, -0.000420583, 0.000769158, -0.000590014, 0.000425981, 0.000604547, 0.000579293, -0.000288247, 0.000932188, -0.000404828, -0.000580126, -0.000426008, -3.48827e-05, 0.000801691, -0.000514451, 0.000899716, 0.000152196, -0.000159581, 0.00089697, -0.000920103, 0.000170506, -5.99542e-05, -5.02293e-05, -0.000755895, 0.000999169, 0.000195174, -0.000631327, 0.0005103, 0.000164953, -0.000192114, 0.000549303, 0.000234169, -1.5218e-06, 0.000348651, -0.000184409, 0.00026017, -0.000117893, 1.55644e-06, 0.000668813, -0.000829218, 0.000494552, -0.000190405, 3.26243e-05, 0.000537034, 6.86972e-05, -6.76595e-05, 0.000508835, -0.000832171, 0.00063668, -0.000109005, 0.000623478, -0.000639328, 0.000284682, 0.000824454, -0.000918065, -0.000848384, -0.000607288, -0.000274514, -0.0009906, 0.000564257, 0.000898225, -0.000290651, 0.000211258, -0.000139073, 0.000538743, 0.000252541, -0.000580981, -0.000207801, -0.000901547, -0.000558947, 0.00053679, -0.00015305, 0.0006657, 0.000227393, 0.000896664, 0.000502058, 0.000877842, 0.000675809, -0.000494207, -0.000526536, -0.0008235, 0.000218024, -0.000700841, -3.48653e-05, -0.000950847, -0.000110076, -0.000618152, 0.000916868, 0.000285352, 0.000599696, -0.000708631, -0.000738884, -0.00076989, -0.00063329, -0.000760979, 0.000165746, -0.000977233, -0.000429975, 0.000359233, -0.000712516, -0.000142857, -0.000794916, 0.00096466, -0.000979218, -0.000774128, -0.000870729, 0.000793207, 0.00075103, 0.000176183, -0.000683937, -0.000740445, -0.000901033, -0.000448077, -0.000902454, -0.000300032, 0.000171728, 0.000245611, -0.000579176, -0.000367986, -0.000178991, -0.000539842, -0.000899228, 0.000997803, -0.000117893, 0.000939512, -0.000941343, 0.00041203, 0.000429853, -0.000767205, 0.000583117, -0.000582448, 2.63948e-05, -6.1518e-05, -0.000425516, 0.000733634, -2.44453e-05, -4.09864e-05, 0.000798334, 0.000503736, 0.000565434, -0.000256238, 0.00013208, 0.000547991, -0.000677903, -0.000459177, 0.000812593, 0.000610226, -0.000735893, -0.000341594, -0.00030015, 0.000615223, -0.000854671, 0.000696036, -0.000492355, 0.000907956, -0.000291543, -0.000191748, -0.000932615, 0.000511734, -6.63399e-05, 0.000949204, -0.000427065, -0.000623829, -0.000707389, -0.000873714, 0.000831721, 0.000624989, -9.41627e-06, 0.000644224, -0.000484948, 0.000809995, -0.000775494, -0.000641678, -0.000597209, 0.000153805, -0.00057268, 0.000930296, -0.000352824, 0.000811884, 0.000522874, -0.000934263, -0.000994385, -0.00088934, 0.000171239, -0.000225074, 0.000102268, -0.000196479, 2.06379e-05, -0.000382906, -0.000325968, 0.000320353, -3.91552e-05, -4.45875e-05, 0.0008211, -0.000984558, 0.000364971, -0.000800653, -0.000742073, -0.000579243, 0.000347926, -0.000938294, -0.000442291, 0.000490463, 1.08341e-05, 0.000807062, -0.000585498, 0.00085931, 0.000695181, -0.00050206, -0.000120212, -0.000915342, -0.000770867, 0.000249794, -0.000379681, -9.97963e-05, 0.000178968, 0.000477725, -0.00083404, 0.000466536, 0.000102329, 0.000149388, -0.000840083, 0.00061849, -0.000209083, 3.12511e-05, 0.00060916, -0.000882623, 0.000525969, -6.02647e-05, -0.000868587, -0.000100131, 0.000327982, 0.000995605, -0.000788385, 0.00032963, 0.000206153, -0.000132481, 0.000445479, -0.00055504, 0.000406598, -0.00097412, -0.000207617, 0.000210024, 0.000663477, 0.000991092, -0.000174841, -0.00023423, 0.000452376, 0.000587206, 0.000980734, -0.000321538, -0.000766816, -0.000815498, -0.000193396, 0.000187634, 0.000704945, 0.000956664, -0.000783502, 0.000462081, -0.000944517, -0.000871395, 0.000736808, 0.000845882, -0.000786981, 0.000225135, 0.00075634, -0.000892453, -0.000908811, 0.000321879, 0.00077752, 0.000691793, -0.000157895, -0.000705449, -0.000334315, 0.000969988, 0.00010991, -0.000926362, -9.79354e-05, -0.000511736, 0.000270485, -0.000116881, -0.000174012, 0.000217934, 0.000692801, 0.000503403, -0.000105686, -0.000192236, -1.66326e-05, 0.000514817, 0.00092645, -0.000168249, -0.000763787, 0.000547349, 0.000354228, -0.000960814, 0.000283914, 0.000532212, 0.000473128, -0.000394727, -5.35831e-05, -4.93859e-05, 0.000691378, -0.000617896, 0.00028599, 8.79267e-05, -0.000217136, 0.000145424, 0.000846296, 0.000274472, 0.000130354, -0.000152196, 0.000914426, 0.000146397, -1.60222e-05, 0.000868709, -0.000235206, -0.000111667, -0.000294717, 0.000261879, 0.000909482, 0.000486373, 1.95013e-05, 7.47703e-06, 0.000348857, -2.29194e-05, 0.000264931, -0.000738829, 0.00082205, -0.000301893, 0.00064373, 0.000605212, 5.59433e-05, 0.000537525, 0.000469991, 0.000295477, -0.000984576, -0.000816218, 0.00042259, 0.000516709, 0.000155065, 0.000377728, 0.000793146, -0.000372906, -0.000333598, -0.000840571, -0.000263588, 0.000411542, -0.000270302, -0.000879696, -0.000479476, 0.000330546, 0.000763604, 0.000652835, 0.000777716, -0.000228593, -0.000324253, -0.000800126, 0.000750545, 0.000293496, 0.000108515, -0.000496217, -0.000451773, 0.000886593, 0.000697439, -0.000139439, 0.000392621, 0.000214454, -0.000686026, 0.000365337, -0.00013242, 0.000866207, -0.000682058, -0.000836177, 0.000171117, -0.000393109, -0.000192663, 0.000703116, -0.000635853, -0.000372417, -0.000131199, -1.88029e-05, -0.000377641, 0.000796223, 0.000828146, 0.000795726, -0.000519494, -9.76205e-05, 0.000495055, -5.34074e-06, 9.11588e-05, 0.000916135, -0.000575915, -0.000269509, -0.000530869, -0.000767876, -0.000846004, -0.000297159, 0.000741508, -8.01721e-05, 0.000462569, -0.000586657, 0.000398907, -2.52388e-05, -0.000384075, 0.000414228, 0.000545457, 0.000568407, 0.00061858, 0.00055858, -0.000851558, -0.000702017, -0.00053679, 0.000250221, 0.000288614, 0.000436567, 0.000380902, 0.00069396, 0.000409772, -0.000817194, 9.09146e-05, 0.000145054, 0.00056914, -8.85342e-05, 5.08744e-05, 0.000159886, 0.000687246, 0.000422773, 0.000706595, -0.000154698, -0.000202307, 0.000192846, -0.00025779, 0.000109104, 0.000297708, 0.000623707, 0.000330241, -9.00601e-05, 0.000197424, -0.000707083, -0.000618824, 0.000507126, -0.000629444, 0.000204077, -0.000205725, -0.000289346, -0.000196081, 3.64086e-05, 0.000706656, 0.000131565, -0.000152257, 0.00039494, -0.000256142, -0.000568529, 0.000465438, 6.04572e-05, -0.000730277, 0.000572924, -0.000516343, -0.000760369, 0.000636464, 6.90634e-05, -0.000157506, -0.000185156, 0.000434309, 0.000233924, -0.00015482, -0.000405805, 0.000742058, -0.000567675, -0.000591723, 0.000561754, -0.000623402, 0.000329997, 0.000311747, -0.000872921, 0.000143223, 0.000143101, 0.000448531, 0.000375835, -0.000914609, 0.000888852, 7.51061e-05, 0.000319193, 0.000734977, -0.000364788, 6.12506e-05, 0.000144322, 0.00036198, 0.00049321, 0.000366375, 0.000849605, -0.000419416, -0.000534471, 0.000559313, 0.000949156, 0.00045555, -3.8789e-05, 0.000182226, 0.000692312, -0.000986023, 0.000588855, -0.000561449, 0.000330241, 0.000258278, 5.48418e-05, -5.81378e-05, -0.000162999, 0.000225806, 0.000413251, -3.40281e-05, 0.000159093, -0.000760918, 0.000315653, -0.000305338, 0.000465865, -0.000844111, 0.000261391, 0.00047203, -0.00060094, 0.00061919, -0.000152501, 5.23392e-05, 0.000323466, 0.000306864, -0.000981445, -0.000150121, 0.000576098, 0.000182165, -0.000683035, 0.000189306, 0.000716971, 0.000743461, -0.000867367, -0.000444929, -0.000221473, 0.00027427, 0.000953185, -0.00015775, 0.000515976, 9.3234e-05, 0.000613758, -0.00039433, 0.000657216, -0.000195837, 0.000547411, -0.000689383, 0.000152623, 0.000546129, -0.000965331, 0.000582324, 0.00042552, 0.00024308, -0.00054619, -0.00054387, -0.000378399, 0.000854488, -0.000469283, -0.000372112, -0.000140599, -0.000375347, 0.000588916, -0.000296793, 0.000479965, 0.000333354, 0.000799554, 0.000448103, -0.000702872, 0.000545213, 0.000431562, 3.86059e-05, -0.000152623, 0.000860164, -0.000898556, -0.000689077, 0.00063976, 0.000163244, -0.000976623, -0.000988403, 0.000405927, 0.000874813, 0.000259255, -0.00095294, -0.000649586, 0.000200049, -3.15867e-05, -0.000265908, 0.000400311, -0.000620289, -0.000341899, -0.00095056, 0.000455245, 0.00093939, 0.000433088, -0.000119663, -0.000362407, -6.00909e-05, 0.000245827, -0.000726249, 0.000542405, -0.000772759, -0.000853633, -0.000312845, -0.000512619, 0.000682791, 0.00053264, 0.000237953, -0.000237098, 0.000472579, 0.000399884, -4.61135e-05, 0.000881954, 0.000298257, 0.000591296, -0.000977355, -0.000169897, 0.000646529, 4.78801e-05, 4.29064e-05, 0.000316138, 3.89031e-05, 5.70391e-05, -0.000729057, 1.98675e-05, 0.000282388, -0.000494186, -0.000123203, -0.000153966, -0.000280679, 0.000127659, -0.000811701, -0.000829463, 0.000476852, -0.000246193, -5.58794e-05, -0.000907651, -0.000282693, -0.000436628, -0.000457076, -0.000316935, 0.000888424, -0.000666973, -0.000706295, -0.00076295, 0.000973376, 0.000687967, -0.0003337, -0.000478115, -0.000261136, 0.000347906, -0.000462084, -0.000975003, 0.000988369, -0.00061626, -0.0005515, 0.000209571, -0.000189917, 0.000463424, 0.000848994, 0.000761589, -0.000172033, -0.000898679, -0.000651906, 0.000837825, 0.000450117, 0.000910307, -3.40387e-05, 0.000318752, 0.000120628, 0.000850681, 0.00038309, 5.77305e-05, -0.000431666, 0.000480469, 0.00018856, -0.000871692, -0.000944386, -0.000796382, 0.000132024, 7.93114e-05, -0.000367885, -0.000475753, -0.000625233, 0.000182043, 0.000383526, 0.000294534, 0.000738456, 0.000680593, -0.00032139, -3.78735e-05, -4.7029e-05, 4.0437e-05, 0.000422131, -0.000176056, 0.000910144, -0.000798771, -0.0006959, -0.000727465, 0.000909861, 0.000823375, 4.88174e-05, -0.00094969, -8.68684e-05, 0.00053965, 0.000665431, 0.000495262, -0.000208753, 0.000208898, 0.000699881, 0.000794733, -0.000423261, -0.0008399, 0.000483688, 0.000234413, 0.0007116, -0.000554674, 0.000381634, -0.00055443, 0.000297037, -0.000910886, 4.43992e-05, 0.00065881, 0.000345979, -0.000660278, -0.00034117, 0.000950759, -0.000970503, -8.41108e-05, -0.000806226, -0.000504138, -7.02443e-05, 0.000259413, -0.000344092, 0.000816917, -0.00071128, 0.000787652, 0.000337443, 3.51878e-05, -0.000739372, 0.000138096, 6.49739e-05, 0.000119175, -0.000841975, 0.000421308, 0.000449812, -0.000865963, 0.000703665, 0.000470443, -0.000861446, -0.000506573, -0.000719113, -0.000907997, -0.000935317, -0.000790991, -0.00081708, 0.00031374, -0.000308435, -0.000863177, 0.000862016, 0.000636998, 0.000274694, 0.000235605, 0.000182121, 0.000286233, -0.000899533, 0.000808344, -0.000332194, 0.000458052, 0.000741813, -0.000242347, -0.000246986, 0.000571459, -0.000693899, -0.000167638, 3.14646e-05, -0.000481552, -0.000313578, 0.000879513, 0.000507462, 0.000914118, 0.000811776, -0.000905071, 0.000845714, 0.000344063, 0.000892319, 0.000267344, -0.000380976, 0.000619678, 0.000679067, -0.000959627, -0.000435464, -0.000976814, 0.000705069, 0.000149449, 0.000824824, 0.000559496, 0.000538743, -0.000318827, 0.000206519, -0.000793451, 3.39061e-05, 0.000318033, 0.000424177, -0.000835017, 0.000579577, 0.00059065, -0.000646524, 0.00010846, 0.000350857, 0.000128185, -0.000720403, 0.000430958, -0.000445906, 0.000903073, 0.000146886, 0.000502792, -0.000313334, 0.000493177, 0.00081368, -8.51669e-05, 0.000777276, -0.000683462, 0.000293374, 0.000729728, 0.000640492, -0.000106052, -0.000986206, 0.000735099, 0.000126438, 9.12809e-05, 6.07013e-05, 0.000689627, 0.000370053, 0.000373068, 0.000430916, -0.000424423, 4.17318e-05, -0.00094944, 0.000280184, -0.000153993, 0.000596423, -0.000467391, 0.000174413, 0.000678884, -0.000474899, -0.000421585, 0.000342962, -0.000775488, -0.000396588, 0.000540391, -7.96228e-05, -0.000146214, 0.000142064, 0.00062273, 0.000205481, -0.000587024, 0.000237159, 0.000124912, -9.49431e-05, 0.000469405, 1.99366e-05, 0.00069539, 0.000387153, 0.000563485, -9.36003e-05, 0.000577854, 0.00092854, -0.000541525, -0.000151212, -0.000132818, -3.36588e-05, 0.000388409, 0.000582263, -0.000246592, 0.000350897, -0.000686008, 0.000880062, -0.000225867, 0.000587817, 0.00016422, 0.000798517, -0.000933287, 9.70183e-05, 9.39665e-05, 0.000929868, -0.000385601, 0.000456526, 0.000729118, -0.000348283, -0.000500994, 0.000655208, -0.000581469, 0.000375225, 0.000147923, 0.000340746, 